{"learner":{"attributes":{"scikit_learn":"{\"_estimator_type\": \"ranker\"}"},"feature_names":["close_csr_sec_res","volume_csr_sec_res","vol_5_csr_sec_res","vol_20_csr_sec_res","volume_ratio_csr_sec_res","vol_ratio_csr_sec_res","ret_vol_ratio_csr_sec_res","momentum_5_csr_sec_res","momentum_10_csr_sec_res","momentum_20_csr_sec_res","momentum_5_20_csr_sec_res","sharpe_5_csr_sec_res","sharpe_20_csr_sec_res","volume_accel_csr_sec_res","vol_regime_high_csr_sec_res","vol_regime_low_csr_sec_res","close_csr","volume_csr","vol_5_csr","vol_20_csr","volume_ratio_csr","vol_ratio_csr","ret_vol_ratio_csr","momentum_5_csr","momentum_10_csr","momentum_20_csr","momentum_5_20_csr","sharpe_5_csr","sharpe_20_csr","volume_accel_csr","vol_regime_high_csr","vol_regime_low_csr","volume_position_20_csr","liquidity_proxy_csr","breakout_signal_csr","bb_upper_csz","bb_lower_csz","bb_width_csz","bb_position_csz","ma_fast_csz","ma_slow_csz","ma_ratio_csz","rsi_14_csz","price_ma_ratio_csz","mean_reversion_csz"],"feature_types":["float","float","float","float","float","float","float","float","float","float","float","float","float","float","float","float","float","float","float","float","float","float","float","float","float","float","float","float","float","float","float","float","float","float","float","float","float","float","float","float","float","float","float","float","float"],"gradient_booster":{"model":{"gbtree_model_param":{"num_parallel_tree":"1","num_trees":"1000"},"iteration_indptr":[0,1,2,3,4,5,6,7,8,9,10,11,12,13,14,15,16,17,18,19,20,21,22,23,24,25,26,27,28,29,30,31,32,33,34,35,36,37,38,39,40,41,42,43,44,45,46,47,48,49,50,51,52,53,54,55,56,57,58,59,60,61,62,63,64,65,66,67,68,69,70,71,72,73,74,75,76,77,78,79,80,81,82,83,84,85,86,87,88,89,90,91,92,93,94,95,96,97,98,99,100,101,102,103,104,105,106,107,108,109,110,111,112,113,114,115,116,117,118,119,120,121,122,123,124,125,126,127,128,129,130,131,132,133,134,135,136,137,138,139,140,141,142,143,144,145,146,147,148,149,150,151,152,153,154,155,156,157,158,159,160,161,162,163,164,165,166,167,168,169,170,171,172,173,174,175,176,177,178,179,180,181,182,183,184,185,186,187,188,189,190,191,192,193,194,195,196,197,198,199,200,201,202,203,204,205,206,207,208,209,210,211,212,213,214,215,216,217,218,219,220,221,222,223,224,225,226,227,228,229,230,231,232,233,234,235,236,237,238,239,240,241,242,243,244,245,246,247,248,249,250,251,252,253,254,255,256,257,258,259,260,261,262,263,264,265,266,267,268,269,270,271,272,273,274,275,276,277,278,279,280,281,282,283,284,285,286,287,288,289,290,291,292,293,294,295,296,297,298,299,300,301,302,303,304,305,306,307,308,309,310,311,312,313,314,315,316,317,318,319,320,321,322,323,324,325,326,327,328,329,330,331,332,333,334,335,336,337,338,339,340,341,342,343,344,345,346,347,348,349,350,351,352,353,354,355,356,357,358,359,360,361,362,363,364,365,366,367,368,369,370,371,372,373,374,375,376,377,378,379,380,381,382,383,384,385,386,387,388,389,390,391,392,393,394,395,396,397,398,399,400,401,402,403,404,405,406,407,408,409,410,411,412,413,414,415,416,417,418,419,420,421,422,423,424,425,426,427,428,429,430,431,432,433,434,435,436,437,438,439,440,441,442,443,444,445,446,447,448,449,450,451,452,453,454,455,456,457,458,459,460,461,462,463,464,465,466,467,468,469,470,471,472,473,474,475,476,477,478,479,480,481,482,483,484,485,486,487,488,489,490,491,492,493,494,495,496,497,498,499,500,501,502,503,504,505,506,507,508,509,510,511,512,513,514,515,516,517,518,519,520,521,522,523,524,525,526,527,528,529,530,531,532,533,534,535,536,537,538,539,540,541,542,543,544,545,546,547,548,549,550,551,552,553,554,555,556,557,558,559,560,561,562,563,564,565,566,567,568,569,570,571,572,573,574,575,576,577,578,579,580,581,582,583,584,585,586,587,588,589,590,591,592,593,594,595,596,597,598,599,600,601,602,603,604,605,606,607,608,609,610,611,612,613,614,615,616,617,618,619,620,621,622,623,624,625,626,627,628,629,630,631,632,633,634,635,636,637,638,639,640,641,642,643,644,645,646,647,648,649,650,651,652,653,654,655,656,657,658,659,660,661,662,663,664,665,666,667,668,669,670,671,672,673,674,675,676,677,678,679,680,681,682,683,684,685,686,687,688,689,690,691,692,693,694,695,696,697,698,699,700,701,702,703,704,705,706,707,708,709,710,711,712,713,714,715,716,717,718,719,720,721,722,723,724,725,726,727,728,729,730,731,732,733,734,735,736,737,738,739,740,741,742,743,744,745,746,747,748,749,750,751,752,753,754,755,756,757,758,759,760,761,762,763,764,765,766,767,768,769,770,771,772,773,774,775,776,777,778,779,780,781,782,783,784,785,786,787,788,789,790,791,792,793,794,795,796,797,798,799,800,801,802,803,804,805,806,807,808,809,810,811,812,813,814,815,816,817,818,819,820,821,822,823,824,825,826,827,828,829,830,831,832,833,834,835,836,837,838,839,840,841,842,843,844,845,846,847,848,849,850,851,852,853,854,855,856,857,858,859,860,861,862,863,864,865,866,867,868,869,870,871,872,873,874,875,876,877,878,879,880,881,882,883,884,885,886,887,888,889,890,891,892,893,894,895,896,897,898,899,900,901,902,903,904,905,906,907,908,909,910,911,912,913,914,915,916,917,918,919,920,921,922,923,924,925,926,927,928,929,930,931,932,933,934,935,936,937,938,939,940,941,942,943,944,945,946,947,948,949,950,951,952,953,954,955,956,957,958,959,960,961,962,963,964,965,966,967,968,969,970,971,972,973,974,975,976,977,978,979,980,981,982,983,984,985,986,987,988,989,990,991,992,993,994,995,996,997,998,999,1000],"tree_info":[0,0,0,0,0,0,0,0,0,0,0,0,0,0,0,0,0,0,0,0,0,0,0,0,0,0,0,0,0,0,0,0,0,0,0,0,0,0,0,0,0,0,0,0,0,0,0,0,0,0,0,0,0,0,0,0,0,0,0,0,0,0,0,0,0,0,0,0,0,0,0,0,0,0,0,0,0,0,0,0,0,0,0,0,0,0,0,0,0,0,0,0,0,0,0,0,0,0,0,0,0,0,0,0,0,0,0,0,0,0,0,0,0,0,0,0,0,0,0,0,0,0,0,0,0,0,0,0,0,0,0,0,0,0,0,0,0,0,0,0,0,0,0,0,0,0,0,0,0,0,0,0,0,0,0,0,0,0,0,0,0,0,0,0,0,0,0,0,0,0,0,0,0,0,0,0,0,0,0,0,0,0,0,0,0,0,0,0,0,0,0,0,0,0,0,0,0,0,0,0,0,0,0,0,0,0,0,0,0,0,0,0,0,0,0,0,0,0,0,0,0,0,0,0,0,0,0,0,0,0,0,0,0,0,0,0,0,0,0,0,0,0,0,0,0,0,0,0,0,0,0,0,0,0,0,0,0,0,0,0,0,0,0,0,0,0,0,0,0,0,0,0,0,0,0,0,0,0,0,0,0,0,0,0,0,0,0,0,0,0,0,0,0,0,0,0,0,0,0,0,0,0,0,0,0,0,0,0,0,0,0,0,0,0,0,0,0,0,0,0,0,0,0,0,0,0,0,0,0,0,0,0,0,0,0,0,0,0,0,0,0,0,0,0,0,0,0,0,0,0,0,0,0,0,0,0,0,0,0,0,0,0,0,0,0,0,0,0,0,0,0,0,0,0,0,0,0,0,0,0,0,0,0,0,0,0,0,0,0,0,0,0,0,0,0,0,0,0,0,0,0,0,0,0,0,0,0,0,0,0,0,0,0,0,0,0,0,0,0,0,0,0,0,0,0,0,0,0,0,0,0,0,0,0,0,0,0,0,0,0,0,0,0,0,0,0,0,0,0,0,0,0,0,0,0,0,0,0,0,0,0,0,0,0,0,0,0,0,0,0,0,0,0,0,0,0,0,0,0,0,0,0,0,0,0,0,0,0,0,0,0,0,0,0,0,0,0,0,0,0,0,0,0,0,0,0,0,0,0,0,0,0,0,0,0,0,0,0,0,0,0,0,0,0,0,0,0,0,0,0,0,0,0,0,0,0,0,0,0,0,0,0,0,0,0,0,0,0,0,0,0,0,0,0,0,0,0,0,0,0,0,0,0,0,0,0,0,0,0,0,0,0,0,0,0,0,0,0,0,0,0,0,0,0,0,0,0,0,0,0,0,0,0,0,0,0,0,0,0,0,0,0,0,0,0,0,0,0,0,0,0,0,0,0,0,0,0,0,0,0,0,0,0,0,0,0,0,0,0,0,0,0,0,0,0,0,0,0,0,0,0,0,0,0,0,0,0,0,0,0,0,0,0,0,0,0,0,0,0,0,0,0,0,0,0,0,0,0,0,0,0,0,0,0,0,0,0,0,0,0,0,0,0,0,0,0,0,0,0,0,0,0,0,0,0,0,0,0,0,0,0,0,0,0,0,0,0,0,0,0,0,0,0,0,0,0,0,0,0,0,0,0,0,0,0,0,0,0,0,0,0,0,0,0,0,0,0,0,0,0,0,0,0,0,0,0,0,0,0,0,0,0,0,0,0,0,0,0,0,0,0,0,0,0,0,0,0,0,0,0,0,0,0,0,0,0,0,0,0,0,0,0,0,0,0,0,0,0,0,0,0,0,0,0,0,0,0,0,0,0,0,0,0,0,0,0,0,0,0,0,0,0,0,0,0,0,0,0,0,0,0,0,0,0,0,0,0,0,0,0,0,0,0,0,0,0,0,0,0,0,0,0,0,0,0,0,0,0,0,0,0,0,0,0,0,0,0,0,0,0,0,0,0,0,0,0,0,0,0,0,0,0,0,0,0,0,0,0,0,0,0,0,0,0,0,0,0,0,0,0,0,0,0,0,0,0,0,0,0,0,0,0,0,0,0,0,0,0,0,0,0,0,0,0,0,0,0,0,0,0,0,0,0,0,0,0,0,0,0,0,0,0,0,0,0,0,0,0,0,0,0,0,0,0,0,0,0,0,0,0,0,0,0,0,0,0,0,0,0,0,0,0,0,0,0,0,0,0,0,0,0,0,0,0,0,0,0,0,0,0,0,0,0,0,0,0,0,0,0,0,0,0,0,0,0,0,0,0,0,0],"trees":[{"base_weights":[2.7111175E-3,1.0525508E-1,-8.969188E-4,2.8150234E-1,8.3324514E-2,1.7083788E-2,-1.4413816E-2,3.9478105E-2,4.204768E-1,5.0792214E-3,1.558351E-1,-2.0482317E-2,2.6377702E-2,-5.207803E-3,-5.974003E-2,-5.455729E-3,1.086657E-2,2.278435E-2,5.628543E-3,-8.6441514E-4,1.7006015E-2,-6.071071E-3,8.791908E-3,-5.020466E-4,-5.829173E-3,1.6237505E-3,-2.1472438E-3,-1.4092145E-3,6.06279E-4,-3.2337059E-3,4.1153375E-3],"categories":[],"categories_nodes":[],"categories_segments":[],"categories_sizes":[],"default_left":[0,0,0,0,0,0,0,0,0,0,0,0,0,0,0,0,0,0,0,0,0,0,0,0,0,0,0,0,0,0,0],"id":0,"left_children":[1,3,5,7,9,11,13,15,17,19,21,23,25,27,29,-1,-1,-1,-1,-1,-1,-1,-1,-1,-1,-1,-1,-1,-1,-1,-1],"loss_changes":[3.3870413E0,1.1192307E0,2.1430767E0,1.0336516E0,1.5712544E0,1.3218803E0,2.0948496E0,4.4246063E-1,6.334567E-2,1.0739647E0,8.5022426E-1,7.3652726E-1,1.2843256E0,1.6714005E0,6.0348535E-1,0E0,0E0,0E0,0E0,0E0,0E0,0E0,0E0,0E0,0E0,0E0,0E0,0E0,0E0,0E0,0E0],"parents":[2147483647,0,0,1,1,2,2,3,3,4,4,5,5,6,6,7,7,8,8,9,9,10,10,11,11,12,12,13,13,14,14],"right_children":[2,4,6,8,10,12,14,16,18,20,22,24,26,28,30,-1,-1,-1,-1,-1,-1,-1,-1,-1,-1,-1,-1,-1,-1,-1,-1],"split_conditions":[-6.881141E-1,-7.5352925E-1,4.3521595E-1,7.906977E-1,-7.204318E-1,2.2591361E-1,4.906971E-1,-3.370255E-1,1.1558434E0,9.9667776E-1,3.986711E-2,1.2464508E0,9.269103E-1,4.152824E-1,2.003212E0,-5.455729E-3,1.086657E-2,2.278435E-2,5.628543E-3,-8.6441514E-4,1.7006015E-2,-6.071071E-3,8.791908E-3,-5.020466E-4,-5.829173E-3,1.6237505E-3,-2.1472438E-3,-1.4092145E-3,6.06279E-4,-3.2337059E-3,4.1153375E-3],"split_indices":[40,36,25,19,36,19,36,6,5,19,25,0,17,19,38,0,0,0,0,0,0,0,0,0,0,0,0,0,0,0,0],"split_type":[0,0,0,0,0,0,0,0,0,0,0,0,0,0,0,0,0,0,0,0,0,0,0,0,0,0,0,0,0,0,0],"sum_hessian":[9.123886E3,3.0914172E2,8.814743E3,3.1085781E1,2.7805597E2,3.779362E3,5.0353813E3,1.2538193E1,1.8547588E1,1.3543207E2,1.4262389E2,7.469628E2,3.0323992E3,4.1890063E3,8.463751E2,6.9458237E0,5.592369E0,1.5491404E1,3.056185E0,1.284547E2,6.9773774E0,8.578619E0,1.3404526E2,6.7669E2,7.02728E1,2.7895483E3,2.428508E2,1.8032296E3,2.3857769E3,8.196958E2,2.66793E1],"tree_param":{"num_deleted":"0","num_feature":"45","num_nodes":"31","size_leaf_vector":"1"}},{"base_weights":[1.958555E-3,1.0297133E-1,-2.8062249E-3,2.1694021E-1,6.958875E-2,1.0962544E-2,-4.0142838E-2,6.809663E-2,2.8475013E-1,2.2705032E-2,1.363387E-1,-2.6192207E-2,1.9027669E-2,-2.8073989E-2,-8.890142E-2,2.2178303E-2,4.025859E-4,2.1854615E-2,7.7596656E-3,-1.0144057E-3,1.1548294E-2,9.7690215E-3,1.4042269E-3,8.237662E-3,-1.6674154E-3,1.1761084E-3,-1.9273941E-3,-3.5145895E-3,-9.7572216E-4,-5.1272186E-3,2.8293454E-3],"categories":[],"categories_nodes":[],"categories_segments":[],"categories_sizes":[],"default_left":[0,0,0,0,0,0,0,0,0,0,0,0,0,0,0,0,0,0,0,0,0,0,0,0,0,0,0,0,0,0,0],"id":1,"left_children":[1,3,5,7,9,11,13,15,17,19,21,23,25,27,29,-1,-1,-1,-1,-1,-1,-1,-1,-1,-1,-1,-1,-1,-1,-1,-1],"loss_changes":[6.578336E0,2.2835326E0,6.7033086E0,1.317348E0,1.4794822E0,2.8531978E0,2.050849E0,9.901359E-1,1.6528811E0,2.5834339E0,1.2238007E0,2.3162074E0,2.0254507E0,1.0076606E0,1.3947968E0,0E0,0E0,0E0,0E0,0E0,0E0,0E0,0E0,0E0,0E0,0E0,0E0,0E0,0E0,0E0,0E0],"parents":[2147483647,0,0,1,1,2,2,3,3,4,4,5,5,6,6,7,7,8,8,9,9,10,10,11,11,12,12,13,13,14,14],"right_children":[2,4,6,8,10,12,14,16,18,20,22,24,26,28,30,-1,-1,-1,-1,-1,-1,-1,-1,-1,-1,-1,-1,-1,-1,-1,-1],"split_conditions":[-6.9127005E-1,-7.3855466E-1,5.1495016E-1,3.986711E-1,3.986711E-2,-7.5635374E-1,4.3053955E-1,-2.5563576E0,5.182724E-1,2.0549579E0,-1.356271E0,6.9767445E-2,8.870432E-1,-7.5271153E-1,2.435751E0,2.2178303E-2,4.025859E-4,2.1854615E-2,7.7596656E-3,-1.0144057E-3,1.1548294E-2,9.7690215E-3,1.4042269E-3,8.237662E-3,-1.6674154E-3,1.1761084E-3,-1.9273941E-3,-3.5145895E-3,-9.7572216E-4,-5.1272186E-3,2.8293454E-3],"split_indices":[40,40,25,33,16,37,40,43,31,37,0,24,30,37,38,0,0,0,0,0,0,0,0,0,0,0,0,0,0,0,0],"split_type":[0,0,0,0,0,0,0,0,0,0,0,0,0,0,0,0,0,0,0,0,0,0,0,0,0,0,0,0,0,0,0],"sum_hessian":[1.3643734E4,6.1367444E2,1.303006E4,1.3585829E2,4.7781613E2,9.518588E3,3.5114722E3,4.423816E1,9.1620125E1,2.8313007E2,1.9468605E2,1.6946608E3,7.823927E3,2.8189268E3,6.9254553E2,4.1083236E0,4.0129833E1,3.95707E1,5.2049427E1,2.3578075E2,4.7349327E1,1.2433849E2,7.034755E1,5.9121037E1,1.6355397E3,7.260104E3,5.6382294E2,4.7078613E2,2.3481406E3,6.3433905E2,5.8206505E1],"tree_param":{"num_deleted":"0","num_feature":"45","num_nodes":"31","size_leaf_vector":"1"}},{"base_weights":[5.0387013E-4,1.4146714E-2,-4.1994926E-2,2.4730134E-1,1.1978741E-2,8.7464675E-2,-5.2662645E-2,4.3510255E-1,1.4438659E-1,-4.7206383E-2,1.5813947E-2,1.08990066E-1,-1.5233436E-1,-4.195418E-2,-1.07402E-1,7.990577E-3,2.42409E-2,1.8381236E-2,2.468418E-3,9.130633E-3,-3.0847478E-3,1.7245895E-3,3.045197E-4,1.1447263E-2,3.5670835E-3,-1.1449268E-2,7.7275084E-3,-6.39271E-4,-2.7796184E-3,-5.8807335E-3,4.7175884E-3],"categories":[],"categories_nodes":[],"categories_segments":[],"categories_sizes":[],"default_left":[0,0,0,0,0,0,0,0,0,0,0,0,0,0,0,0,0,0,0,0,0,0,0,0,0,0,0,0,0,0,0],"id":2,"left_children":[1,3,5,7,9,11,13,15,17,19,21,23,25,27,29,-1,-1,-1,-1,-1,-1,-1,-1,-1,-1,-1,-1,-1,-1,-1,-1],"loss_changes":[7.827592E0,5.1366386E0,4.5356655E0,1.6268983E0,2.2985032E0,1.3180094E0,1.7535353E0,2.1612549E-1,1.2763802E0,2.060232E0,1.7244582E0,9.792819E-1,5.72753E-1,1.0025759E0,1.0410142E0,0E0,0E0,0E0,0E0,0E0,0E0,0E0,0E0,0E0,0E0,0E0,0E0,0E0,0E0,0E0,0E0],"parents":[2147483647,0,0,1,1,2,2,3,3,4,4,5,5,6,6,7,7,8,8,9,9,10,10,11,11,12,12,13,13,14,14],"right_children":[2,4,6,8,10,12,14,16,18,20,22,24,26,28,30,-1,-1,-1,-1,-1,-1,-1,-1,-1,-1,-1,-1,-1,-1,-1,-1],"split_conditions":[5.2491695E-1,-7.452588E-1,-6.9493276E-1,-1.6982007E0,1.295681E-1,1.6984884E0,4.4580388E-1,-1.1519907E0,9.9927455E-1,-2.3245747E0,3.488372E-1,-7.5352925E-1,-1.4756844E0,-3.6241925E-1,2.3605669E0,7.990577E-3,2.42409E-2,1.8381236E-2,2.468418E-3,9.130633E-3,-3.0847478E-3,1.7245895E-3,3.045197E-4,1.1447263E-2,3.5670835E-3,-1.1449268E-2,7.7275084E-3,-6.39271E-4,-2.7796184E-3,-5.8807335E-3,4.7175884E-3],"split_indices":[25,36,39,0,19,38,36,5,1,38,16,36,0,1,42,0,0,0,0,0,0,0,0,0,0,0,0,0,0,0,0],"split_type":[0,0,0,0,0,0,0,0,0,0,0,0,0,0,0,0,0,0,0,0,0,0,0,0,0,0,0,0,0,0,0],"sum_hessian":[1.3501154E4,1.02230625E4,3.2780916E3,9.1674385E1,1.0131389E4,2.4774733E2,3.0303442E3,2.9823856E1,6.185053E1,6.135991E2,9.517789E3,2.2872408E2,1.9023252E1,2.539007E3,4.9133725E2,6.1591372E0,2.366472E1,1.643868E1,4.5411846E1,3.4603622E1,5.7899554E2,3.2532625E3,6.264527E3,5.157561E1,1.7714847E2,1.5888333E1,3.1349192E0,8.124919E2,1.7265151E3,4.6893E2,2.2407244E1],"tree_param":{"num_deleted":"0","num_feature":"45","num_nodes":"31","size_leaf_vector":"1"}},{"base_weights":[4.6796238E-4,1.512825E-2,-4.743436E-2,2.3057944E-1,1.3654504E-2,7.056465E-2,-6.291912E-2,-7.206529E-3,2.6741746E-1,-5.917093E-2,1.7177967E-2,2.1035768E-1,3.417959E-2,-6.0089745E-2,-2.1811888E-1,-6.3679228E-3,1.5463564E-2,4.485439E-3,-4.1050646E-3,1.0329081E-2,8.194361E-4,-1.1519217E-3,1.3620587E-2,-6.5531456E-3,3.4211618E-3,-5.211394E-3,-2.533607E-3,-1.4192847E-2,-2.117492E-3],"categories":[],"categories_nodes":[],"categories_segments":[],"categories_sizes":[],"default_left":[0,0,0,0,0,0,0,0,0,0,0,0,0,0,0,0,0,0,0,0,0,0,0,0,0,0,0,0,0],"id":3,"left_children":[1,3,5,7,9,11,13,-1,15,17,19,21,23,25,27,-1,-1,-1,-1,-1,-1,-1,-1,-1,-1,-1,-1,-1,-1],"loss_changes":[9.401651E0,3.2256465E0,5.739296E0,1.0430732E0,2.612186E0,1.8128926E0,1.1643238E0,0E0,1.1519055E0,1.616218E0,1.4241142E0,1.112587E0,1.6629661E0,1.1080246E0,5.0122976E-1,0E0,0E0,0E0,0E0,0E0,0E0,0E0,0E0,0E0,0E0,0E0,0E0,0E0,0E0],"parents":[2147483647,0,0,1,1,2,2,3,3,4,4,5,5,6,6,8,8,9,9,10,10,11,11,12,12,13,13,14,14],"right_children":[2,4,6,8,10,12,14,-1,16,18,20,22,24,26,28,-1,-1,-1,-1,-1,-1,-1,-1,-1,-1,-1,-1,-1,-1],"split_conditions":[5.016611E-1,-7.5352925E-1,-6.881141E-1,-1.8250562E0,1.3289036E-1,-7.5352925E-1,1.8409185E0,-7.206529E-3,3.9534885E-1,7.3089704E-2,-2.8095715E0,6.41196E-1,-7.2179323E-1,-7.457126E-1,1.5363466E0,-6.3679228E-3,1.5463564E-2,4.485439E-3,-4.1050646E-3,1.0329081E-2,8.194361E-4,-1.1519217E-3,1.3620587E-2,-6.5531456E-3,3.4211618E-3,-5.211394E-3,-2.533607E-3,-1.4192847E-2,-2.117492E-3],"split_indices":[25,36,40,8,19,36,0,0,19,24,42,25,40,37,1,0,0,0,0,0,0,0,0,0,0,0,0,0,0],"split_type":[0,0,0,0,0,0,0,0,0,0,0,0,0,0,0,0,0,0,0,0,0,0,0,0,0,0,0,0,0],"sum_hessian":[1.33882295E4,1.0253613E4,3.134616E3,6.708778E1,1.0186525E4,3.62056E2,2.7725598E3,5.240691E0,6.1847095E1,4.673355E2,9.71919E3,7.22308E1,2.8982523E2,2.726277E3,4.628272E1,5.3077636E0,5.653933E1,6.1012814E1,4.063227E2,3.7642033E1,9.681548E3,1.5096438E1,5.7134357E1,4.8279213E1,2.41546E2,4.7399927E2,2.2522778E3,3.237542E1,1.39073E1],"tree_param":{"num_deleted":"0","num_feature":"45","num_nodes":"29","size_leaf_vector":"1"}},{"base_weights":[-1.7914546E-3,1.0207816E-2,-4.5439497E-2,2.3569255E-1,8.552091E-3,6.337259E-2,-6.1848354E-2,2.8507072E-1,-5.774304E-3,-6.51356E-2,1.1515474E-2,1.4305456E-1,2.1906015E-3,-2.2223441E-1,-5.9903674E-2,1.6205274E-2,6.335626E-4,-1.7078815E-2,8.432362E-3,2.4372532E-3,-4.529217E-3,2.7484244E-3,3.6931664E-4,9.229039E-3,-3.4556258E-3,-2.1349217E-3,6.568988E-3,-1.5248752E-2,-6.8343333E-3,-3.8142651E-3,-2.143012E-3],"categories":[],"categories_nodes":[],"categories_segments":[],"categories_sizes":[],"default_left":[0,0,0,0,0,0,0,0,0,0,0,0,0,0,0,0,0,0,0,0,0,0,0,0,0,0,0,0,0,0,0],"id":4,"left_children":[1,3,5,7,9,11,13,15,17,19,21,23,25,27,29,-1,-1,-1,-1,-1,-1,-1,-1,-1,-1,-1,-1,-1,-1,-1,-1],"loss_changes":[6.934121E0,3.8460107E0,5.1055503E0,9.270463E-1,2.2463222E0,1.8097417E0,7.1955967E-1,6.254468E-1,9.742974E-1,1.1646765E0,1.7709183E0,1.4629757E0,1.2639319E0,7.341242E-2,6.67387E-1,0E0,0E0,0E0,0E0,0E0,0E0,0E0,0E0,0E0,0E0,0E0,0E0,0E0,0E0,0E0,0E0],"parents":[2147483647,0,0,1,1,2,2,3,3,4,4,5,5,6,6,7,7,8,8,9,9,10,10,11,11,12,12,13,13,14,14],"right_children":[2,4,6,8,10,12,14,16,18,20,22,24,26,28,30,-1,-1,-1,-1,-1,-1,-1,-1,-1,-1,-1,-1,-1,-1,-1,-1],"split_conditions":[5.016611E-1,-7.5352925E-1,-6.881141E-1,-9.269411E-2,1.295681E-1,-8.549398E-2,-6.7730916E-1,8.903654E-1,-4.9965236E-1,-1.7256473E0,1.0631229E-1,-6.9493276E-1,4.9833886E-2,5.3156145E-2,4.8504984E-1,1.6205274E-2,6.335626E-4,-1.7078815E-2,8.432362E-3,2.4372532E-3,-4.529217E-3,2.7484244E-3,3.6931664E-4,9.229039E-3,-3.4556258E-3,-2.1349217E-3,6.568988E-3,-1.5248752E-2,-6.8343333E-3,-3.8142651E-3,-2.143012E-3],"split_indices":[25,36,40,41,19,15,36,20,14,42,34,39,16,16,19,0,0,0,0,0,0,0,0,0,0,0,0,0,0,0,0],"split_type":[0,0,0,0,0,0,0,0,0,0,0,0,0,0,0,0,0,0,0,0,0,0,0,0,0,0,0,0,0,0,0],"sum_hessian":[1.3229008E4,1.0375832E4,2.8531758E3,7.3132935E1,1.0302699E4,3.7232925E2,2.4808464E3,6.076078E1,1.23721485E1,3.9538254E2,9.907316E3,1.5984286E2,2.1248639E2,2.6389786E1,2.4544568E3,5.2491962E1,8.26882E0,3.7702293E0,8.601919E0,7.11651E1,3.2421744E2,8.555106E2,9.051806E3,1.3429037E2,2.5552492E1,1.5811238E2,5.4374004E1,1.0213018E1,1.617677E1,1.2449906E3,1.2094662E3],"tree_param":{"num_deleted":"0","num_feature":"45","num_nodes":"31","size_leaf_vector":"1"}},{"base_weights":[-7.130803E-4,1.4305516E-2,-4.0945586E-2,2.3416251E-1,1.2300635E-2,7.125886E-2,-5.4884724E-2,2.547565E-1,-7.012244E-3,5.1441766E-2,3.2439334E-3,1.2626427E-1,9.580462E-3,-6.1521415E-2,9.343773E-3,1.4301494E-2,1.1322029E-3,9.301188E-5,3.2804844E-3,-2.4726323E-3,4.4867225E-4,4.508979E-3,1.3628058E-2,-2.2317253E-3,5.1060193E-3,-2.9717346E-3,-1.200814E-2,2.8729027E-3,-3.219757E-3],"categories":[],"categories_nodes":[],"categories_segments":[],"categories_sizes":[],"default_left":[0,0,0,0,0,0,0,0,0,0,0,0,0,0,0,0,0,0,0,0,0,0,0,0,0,0,0,0,0],"id":5,"left_children":[1,3,5,7,9,11,13,15,-1,17,19,21,23,25,27,-1,-1,-1,-1,-1,-1,-1,-1,-1,-1,-1,-1,-1,-1],"loss_changes":[7.981444E0,4.20716E0,5.6229E0,7.484298E-1,3.3722427E0,1.3305709E0,1.3688211E0,5.5704784E-1,0E0,1.2493114E0,2.3346217E0,1.0167489E0,9.6874017E-1,1.0220213E0,1.069878E0,0E0,0E0,0E0,0E0,0E0,0E0,0E0,0E0,0E0,0E0,0E0,0E0,0E0,0E0],"parents":[2147483647,0,0,1,1,2,2,3,3,4,4,5,5,6,6,7,7,9,9,10,10,11,11,12,12,13,13,14,14],"right_children":[2,4,6,8,10,12,14,16,-1,18,20,22,24,26,28,-1,-1,-1,-1,-1,-1,-1,-1,-1,-1,-1,-1,-1,-1],"split_conditions":[4.4186047E-1,-7.5352925E-1,-6.881141E-1,9.8671097E-1,1.0631229E-1,-8.549398E-2,1.4432344E0,-2.634048E-1,-7.012244E-3,2.6578072E-2,-7.5635374E-1,1.9613122E0,4.9833886E-2,1.8409185E0,3.6046013E-1,1.4301494E-2,1.1322029E-3,9.301188E-5,3.2804844E-3,-2.4726323E-3,4.4867225E-4,4.508979E-3,1.3628058E-2,-2.2317253E-3,5.1060193E-3,-2.9717346E-3,-1.200814E-2,2.8729027E-3,-3.219757E-3],"split_indices":[25,36,40,24,34,15,1,41,0,34,37,37,16,0,43,0,0,0,0,0,0,0,0,0,0,0,0,0,0],"split_type":[0,0,0,0,0,0,0,0,0,0,0,0,0,0,0,0,0,0,0,0,0,0,0,0,0,0,0,0,0],"sum_hessian":[1.3200809E4,9.611636E3,3.589173E3,8.431315E1,9.527322E3,3.9490988E2,3.1942632E3,8.0776344E1,3.5368083E0,1.7864152E3,7.740907E3,2.0678307E2,1.8812682E2,2.8966006E3,2.976627E2,7.0396194E1,1.0380144E1,3.9909113E2,1.3873241E3,7.558981E2,6.9850093E3,1.6901198E2,3.7771088E1,1.1859947E2,6.952735E1,2.8663435E3,3.0256857E1,1.8121713E2,1.1644557E2],"tree_param":{"num_deleted":"0","num_feature":"45","num_nodes":"29","size_leaf_vector":"1"}},{"base_weights":[3.7350188E-4,1.4413816E-2,-4.0399145E-2,1.1542343E-2,1.2029883E-1,8.38409E-2,-5.4479674E-2,2.9527886E-2,-2.4186228E-3,1.9512887E-1,3.4273334E-2,1.5538521E-1,2.484543E-2,-6.293109E-2,7.735324E-3,1.9031022E-3,-1.2736886E-3,-3.0898508E-3,2.0267107E-4,7.0854314E-3,1.8105667E-2,6.8299833E-4,1.5159528E-2,5.2612848E-3,1.33743305E-2,-1.340826E-2,2.1941434E-3,-2.8277086E-3,-6.131431E-3,1.7531894E-2,1.9942352E-5],"categories":[],"categories_nodes":[],"categories_segments":[],"categories_sizes":[],"default_left":[0,0,0,0,0,0,0,0,0,0,0,0,0,0,0,0,0,0,0,0,0,0,0,0,0,0,0,0,0,0,0],"id":6,"left_children":[1,3,5,7,9,11,13,15,17,19,21,23,25,27,29,-1,-1,-1,-1,-1,-1,-1,-1,-1,-1,-1,-1,-1,-1,-1,-1],"loss_changes":[7.47793E0,2.9399488E0,5.858471E0,2.3803182E0,1.6087592E0,1.4119036E0,1.5874605E0,1.9469805E0,2.0543253E0,1.0567875E0,6.359338E-1,7.655511E-1,1.0599769E0,9.765701E-1,8.7017167E-1,0E0,0E0,0E0,0E0,0E0,0E0,0E0,0E0,0E0,0E0,0E0,0E0,0E0,0E0,0E0,0E0],"parents":[2147483647,0,0,1,1,2,2,3,3,4,4,5,5,6,6,7,7,8,8,9,9,10,10,11,11,12,12,13,13,14,14],"right_children":[2,4,6,8,10,12,14,16,18,20,22,24,26,28,30,-1,-1,-1,-1,-1,-1,-1,-1,-1,-1,-1,-1,-1,-1,-1,-1],"split_conditions":[4.4186047E-1,9.800664E-1,-6.914215E-1,-9.618423E-1,-4.1911975E-1,6.179402E-1,1.4432344E0,1.2149729E0,-9.671201E-1,-6.477802E-1,9.9667776E-1,4.6511628E-2,-1.1583326E0,7.706985E-1,1.3289036E-2,1.9031022E-3,-1.2736886E-3,-3.0898508E-3,2.0267107E-4,7.0854314E-3,1.8105667E-2,6.8299833E-4,1.5159528E-2,5.2612848E-3,1.33743305E-2,-1.340826E-2,2.1941434E-3,-2.8277086E-3,-6.131431E-3,1.7531894E-2,1.9942352E-5],"split_indices":[25,19,39,38,39,22,1,3,3,0,20,16,44,35,16,0,0,0,0,0,0,0,0,0,0,0,0,0,0,0,0],"split_type":[0,0,0,0,0,0,0,0,0,0,0,0,0,0,0,0,0,0,0,0,0,0,0,0,0,0,0,0,0,0,0],"sum_hessian":[1.3063286E4,9.719918E3,3.3433684E3,9.466364E3,2.5355386E2,3.3861102E2,3.0047573E3,4.1390576E3,5.327306E3,1.3362231E2,1.1993155E2,1.5078725E2,1.8782376E2,2.6467954E3,3.579619E2,3.585205E3,5.538528E2,5.234272E2,4.803879E3,1.0449068E2,2.913164E1,1.13690285E2,6.2412715E0,1.074696E2,4.331765E1,9.541566E0,1.782822E2,2.3963828E3,2.5041275E2,5.2523456E0,3.5270956E2],"tree_param":{"num_deleted":"0","num_feature":"45","num_nodes":"31","size_leaf_vector":"1"}},{"base_weights":[-6.3789333E-4,2.902238E-2,-3.305227E-2,5.190392E-2,1.2759696E-2,1.913627E-1,-3.7153386E-2,1.5286835E-1,4.6113215E-2,-2.834701E-2,2.2281198E-2,2.4458377E-1,-7.435391E-2,-1.6229376E-2,-5.902327E-2,-9.782487E-3,9.227978E-3,1.9720225E-3,6.335416E-3,3.615216E-3,-2.1155453E-3,-1.4370447E-3,1.5792808E-3,-8.344444E-3,1.43104615E-2,-1.55163845E-2,6.9952286E-3,-1.1150679E-3,3.7129465E-3,1.8236783E-3,-3.5485027E-3],"categories":[],"categories_nodes":[],"categories_segments":[],"categories_sizes":[],"default_left":[0,0,0,0,0,0,0,0,0,0,0,0,0,0,0,0,0,0,0,0,0,0,0,0,0,0,0,0,0,0,0],"id":7,"left_children":[1,3,5,7,9,11,13,15,17,19,21,23,25,27,29,-1,-1,-1,-1,-1,-1,-1,-1,-1,-1,-1,-1,-1,-1,-1,-1],"loss_changes":[1.2473973E1,2.5126529E0,5.70575E0,1.6093488E0,1.5523503E0,1.6255627E0,2.77814E0,1.7351961E0,1.4050617E0,1.0494971E0,1.5316825E0,1.7072067E0,1.1035099E0,1.711418E0,3.4032192E0,0E0,0E0,0E0,0E0,0E0,0E0,0E0,0E0,0E0,0E0,0E0,0E0,0E0,0E0,0E0,0E0],"parents":[2147483647,0,0,1,1,2,2,3,3,4,4,5,5,6,6,7,7,8,8,9,9,10,10,11,11,12,12,13,13,14,14],"right_children":[2,4,6,8,10,12,14,16,18,20,22,24,26,28,30,-1,-1,-1,-1,-1,-1,-1,-1,-1,-1,-1,-1,-1,-1,-1,-1],"split_conditions":[-7.235706E-1,1.1960133E-1,-7.5352925E-1,2.857143E-1,-6.8932456E-1,8.803987E-1,4.385382E-1,1.4617941E-1,4.9833888E-1,-1.5069666E0,-1.5478773E0,-1.585231E0,9.833887E-1,1.6398712E0,-6.815794E-1,-9.782487E-3,9.227978E-3,1.9720225E-3,6.335416E-3,3.615216E-3,-2.1155453E-3,-1.4370447E-3,1.5792808E-3,-8.344444E-3,1.43104615E-2,-1.55163845E-2,6.9952286E-3,-1.1150679E-3,3.7129465E-3,1.8236783E-3,-3.5485027E-3],"split_indices":[38,25,36,30,37,28,25,30,34,8,7,8,25,37,39,0,0,0,0,0,0,0,0,0,0,0,0,0,0,0,0],"split_type":[0,0,0,0,0,0,0,0,0,0,0,0,0,0,0,0,0,0,0,0,0,0,0,0,0,0,0,0,0,0,0],"sum_hessian":[1.2970125E4,6.7712876E3,6.1988374E3,2.8087932E3,3.9624944E3,1.0917231E2,6.089665E3,1.4866484E2,2.6601284E3,7.4249615E2,3.2199983E3,9.14008E1,1.7771505E1,3.1162498E3,2.9734155E3,1.1266037E1,1.373988E2,2.4606238E3,1.9950455E2,8.85699E1,6.539263E2,4.943322E2,2.725666E3,7.6232367E0,8.3777565E1,8.252535E0,9.5189705E0,2.922739E3,1.9351059E2,3.2923047E2,2.644185E3],"tree_param":{"num_deleted":"0","num_feature":"45","num_nodes":"31","size_leaf_vector":"1"}},{"base_weights":[2.6889374E-3,4.6600103E-2,-4.7837608E-2,2.9764953E-1,4.4848554E-2,4.459545E-2,-5.6278594E-2,3.573609E-1,5.981757E-2,5.7430938E-2,1.9926934E-2,-7.1994476E-2,6.742423E-2,-3.0575417E-2,-8.585274E-2,8.278977E-3,2.104263E-2,1.0522311E-2,-3.7178525E-3,3.0629549E-3,-1.4540021E-3,2.3982597E-3,-1.5706584E-3,-1.4780459E-2,-8.2407583E-4,6.284656E-4,6.0464116E-3,4.6984493E-4,-2.2899243E-3,-5.4916563E-3,-3.580043E-3],"categories":[],"categories_nodes":[],"categories_segments":[],"categories_sizes":[],"default_left":[0,0,0,0,0,0,0,0,0,0,0,0,0,0,0,0,0,0,0,0,0,0,0,0,0,0,0,0,0,0,0],"id":8,"left_children":[1,3,5,7,9,11,13,15,17,19,21,23,25,27,29,-1,-1,-1,-1,-1,-1,-1,-1,-1,-1,-1,-1,-1,-1,-1,-1],"loss_changes":[2.8665783E1,2.979165E0,4.692685E0,5.851393E-1,2.143756E0,1.3473649E0,4.168371E0,2.5191975E-1,2.9148528E-1,1.5170946E0,3.3299909E0,9.84043E-1,1.2226778E0,1.7999551E0,8.400974E-1,0E0,0E0,0E0,0E0,0E0,0E0,0E0,0E0,0E0,0E0,0E0,0E0,0E0,0E0,0E0,0E0],"parents":[2147483647,0,0,1,1,2,2,3,3,4,4,5,5,6,6,7,7,8,8,9,9,10,10,11,11,12,12,13,13,14,14],"right_children":[2,4,6,8,10,12,14,16,18,20,22,24,26,28,30,-1,-1,-1,-1,-1,-1,-1,-1,-1,-1,-1,-1,-1,-1,-1,-1],"split_conditions":[-6.245253E-1,-7.458637E-1,-6.8487024E-1,-4.97735E-1,1.79402E-1,1.7275748E-1,4.385382E-1,8.372093E-1,-1.4441687E0,1.6243182E0,4.1800785E-1,2.6578072E-1,7.2425246E-1,-7.2977716E-1,4.152824E-1,8.278977E-3,2.104263E-2,1.0522311E-2,-3.7178525E-3,3.0629549E-3,-1.4540021E-3,2.3982597E-3,-1.5706584E-3,-1.4780459E-2,-8.2407583E-4,6.284656E-4,6.0464116E-3,4.6984493E-4,-2.2899243E-3,-5.4916563E-3,-3.580043E-3],"split_indices":[43,39,39,8,28,33,25,19,9,5,0,28,19,38,33,0,0,0,0,0,0,0,0,0,0,0,0,0,0,0,0],"split_type":[0,0,0,0,0,0,0,0,0,0,0,0,0,0,0,0,0,0,0,0,0,0,0,0,0,0,0,0,0,0,0],"sum_hessian":[1.2916245E4,6.911657E3,6.004588E3,4.51514E1,6.866506E3,5.0074664E2,5.5038413E3,3.4950836E1,1.0200566E1,4.5584316E3,2.3080745E3,8.0571E1,4.2017566E2,2.9486182E3,2.5552231E3,1.0879448E1,2.4071388E1,4.621134E0,5.5794325E0,4.366932E3,1.9149947E2,1.4941544E3,8.1392004E2,1.3945383E1,6.662562E1,2.0961102E2,2.1056462E2,8.116378E2,2.1369805E3,9.44898E2,1.6103252E3],"tree_param":{"num_deleted":"0","num_feature":"45","num_nodes":"31","size_leaf_vector":"1"}},{"base_weights":[-6.723304E-5,3.5831947E-2,-5.287075E-2,5.1328328E-2,-4.836398E-3,7.5012915E-2,-6.595677E-2,6.713508E-2,3.0827686E-2,2.4954598E-2,-6.827259E-3,1.6265656E-1,4.7711197E-2,2.3560494E-2,-7.774265E-2,3.261566E-3,1.615913E-2,9.130981E-4,4.6388116E-3,-5.0580543E-3,-8.841524E-5,2.0109725E-3,1.3487563E-2,-9.6648926E-4,5.6153494E-3,3.085274E-3,-2.569954E-3,-4.0177335E-3,2.2670764E-3],"categories":[],"categories_nodes":[],"categories_segments":[],"categories_sizes":[],"default_left":[0,0,0,0,0,0,0,0,0,0,0,0,0,0,0,0,0,0,0,0,0,0,0,0,0,0,0,0,0],"id":9,"left_children":[1,3,5,7,9,11,13,15,17,-1,19,21,23,25,27,-1,-1,-1,-1,-1,-1,-1,-1,-1,-1,-1,-1,-1,-1],"loss_changes":[2.4173443E1,4.7882404E0,8.647237E0,1.7675381E0,2.0585022E0,1.1105399E0,4.9513416E0,1.4299526E0,1.8536279E0,0E0,9.8582363E-1,1.4180453E0,1.6125996E0,1.567273E0,1.3420773E0,0E0,0E0,0E0,0E0,0E0,0E0,0E0,0E0,0E0,0E0,0E0,0E0,0E0,0E0],"parents":[2147483647,0,0,1,1,2,2,3,3,4,4,5,5,6,6,7,7,8,8,10,10,11,11,12,12,13,13,14,14],"right_children":[2,4,6,8,10,12,14,16,18,-1,20,22,24,26,28,-1,-1,-1,-1,-1,-1,-1,-1,-1,-1,-1,-1,-1,-1],"split_conditions":[-6.9232696E-1,-4.7876957E-1,-6.9127005E-1,3.0118993E-1,-7.499963E-1,-7.3855466E-1,-1.1804444E0,1.7495648E0,4.8671097E-1,2.4954598E-2,-1.3526917E0,1.6321896E-1,3.986711E-2,6.0687053E-1,1.8594397E0,3.261566E-3,1.615913E-2,9.130981E-4,4.6388116E-3,-5.0580543E-3,-8.841524E-5,2.0109725E-3,1.3487563E-2,-9.6648926E-4,5.6153494E-3,3.085274E-3,-2.569954E-3,-4.0177335E-3,2.2670764E-3],"split_indices":[38,41,40,1,35,40,41,3,34,0,3,41,16,6,1,0,0,0,0,0,0,0,0,0,0,0,0,0,0],"split_type":[0,0,0,0,0,0,0,0,0,0,0,0,0,0,0,0,0,0,0,0,0,0,0,0,0,0,0,0,0],"sum_hessian":[1.2747479E4,7.5876567E3,5.159822E3,5.4955513E3,2.0921055E3,4.7739108E2,4.6824307E3,3.0976902E3,2.397861E3,6.0699186E0,2.0860356E3,1.1016441E2,3.6722665E2,5.435468E2,4.138884E3,3.077707E3,1.998332E1,1.9969923E3,4.0086874E2,1.0323641E2,1.9827992E3,5.3119663E1,5.704475E1,1.8013074E2,1.8709592E2,3.6135193E2,1.8219492E2,4.0543513E3,8.453229E1],"tree_param":{"num_deleted":"0","num_feature":"45","num_nodes":"29","size_leaf_vector":"1"}},{"base_weights":[-2.7429657E-3,3.5180315E-2,-5.7144698E-2,2.4874014E-1,3.339989E-2,7.631679E-2,-7.028492E-2,-2.3779801E-4,2.6956674E-1,3.7806883E-2,-1.1649561E-2,1.5844637E-1,5.0819755E-2,-1.1093332E-2,-8.4849365E-2,8.367273E-3,1.7514508E-2,2.0480577E-3,-1.2657738E-3,1.0320161E-3,-4.633594E-3,-1.7559199E-2,9.57611E-3,-4.0448396E-3,3.787882E-3,3.5137127E-4,-5.0028856E-3,-4.3846667E-3,3.7095826E-3],"categories":[],"categories_nodes":[],"categories_segments":[],"categories_sizes":[],"default_left":[0,0,0,0,0,0,0,0,0,0,0,0,0,0,0,0,0,0,0,0,0,0,0,0,0,0,0,0,0],"id":10,"left_children":[1,3,5,7,9,11,13,-1,15,17,19,21,23,25,27,-1,-1,-1,-1,-1,-1,-1,-1,-1,-1,-1,-1,-1,-1],"loss_changes":[2.6040932E1,2.7825222E0,9.103683E0,3.4953833E-1,1.4681206E0,9.368067E-1,4.059557E0,0E0,2.9718304E-1,1.3420954E0,1.7295663E0,1.9440639E0,1.1901413E0,1.5198836E0,1.7277603E0,0E0,0E0,0E0,0E0,0E0,0E0,0E0,0E0,0E0,0E0,0E0,0E0,0E0,0E0],"parents":[2147483647,0,0,1,1,2,2,3,3,4,4,5,5,6,6,8,8,9,9,10,10,11,11,12,12,13,13,14,14],"right_children":[2,4,6,8,10,12,14,-1,16,18,20,22,24,26,28,-1,-1,-1,-1,-1,-1,-1,-1,-1,-1,-1,-1,-1,-1],"split_conditions":[-6.245253E-1,-7.332565E-1,-6.9127005E-1,-9.867926E-1,3.089701E-1,-7.3855466E-1,-6.989095E-1,-2.3779801E-4,1.320985E0,9.5681065E-1,4.5655477E-1,1.2624584E-1,-1.7820524E0,4.451827E-1,1.9349779E0,8.367273E-3,1.7514508E-2,2.0480577E-3,-1.2657738E-3,1.0320161E-3,-4.633594E-3,-1.7559199E-2,9.57611E-3,-4.0448396E-3,3.787882E-3,3.5137127E-4,-5.0028856E-3,-4.3846667E-3,3.7095826E-3],"split_indices":[43,40,40,44,25,40,38,0,3,17,0,33,0,24,1,0,0,0,0,0,0,0,0,0,0,0,0,0,0],"split_type":[0,0,0,0,0,0,0,0,0,0,0,0,0,0,0,0,0,0,0,0,0,0,0,0,0,0,0,0,0],"sum_hessian":[1.2617269E4,7.433952E3,5.183317E3,5.8705593E1,7.3752466E3,4.630476E2,4.7202695E3,4.209569E0,5.4496025E1,6.720364E3,6.548829E2,1.06297516E2,3.5675012E2,9.341532E2,3.7861162E3,2.7304659E1,2.7191368E1,6.402702E3,3.1766125E2,4.6844815E2,1.8643471E2,5.121854E0,1.0117566E2,5.5438427E1,3.0131168E2,7.766739E2,1.5747928E2,3.7211013E3,6.501478E1],"tree_param":{"num_deleted":"0","num_feature":"45","num_nodes":"29","size_leaf_vector":"1"}},{"base_weights":[5.892365E-4,3.1154143E-2,-6.911822E-2,1.9619896E-1,2.9259382E-2,4.588703E-2,-8.349635E-2,3.356192E-1,1.1366183E-1,3.6081187E-2,-1.961885E-2,1.631781E-1,1.771125E-2,-6.972963E-2,-1.11598216E-1,1.8489458E-2,-0E0,-1.20036035E-4,1.1732211E-2,1.5785184E-3,4.4104843E-3,-2.1914633E-3,3.9276234E-3,-1.3464229E-2,9.667038E-3,-2.2059432E-3,4.5740735E-3,-3.7116192E-3,-2.7452334E-4,-5.7183215E-3,7.477955E-3],"categories":[],"categories_nodes":[],"categories_segments":[],"categories_sizes":[],"default_left":[0,0,0,0,0,0,0,0,0,0,0,0,0,0,0,0,0,0,0,0,0,0,0,0,0,0,0,0,0,0,0],"id":11,"left_children":[1,3,5,7,9,11,13,15,17,19,21,23,25,27,29,-1,-1,-1,-1,-1,-1,-1,-1,-1,-1,-1,-1,-1,-1,-1,-1],"loss_changes":[2.6685726E1,2.689557E0,6.323721E0,1.0053604E0,2.8751063E0,1.3797915E0,1.2796001E0,4.0754843E-1,9.366337E-1,1.7603636E0,2.509529E0,1.1575172E0,1.5882571E0,6.524992E-1,8.3349323E-1,0E0,0E0,0E0,0E0,0E0,0E0,0E0,0E0,0E0,0E0,0E0,0E0,0E0,0E0,0E0,0E0],"parents":[2147483647,0,0,1,1,2,2,3,3,4,4,5,5,6,6,7,7,8,8,9,9,10,10,11,11,12,12,13,13,14,14],"right_children":[2,4,6,8,10,12,14,16,18,20,22,24,26,28,30,-1,-1,-1,-1,-1,-1,-1,-1,-1,-1,-1,-1,-1,-1,-1,-1],"split_conditions":[-3.722484E-1,-7.3989856E-1,-6.9127005E-1,-1.6982007E0,-6.9232696E-1,-7.5352925E-1,4.8848578E-1,1.1893388E0,-1.5427349E0,7.508306E-1,9.501661E-1,1.4285715E-1,-7.1049446E-1,1.5155776E0,2.6652367E0,1.8489458E-2,-0E0,-1.20036035E-4,1.1732211E-2,1.5785184E-3,4.4104843E-3,-2.1914633E-3,3.9276234E-3,-1.3464229E-2,9.667038E-3,-2.2059432E-3,4.5740735E-3,-3.7116192E-3,-2.7452334E-4,-5.7183215E-3,7.477955E-3],"split_indices":[43,36,40,0,38,36,43,13,0,31,26,33,36,1,1,0,0,0,0,0,0,0,0,0,0,0,0,0,0,0,0],"split_type":[0,0,0,0,0,0,0,0,0,0,0,0,0,0,0,0,0,0,0,0,0,0,0,0,0,0,0,0,0,0,0],"sum_hessian":[1.2522732E4,8.707333E3,3.8153987E3,9.590117E1,8.611433E3,4.2273813E2,3.3926606E3,3.2930836E1,6.2970333E1,7.5590107E3,1.0524215E3,7.933747E1,3.4340067E2,2.2841892E3,1.1084713E3,2.9753979E1,3.1768568E0,3.2717278E1,3.0253057E1,6.9617236E3,5.9728705E2,8.4592926E2,2.0649226E2,3.9227955E0,7.541467E1,1.8651904E2,1.5688162E2,2.1328242E3,1.51365E2,1.0983363E3,1.0135072E1],"tree_param":{"num_deleted":"0","num_feature":"45","num_nodes":"31","size_leaf_vector":"1"}},{"base_weights":[5.986339E-4,3.549676E-2,-5.752349E-2,-4.8720604E-3,4.5045808E-2,5.2612685E-2,-7.033551E-2,2.6558721E-3,-1.5310223E-1,8.0198765E-2,3.8067352E-2,1.8388113E-1,1.8702583E-2,-1.3044427E-2,-8.4612764E-2,1.3710245E-2,-4.764525E-5,-2.195359E-2,-5.3491546E-3,1.331083E-2,3.7146707E-3,-8.117784E-4,2.1660645E-3,-6.4762756E-3,1.0427426E-2,-3.6440205E-3,3.088926E-3,1.87533E-4,-5.5544623E-3,-4.4391477E-3,9.0398005E-4],"categories":[],"categories_nodes":[],"categories_segments":[],"categories_sizes":[],"default_left":[0,0,0,0,0,0,0,0,0,0,0,0,0,0,0,0,0,0,0,0,0,0,0,0,0,0,0,0,0,0,0],"id":12,"left_children":[1,3,5,7,9,11,13,15,17,19,21,23,25,27,29,-1,-1,-1,-1,-1,-1,-1,-1,-1,-1,-1,-1,-1,-1,-1,-1],"loss_changes":[2.5325655E1,3.012496E0,6.618059E0,1.681325E0,1.5306702E0,2.1468644E0,3.421177E0,1.4210769E0,8.11736E-1,1.0704098E0,1.508615E0,8.306303E-1,1.5502473E0,1.3965316E0,1.4483967E0,0E0,0E0,0E0,0E0,0E0,0E0,0E0,0E0,0E0,0E0,0E0,0E0,0E0,0E0,0E0,0E0],"parents":[2147483647,0,0,1,1,2,2,3,3,4,4,5,5,6,6,7,7,8,8,9,9,10,10,11,11,12,12,13,13,14,14],"right_children":[2,4,6,8,10,12,14,16,18,20,22,24,26,28,30,-1,-1,-1,-1,-1,-1,-1,-1,-1,-1,-1,-1,-1,-1,-1,-1],"split_conditions":[-6.134999E-1,2.7242523E-1,-6.8487024E-1,1.4908308E0,-5.670279E-1,-7.5352925E-1,-6.989095E-1,-7.3543954E-1,7.973422E-2,-7.6333773E-1,-5.222335E-1,1.7607974E-1,-7.1193534E-1,4.3189368E-1,1.7006342E0,1.3710245E-2,-4.764525E-5,-2.195359E-2,-5.3491546E-3,1.331083E-2,3.7146707E-3,-8.117784E-4,2.1660645E-3,-6.4762756E-3,1.0427426E-2,-3.6440205E-3,3.088926E-3,1.87533E-4,-5.5544623E-3,-4.4391477E-3,9.0398005E-4],"split_indices":[43,26,39,36,39,36,38,36,33,36,39,33,39,24,1,0,0,0,0,0,0,0,0,0,0,0,0,0,0,0,0],"split_type":[0,0,0,0,0,0,0,0,0,0,0,0,0,0,0,0,0,0,0,0,0,0,0,0,0,0,0,0,0,0,0],"sum_hessian":[1.2482894E4,7.801285E3,4.681608E3,1.4905323E3,6.310753E3,4.8639395E2,4.195214E3,1.4197207E3,7.0811584E1,1.0394349E3,5.271318E3,9.7432304E1,3.8896167E2,8.3906915E2,3.3561448E3,1.701665E1,1.4027041E3,7.16635E0,6.3645233E1,2.8749048E1,1.0106859E3,4.6297266E2,4.808345E3,6.192973E0,9.123933E1,1.2323935E2,2.6572232E2,7.1712854E2,1.2194064E2,3.2263713E3,1.2977353E2],"tree_param":{"num_deleted":"0","num_feature":"45","num_nodes":"31","size_leaf_vector":"1"}},{"base_weights":[-4.0343605E-4,3.2890085E-2,-5.7489753E-2,2.4909933E-1,3.0831164E-2,5.2151468E-2,-6.964538E-2,2.769158E-1,-6.282696E-3,4.0352277E-2,3.8844561E-3,1.3180031E-1,2.4147503E-2,-1.5138456E-2,-8.4291264E-2,1.5718134E-2,-0E0,4.6541938E-3,1.7081008E-3,9.877405E-4,-1.7400464E-3,-8.023191E-3,8.584189E-3,1.7002079E-3,-1.2308173E-2,5.8315037E-4,-4.409183E-3,-3.2424608E-3,-5.2198432E-3],"categories":[],"categories_nodes":[],"categories_segments":[],"categories_sizes":[],"default_left":[0,0,0,0,0,0,0,0,0,0,0,0,0,0,0,0,0,0,0,0,0,0,0,0,0,0,0,0,0],"id":13,"left_children":[1,3,5,7,9,11,13,15,-1,17,19,21,23,25,27,-1,-1,-1,-1,-1,-1,-1,-1,-1,-1,-1,-1,-1,-1],"loss_changes":[2.3498919E1,3.4322062E0,6.0799427E0,8.447242E-1,1.9801764E0,9.9277437E-1,3.2623196E0,7.0153713E-1,0E0,1.8460045E0,1.2430207E0,1.4196453E0,9.013347E-1,1.7181984E0,1.2327213E0,0E0,0E0,0E0,0E0,0E0,0E0,0E0,0E0,0E0,0E0,0E0,0E0,0E0,0E0],"parents":[2147483647,0,0,1,1,2,2,3,3,4,4,5,5,6,6,7,7,9,9,10,10,11,11,12,12,13,13,14,14],"right_children":[2,4,6,8,10,12,14,16,-1,18,20,22,24,26,28,-1,-1,-1,-1,-1,-1,-1,-1,-1,-1,-1,-1,-1,-1],"split_conditions":[-6.2974215E-1,-7.2896296E-1,-6.9127005E-1,-8.836497E-1,2.026578E-1,4.3023255E-1,-6.9232696E-1,9.655358E-2,-6.282696E-3,5.9800666E-2,4.114469E-1,1.9269103E-1,9.8671097E-1,7.4418604E-1,5.5481726E-1,1.5718134E-2,-0E0,4.6541938E-3,1.7081008E-3,9.877405E-4,-1.7400464E-3,-8.023191E-3,8.584189E-3,1.7002079E-3,-1.2308173E-2,5.8315037E-4,-4.409183E-3,-3.2424608E-3,-5.2198432E-3],"split_indices":[43,40,40,0,28,34,38,8,0,33,0,28,33,32,16,0,0,0,0,0,0,0,0,0,0,0,0,0,0],"split_type":[0,0,0,0,0,0,0,0,0,0,0,0,0,0,0,0,0,0,0,0,0,0,0,0,0,0,0,0,0],"sum_hessian":[1.2358634E4,7.805472E3,4.553162E3,7.090718E1,7.734565E3,4.5293924E2,4.100223E3,6.674216E1,4.1650233E0,5.711727E3,2.0228375E3,1.14966835E2,3.3797238E2,8.706942E2,3.2295288E3,5.84393E1,8.302852E0,5.954207E2,5.1163066E3,1.4369177E3,5.8591974E2,1.2777805E1,1.0218903E2,3.2812592E2,9.846477E0,6.37205E2,2.3348917E2,1.6486823E3,1.5808464E3],"tree_param":{"num_deleted":"0","num_feature":"45","num_nodes":"29","size_leaf_vector":"1"}},{"base_weights":[1.4672524E-3,2.7637484E-2,-5.76027E-2,3.4386512E-2,-2.8756201E-2,6.729355E-2,-7.2895676E-2,3.0114797E-1,3.3265192E-2,-3.6412146E-2,1.9085616E-1,1.21008806E-1,-6.9116214E-3,-3.4735464E-2,-8.818046E-2,1.9478338E-2,2.1772042E-3,-8.917213E-4,1.8392781E-3,1.6652707E-4,-3.4340103E-3,1.6191212E-2,1.497522E-3,-1.8492502E-3,7.5513027E-3,8.184672E-3,-2.6241178E-3,-7.095087E-4,-3.8866305E-3,-3.4012669E-3,-5.6135166E-3],"categories":[],"categories_nodes":[],"categories_segments":[],"categories_sizes":[],"default_left":[0,0,0,0,0,0,0,0,0,0,0,0,0,0,0,0,0,0,0,0,0,0,0,0,0,0,0,0,0,0,0],"id":14,"left_children":[1,3,5,7,9,11,13,15,17,19,21,23,25,27,29,-1,-1,-1,-1,-1,-1,-1,-1,-1,-1,-1,-1,-1,-1,-1,-1],"loss_changes":[1.9083809E1,3.259472E0,7.248577E0,2.2333717E0,1.5354604E0,1.6621628E0,1.9517822E0,6.375005E-1,1.3732033E0,1.1425488E0,6.015351E-1,1.1649868E0,1.3653513E0,8.4655213E-1,1.1361713E0,0E0,0E0,0E0,0E0,0E0,0E0,0E0,0E0,0E0,0E0,0E0,0E0,0E0,0E0,0E0,0E0],"parents":[2147483647,0,0,1,1,2,2,3,3,4,4,5,5,6,6,7,7,8,8,9,9,10,10,11,11,12,12,13,13,14,14],"right_children":[2,4,6,8,10,12,14,16,18,20,22,24,26,28,30,-1,-1,-1,-1,-1,-1,-1,-1,-1,-1,-1,-1,-1,-1,-1,-1],"split_conditions":[3.3554816E-1,-4.6559024E-1,-6.9127005E-1,-7.6333773E-1,9.900332E-1,6.308698E-1,4.3521595E-1,1.6112485E0,-1.2678899E0,3.2724252E-1,1.5791366E-1,1.4285715E-1,1.6611295E-2,4.6179402E-1,5.880399E-1,1.9478338E-2,2.1772042E-3,-8.917213E-4,1.8392781E-3,1.6652707E-4,-3.4340103E-3,1.6191212E-2,1.497522E-3,-1.8492502E-3,7.5513027E-3,8.184672E-3,-2.6241178E-3,-7.095087E-4,-3.8866305E-3,-3.4012669E-3,-5.6135166E-3],"split_indices":[25,42,40,36,19,42,25,3,3,22,7,32,16,23,16,0,0,0,0,0,0,0,0,0,0,0,0,0,0,0,0],"split_type":[0,0,0,0,0,0,0,0,0,0,0,0,0,0,0,0,0,0,0,0,0,0,0,0,0,0,0,0,0,0,0],"sum_hessian":[1.2342871E4,8.555304E3,3.7875674E3,7.643149E3,9.121553E2,4.1172333E2,3.3758442E3,2.937979E1,7.613769E3,8.8347986E2,2.8675398E1,2.3888594E2,1.7283739E2,9.6920386E2,2.4066401E3,2.0820663E1,8.559126E0,4.8836765E2,7.1254014E3,3.953029E2,4.88177E2,1.4251693E1,1.4423705E1,3.7533775E1,2.0135217E2,3.48794E1,1.37958E2,6.592032E2,3.1000073E2,1.3167563E3,1.0898839E3],"tree_param":{"num_deleted":"0","num_feature":"45","num_nodes":"31","size_leaf_vector":"1"}},{"base_weights":[-1.0731997E-3,2.4643594E-2,-6.5208025E-2,4.8342817E-2,7.966559E-3,5.5822216E-2,-8.112627E-2,3.7400234E-2,8.597459E-2,-6.5747246E-2,1.3116902E-2,7.844452E-2,-5.9366357E-2,-6.7979746E-2,-1.1042044E-1,2.2554162E-3,-9.069496E-4,3.5929799E-3,8.846291E-3,-8.287704E-3,-1.5361934E-3,6.1445683E-3,5.124786E-4,2.4273564E-4,7.832008E-3,1.0997973E-2,-5.846445E-3,-3.5221346E-3,3.8129021E-3,-5.670379E-3,3.8414293E-3],"categories":[],"categories_nodes":[],"categories_segments":[],"categories_sizes":[],"default_left":[0,0,0,0,0,0,0,0,0,0,0,0,0,0,0,0,0,0,0,0,0,0,0,0,0,0,0,0,0,0,0],"id":15,"left_children":[1,3,5,7,9,11,13,15,17,19,21,23,25,27,29,-1,-1,-1,-1,-1,-1,-1,-1,-1,-1,-1,-1,-1,-1,-1,-1],"loss_changes":[2.0252937E1,3.4566522E0,6.78343E0,1.4703474E0,1.9508473E0,1.077044E0,1.1640606E0,1.2060876E0,9.9089193E-1,1.1444142E0,1.4996063E0,1.9587364E0,1.127324E0,7.7493095E-1,5.564585E-1,0E0,0E0,0E0,0E0,0E0,0E0,0E0,0E0,0E0,0E0,0E0,0E0,0E0,0E0,0E0,0E0],"parents":[2147483647,0,0,1,1,2,2,3,3,4,4,5,5,6,6,7,7,8,8,9,9,10,10,11,11,12,12,13,13,14,14],"right_children":[2,4,6,8,10,12,14,16,18,20,22,24,26,28,30,-1,-1,-1,-1,-1,-1,-1,-1,-1,-1,-1,-1,-1,-1,-1,-1],"split_conditions":[-4.32203E-1,9.6345514E-2,-6.882193E-1,1.841459E0,-1.3240663E0,1.1625136E0,5.0972027E-1,1.1664397E0,7.9491484E-1,-6.735781E-1,-6.8487024E-1,6.9435215E-1,3.1893688E-1,1.9349779E0,2.1215827E0,2.2554162E-3,-9.069496E-4,3.5929799E-3,8.846291E-3,-8.287704E-3,-1.5361934E-3,6.1445683E-3,5.124786E-4,2.4273564E-4,7.832008E-3,1.0997973E-2,-5.846445E-3,-3.5221346E-3,3.8129021E-3,-5.670379E-3,3.8414293E-3],"split_indices":[43,25,39,37,3,5,43,0,35,44,39,18,19,1,1,0,0,0,0,0,0,0,0,0,0,0,0,0,0,0,0],"split_type":[0,0,0,0,0,0,0,0,0,0,0,0,0,0,0,0,0,0,0,0,0,0,0,0,0,0,0,0,0,0,0],"sum_hessian":[1.2272996E4,8.760059E3,3.5129377E3,3.6142148E3,5.1458438E3,4.070144E2,3.1059233E3,2.8051711E3,8.090437E2,3.3325238E2,4.8125913E3,3.4145996E2,6.5554436E1,2.1507654E3,9.5515784E2,2.4652097E3,3.3996152E2,7.044047E2,1.0463899E2,8.376024E1,2.4949214E2,1.1948713E2,4.693104E3,1.7766382E2,1.6379614E2,9.940047E0,5.5614388E1,2.1163442E3,3.4421276E1,9.414617E2,1.3696142E1],"tree_param":{"num_deleted":"0","num_feature":"45","num_nodes":"31","size_leaf_vector":"1"}},{"base_weights":[7.930193E-4,2.420888E-2,-6.0090125E-2,1.7342597E-1,2.238433E-2,6.474819E-2,-7.727992E-2,3.5816175E-1,6.538702E-2,3.0542944E-2,-3.214624E-3,1.7677164E-1,2.9333595E-2,-8.1436165E-2,7.7718385E-2,2.1728965E-2,5.0675306E-3,7.4960897E-3,-3.6837903E-3,-5.7046274E-3,1.6112182E-3,4.0577553E-4,-2.9745102E-3,2.0966953E-2,6.6650943E-3,-1.2497178E-4,6.7562535E-3,-3.3627865E-3,-5.75724E-3,8.469799E-3,7.786531E-4],"categories":[],"categories_nodes":[],"categories_segments":[],"categories_sizes":[],"default_left":[0,0,0,0,0,0,0,0,0,0,0,0,0,0,0,0,0,0,0,0,0,0,0,0,0,0,0,0,0,0,0],"id":16,"left_children":[1,3,5,7,9,11,13,15,17,19,21,23,25,27,29,-1,-1,-1,-1,-1,-1,-1,-1,-1,-1,-1,-1,-1,-1,-1,-1],"loss_changes":[1.7428581E1,2.3772879E0,7.2974377E0,2.0211148E0,1.8259115E0,1.6008475E0,1.9366436E0,6.085644E-1,8.467861E-1,1.6096382E0,1.3504359E0,8.633704E-1,1.0767716E0,1.3570824E0,4.22744E-1,0E0,0E0,0E0,0E0,0E0,0E0,0E0,0E0,0E0,0E0,0E0,0E0,0E0,0E0,0E0,0E0],"parents":[2147483647,0,0,1,1,2,2,3,3,4,4,5,5,6,6,7,7,8,8,9,9,10,10,11,11,12,12,13,13,14,14],"right_children":[2,4,6,8,10,12,14,16,18,20,22,24,26,28,30,-1,-1,-1,-1,-1,-1,-1,-1,-1,-1,-1,-1,-1,-1,-1,-1],"split_conditions":[-4.32203E-1,-7.3989856E-1,-6.9127005E-1,-1.6982007E0,2.2259136E-1,-7.452588E-1,1.8594397E0,-7.203464E-1,-8.897251E-2,3.322259E-2,9.618106E-1,2.358804E-1,-6.9215304E-1,5.3687364E-1,4.9833888E-1,2.1728965E-2,5.0675306E-3,7.4960897E-3,-3.6837903E-3,-5.7046274E-3,1.6112182E-3,4.0577553E-4,-2.9745102E-3,2.0966953E-2,6.6650943E-3,-1.2497178E-4,6.7562535E-3,-3.3627865E-3,-5.75724E-3,8.469799E-3,7.786531E-4],"split_indices":[43,36,40,0,28,36,1,35,15,16,0,23,35,43,31,0,0,0,0,0,0,0,0,0,0,0,0,0,0,0,0],"split_type":[0,0,0,0,0,0,0,0,0,0,0,0,0,0,0,0,0,0,0,0,0,0,0,0,0,0,0,0,0,0,0],"sum_hessian":[1.2223645E4,8.830321E3,3.3933237E3,1.0373394E2,8.726587E3,4.0932336E2,2.9840002E3,3.6229427E1,6.750451E1,6.6201934E3,2.1063938E3,9.572365E1,3.135997E2,2.9076274E3,7.637297E1,2.6554092E1,9.675336E0,4.2333416E1,2.5171095E1,7.385682E1,6.5463364E3,1.7533259E3,3.5306787E2,1.1569633E1,8.4154015E1,2.4183746E2,7.176225E1,2.0529546E3,8.546727E2,2.8810543E1,4.7562424E1],"tree_param":{"num_deleted":"0","num_feature":"45","num_nodes":"31","size_leaf_vector":"1"}},{"base_weights":[3.7712618E-3,2.712273E-2,-5.844403E-2,4.676037E-2,1.0405675E-2,7.034075E-2,-7.684081E-2,1.2252962E-1,4.051039E-2,1.1043691E-1,7.272077E-3,2.0218576E-1,3.4781963E-2,-8.049168E-2,3.5607386E-2,1.79952E-2,4.9659056E-3,5.100251E-3,1.6605748E-3,2.1512301E-3,1.4295972E-2,-9.648622E-3,4.658133E-4,1.28212E-2,1.8628195E-3,-3.3113917E-3,3.84036E-3,-3.292604E-3,-5.625008E-3,3.919629E-3,-4.7706333E-3],"categories":[],"categories_nodes":[],"categories_segments":[],"categories_sizes":[],"default_left":[0,0,0,0,0,0,0,0,0,0,0,0,0,0,0,0,0,0,0,0,0,0,0,0,0,0,0,0,0,0,0],"id":17,"left_children":[1,3,5,7,9,11,13,15,17,19,21,23,25,27,29,-1,-1,-1,-1,-1,-1,-1,-1,-1,-1,-1,-1,-1,-1,-1,-1],"loss_changes":[1.7701094E1,2.9023747E0,7.887965E0,1.9018297E0,1.4887078E0,1.9121158E0,1.2051182E0,1.5798483E0,1.6697774E0,1.6512374E0,1.8884623E0,7.327454E-1,1.4145133E0,1.2890301E0,5.2927613E-1,0E0,0E0,0E0,0E0,0E0,0E0,0E0,0E0,0E0,0E0,0E0,0E0,0E0,0E0,0E0,0E0],"parents":[2147483647,0,0,1,1,2,2,3,3,4,4,5,5,6,6,7,7,8,8,9,9,10,10,11,11,12,12,13,13,14,14],"right_children":[2,4,6,8,10,12,14,16,18,20,22,24,26,28,30,-1,-1,-1,-1,-1,-1,-1,-1,-1,-1,-1,-1,-1,-1,-1,-1],"split_conditions":[-4.32203E-1,1.0631229E-1,-6.9127005E-1,-6.282514E-1,-6.7438215E-1,-7.5352925E-1,1.8296198E0,-8.939848E-1,-1.1421493E0,4.6511628E-2,-6.582142E-1,1.6611295E-2,-7.1193534E-1,4.8848578E-1,-8.315347E-2,1.79952E-2,4.9659056E-3,5.100251E-3,1.6605748E-3,2.1512301E-3,1.4295972E-2,-9.648622E-3,4.658133E-4,1.28212E-2,1.8628195E-3,-3.3113917E-3,3.84036E-3,-3.292604E-3,-5.625008E-3,3.919629E-3,-4.7706333E-3],"split_indices":[43,25,40,39,36,36,1,2,1,16,36,16,39,43,35,0,0,0,0,0,0,0,0,0,0,0,0,0,0,0,0],"split_type":[0,0,0,0,0,0,0,0,0,0,0,0,0,0,0,0,0,0,0,0,0,0,0,0,0,0,0,0,0,0,0],"sum_hessian":[1.2181942E4,8.859437E3,3.3225059E3,4.06945E3,4.789987E3,4.139073E2,2.9085984E3,3.0604306E2,3.7634067E3,1.424447E2,4.647542E3,8.533133E1,3.2857596E2,2.8185461E3,9.0052216E1,2.4292713E1,2.8175034E2,3.9508496E2,3.3683218E3,1.0512191E2,3.7322792E1,4.4582806E1,4.602959E3,6.2922867E1,2.2408464E1,9.5501625E1,2.3307434E2,1.9403395E3,8.782068E2,6.906524E1,2.098698E1],"tree_param":{"num_deleted":"0","num_feature":"45","num_nodes":"31","size_leaf_vector":"1"}},{"base_weights":[-2.4649217E-3,1.8228972E-2,-5.9099138E-2,2.3341866E-1,1.6682873E-2,5.2431338E-2,-7.5688526E-2,8.264018E-2,3.0757344E-1,4.8212763E-2,9.685443E-3,7.18348E-2,-7.637295E-2,-8.083345E-2,7.941506E-2,7.065918E-3,-4.368171E-3,1.7328324E-2,-3.7073593E-3,7.908628E-3,1.7110003E-3,7.7835214E-4,-1.0160877E-3,-1.2286637E-3,4.865469E-3,5.0705313E-3,-8.52369E-3,-3.230476E-3,-5.0235293E-3,7.768567E-4,9.676612E-3],"categories":[],"categories_nodes":[],"categories_segments":[],"categories_sizes":[],"default_left":[0,0,0,0,0,0,0,0,0,0,0,0,0,0,0,0,0,0,0,0,0,0,0,0,0,0,0,0,0,0,0],"id":18,"left_children":[1,3,5,7,9,11,13,15,17,19,21,23,25,27,29,-1,-1,-1,-1,-1,-1,-1,-1,-1,-1,-1,-1,-1,-1,-1,-1],"loss_changes":[1.4236623E1,2.9259434E0,6.0255976E0,6.1256886E-1,1.9419043E0,1.0636266E0,2.272728E0,2.6840907E-1,6.878979E-1,2.4333367E0,1.2767389E0,9.1562414E-1,9.693159E-1,8.442364E-1,6.38628E-1,0E0,0E0,0E0,0E0,0E0,0E0,0E0,0E0,0E0,0E0,0E0,0E0,0E0,0E0,0E0,0E0],"parents":[2147483647,0,0,1,1,2,2,3,3,4,4,5,5,6,6,7,7,8,8,9,9,10,10,11,11,12,12,13,13,14,14],"right_children":[2,4,6,8,10,12,14,16,18,20,22,24,26,28,30,-1,-1,-1,-1,-1,-1,-1,-1,-1,-1,-1,-1,-1,-1,-1,-1],"split_conditions":[-4.32203E-1,-7.5352925E-1,-6.762197E-1,1.2292359E-1,3.986711E-2,1.4831774E0,1.8847485E0,-7.0641387E-1,4.318937E-2,5.9800666E-2,8.5714287E-1,2.4252492E-1,-7.3989856E-1,2.4141777E-1,1.597714E0,7.065918E-3,-4.368171E-3,1.7328324E-2,-3.7073593E-3,7.908628E-3,1.7110003E-3,7.7835214E-4,-1.0160877E-3,-1.2286637E-3,4.865469E-3,5.0705313E-3,-8.52369E-3,-3.230476E-3,-5.0235293E-3,7.768567E-4,9.676612E-3],"split_indices":[43,36,35,28,28,9,1,42,16,33,21,21,36,41,5,0,0,0,0,0,0,0,0,0,0,0,0,0,0,0,0],"split_type":[0,0,0,0,0,0,0,0,0,0,0,0,0,0,0,0,0,0,0,0,0,0,0,0,0,0,0,0,0,0,0],"sum_hessian":[1.2140145E4,8.891002E3,3.2491423E3,6.0823475E1,8.830179E3,4.193697E2,2.8297727E3,2.1890676E1,3.8932796E1,1.5990244E3,7.231154E3,3.6590903E2,5.346067E1,2.7404712E3,8.9301544E1,1.6961843E1,4.9288335E0,3.5729195E1,3.2036018E0,1.7737755E2,1.4216469E3,6.0496743E3,1.1814794E3,7.567264E1,2.902364E2,1.8081486E1,3.5379185E1,1.508139E3,1.232332E3,5.927213E1,3.0029419E1],"tree_param":{"num_deleted":"0","num_feature":"45","num_nodes":"31","size_leaf_vector":"1"}},{"base_weights":[-5.5495184E-4,2.0051116E-2,-5.7945732E-2,1.3998857E-2,7.265364E-2,5.6804188E-2,-7.5461954E-2,1.8712875E-2,-4.4361148E-2,1.3081695E-1,3.0301541E-2,-1.5419974E-2,9.266719E-2,-7.804877E-2,1.5627098E-1,-5.662499E-4,1.3568775E-3,-3.9546588E-3,-7.8644155E-4,9.763549E-3,4.067886E-3,-3.0539706E-4,7.877154E-3,1.00147985E-2,-2.0484952E-3,5.231115E-3,-1.1701816E-2,-3.1748947E-3,-5.2207313E-3,2.9998075E-3,1.4026351E-2],"categories":[],"categories_nodes":[],"categories_segments":[],"categories_sizes":[],"default_left":[0,0,0,0,0,0,0,0,0,0,0,0,0,0,0,0,0,0,0,0,0,0,0,0,0,0,0,0,0,0,0],"id":19,"left_children":[1,3,5,7,9,11,13,15,17,19,21,23,25,27,29,-1,-1,-1,-1,-1,-1,-1,-1,-1,-1,-1,-1,-1,-1,-1,-1],"loss_changes":[1.4280048E1,2.8168197E0,6.4234505E0,2.1914928E0,2.2280436E0,1.1060148E0,1.6768475E0,1.868902E0,5.7934093E-1,1.1634741E0,2.484605E0,7.782251E-1,1.1445105E0,1.0214615E0,3.0092525E-1,0E0,0E0,0E0,0E0,0E0,0E0,0E0,0E0,0E0,0E0,0E0,0E0,0E0,0E0,0E0,0E0],"parents":[2147483647,0,0,1,1,2,2,3,3,4,4,5,5,6,6,7,7,8,8,9,9,10,10,11,11,12,12,13,13,14,14],"right_children":[2,4,6,8,10,12,14,16,18,20,22,24,26,28,30,-1,-1,-1,-1,-1,-1,-1,-1,-1,-1,-1,-1,-1,-1,-1,-1],"split_conditions":[-4.32203E-1,1.841459E0,-6.8487024E-1,-6.12979E-1,-3.919579E-1,3.9202657E-1,2.7833118E0,3.2225913E-1,4.3023255E-1,2.4627333E0,5.340841E-1,-7.499963E-1,1.9136341E0,4.183326E-1,7.17608E-1,-5.662499E-4,1.3568775E-3,-3.9546588E-3,-7.8644155E-4,9.763549E-3,4.067886E-3,-3.0539706E-4,7.877154E-3,1.00147985E-2,-2.0484952E-3,5.231115E-3,-1.1701816E-2,-3.1748947E-3,-5.2207313E-3,2.9998075E-3,1.4026351E-2],"split_indices":[43,37,39,38,35,21,2,26,17,37,39,35,38,43,32,0,0,0,0,0,0,0,0,0,0,0,0,0,0,0,0],"split_type":[0,0,0,0,0,0,0,0,0,0,0,0,0,0,0,0,0,0,0,0,0,0,0,0,0,0,0,0,0,0,0],"sum_hessian":[1.2067979E4,8.879402E3,3.1885762E3,7.967162E3,9.1224E2,4.2091824E2,2.767658E3,7.3745557E3,5.926062E2,3.8161655E2,5.306234E2,1.3911252E2,2.8180573E2,2.7388423E3,2.8815601E1,1.6125409E3,5.762015E3,2.6460886E2,3.2799734E2,1.6225363E2,2.1936292E2,4.1343835E2,1.1718507E2,1.2868885E1,1.2624363E2,2.7346442E2,8.341305E0,1.771687E3,9.6715533E2,1.8360317E1,1.0455284E1],"tree_param":{"num_deleted":"0","num_feature":"45","num_nodes":"31","size_leaf_vector":"1"}},{"base_weights":[1.4691853E-3,2.2290776E-2,-5.6297407E-2,3.873269E-2,4.6097357E-3,4.9390882E-2,-7.19429E-2,3.2547195E-2,9.308246E-2,-8.2402945E-2,1.0105367E-2,1.4364958E-1,1.8888198E-2,-7.5770356E-2,1.0231181E-1,2.0145492E-3,-4.481937E-4,5.3191753E-3,-5.5055143E-3,-9.360322E-3,-2.2926996E-3,-7.063292E-3,6.489376E-4,1.6893392E-2,4.464164E-3,-3.5897044E-3,3.2614712E-3,-3.2767758E-3,-5.325602E-3,-5.699918E-3,7.8674955E-3],"categories":[],"categories_nodes":[],"categories_segments":[],"categories_sizes":[],"default_left":[0,0,0,0,0,0,0,0,0,0,0,0,0,0,0,0,0,0,0,0,0,0,0,0,0,0,0,0,0,0,0],"id":20,"left_children":[1,3,5,7,9,11,13,15,17,19,21,23,25,27,29,-1,-1,-1,-1,-1,-1,-1,-1,-1,-1,-1,-1,-1,-1,-1,-1],"loss_changes":[1.4586313E1,2.5876546E0,5.321374E0,1.5336404E0,2.0515761E0,1.1703542E0,1.8802481E0,1.3379745E0,1.2908096E0,9.35151E-1,1.7520428E0,9.555969E-1,1.3380724E0,8.313875E-1,7.6008373E-1,0E0,0E0,0E0,0E0,0E0,0E0,0E0,0E0,0E0,0E0,0E0,0E0,0E0,0E0,0E0,0E0],"parents":[2147483647,0,0,1,1,2,2,3,3,4,4,5,5,6,6,7,7,8,8,9,9,10,10,11,11,12,12,13,13,14,14],"right_children":[2,4,6,8,10,12,14,16,18,20,22,24,26,28,30,-1,-1,-1,-1,-1,-1,-1,-1,-1,-1,-1,-1,-1,-1,-1,-1],"split_conditions":[-4.467747E-1,1.1960133E-1,-6.9127005E-1,7.4418604E-1,-1.3526917E0,-7.3855466E-1,1.9390689E0,3.781177E-2,9.1694355E-1,2.9568106E-1,-1.727713E0,-1.1449251E0,-7.083107E-1,6.263287E-1,8.7906456E-1,2.0145492E-3,-4.481937E-4,5.3191753E-3,-5.5055143E-3,-9.360322E-3,-2.2926996E-3,-7.063292E-3,6.489376E-4,1.6893392E-2,4.464164E-3,-3.5897044E-3,3.2614712E-3,-3.2767758E-3,-5.325602E-3,-5.699918E-3,7.8674955E-3],"split_indices":[43,25,40,31,3,40,3,7,16,21,41,4,39,43,12,0,0,0,0,0,0,0,0,0,0,0,0,0,0,0,0],"split_type":[0,0,0,0,0,0,0,0,0,0,0,0,0,0,0,0,0,0,0,0,0,0,0,0,0,0,0,0,0,0,0],"sum_hessian":[1.2125784E4,8.915287E3,3.2104973E3,4.6153516E3,4.299935E3,4.1260013E2,2.7978972E3,4.148278E3,4.6707394E2,2.5270207E2,4.047233E3,9.826051E1,3.143396E2,2.7394307E3,5.846662E1,3.4981702E3,6.501076E2,4.397339E2,2.7340057E1,6.2501083E1,1.9020099E2,7.295212E1,3.9742808E3,1.8806705E1,7.945381E1,1.0520805E2,2.0913156E2,2.0623335E3,6.7709717E2,1.1055798E1,4.7410824E1],"tree_param":{"num_deleted":"0","num_feature":"45","num_nodes":"31","size_leaf_vector":"1"}},{"base_weights":[-1.4038411E-3,1.796008E-2,-5.1465835E-2,2.7891217E-2,-3.3053446E-3,2.0696706E-1,-5.8632106E-2,6.590882E-2,1.9786932E-2,1.6218467E-2,-4.6911053E-2,-7.2989813E-3,2.3285243E-1,-6.28147E-2,1.266058E-1,7.690781E-3,2.5045732E-3,-2.860078E-3,1.2353054E-3,-8.688717E-3,9.943175E-4,-3.2213281E-3,1.1805474E-3,1.3933472E-2,1.4691603E-3,1.0390275E-3,-3.6143574E-3,1.0958269E-2,-2.4310001E-3],"categories":[],"categories_nodes":[],"categories_segments":[],"categories_sizes":[],"default_left":[0,0,0,0,0,0,0,0,0,0,0,0,0,0,0,0,0,0,0,0,0,0,0,0,0,0,0,0,0],"id":21,"left_children":[1,3,5,7,9,11,13,15,17,19,21,-1,23,25,27,-1,-1,-1,-1,-1,-1,-1,-1,-1,-1,-1,-1,-1,-1],"loss_changes":[1.1662578E1,1.8339493E0,6.224783E0,1.8110633E0,2.3534942E0,9.045484E-1,2.541029E0,1.4050007E0,1.8477811E0,1.319523E0,1.0637059E0,0E0,7.494917E-1,2.5398006E0,1.2107093E0,0E0,0E0,0E0,0E0,0E0,0E0,0E0,0E0,0E0,0E0,0E0,0E0,0E0,0E0],"parents":[2147483647,0,0,1,1,2,2,3,3,4,4,5,5,6,6,7,7,8,8,9,9,10,10,12,12,13,13,14,14],"right_children":[2,4,6,8,10,12,14,16,18,20,22,-1,24,26,28,-1,-1,-1,-1,-1,-1,-1,-1,-1,-1,-1,-1,-1,-1],"split_conditions":[-4.9138018E-1,1.7607974E-1,-7.5352925E-1,-5.492204E-1,4.114469E-1,2.6744187E-1,2.0222685E0,-9.005683E-1,-5.294546E-1,1.3289036E-2,6.976744E-1,-7.2989813E-3,1.0157993E0,-6.9127005E-1,-2.2282512E-1,7.690781E-3,2.5045732E-3,-2.860078E-3,1.2353054E-3,-8.688717E-3,9.943175E-4,-3.2213281E-3,1.1805474E-3,1.3933472E-2,1.4691603E-3,1.0390275E-3,-3.6143574E-3,1.0958269E-2,-2.4310001E-3],"split_indices":[43,28,36,35,0,30,2,2,39,33,26,0,12,40,36,0,0,0,0,0,0,0,0,0,0,0,0,0,0],"split_type":[0,0,0,0,0,0,0,0,0,0,0,0,0,0,0,0,0,0,0,0,0,0,0,0,0,0,0,0,0],"sum_hessian":[1.2023396E4,8.669377E3,3.35402E3,5.9123423E3,2.757035E3,8.86155E1,3.2654045E3,1.0342096E3,4.8781323E3,1.9036614E3,8.533735E2,5.1570497E0,8.345845E1,3.1951216E3,7.028285E1,1.5408623E2,8.8012335E2,2.9047144E2,4.587661E3,3.378172E1,1.8698798E3,6.848648E2,1.6850867E2,6.7114914E1,1.6343538E1,3.2388263E2,2.871239E3,4.603496E1,2.4247892E1],"tree_param":{"num_deleted":"0","num_feature":"45","num_nodes":"29","size_leaf_vector":"1"}},{"base_weights":[-2.364188E-3,1.8938268E-2,-4.7061082E-2,2.5448593E-1,1.7348014E-2,5.252011E-2,-6.0293023E-2,5.2465748E-2,3.112812E-1,-1.2201028E-2,2.6281495E-2,-5.537523E-2,6.887733E-2,-6.376731E-2,8.596814E-2,8.9070415E-3,-1.0937183E-2,1.7332928E-2,2.7438223E-3,2.8537897E-5,-3.6629688E-3,1.39358E-3,-5.1102582E-3,-1.10904155E-2,6.0433423E-4,-1.209251E-3,4.354723E-3,-2.3789643E-3,-4.595324E-3,-1.3545583E-3,9.090929E-3],"categories":[],"categories_nodes":[],"categories_segments":[],"categories_sizes":[],"default_left":[0,0,0,0,0,0,0,0,0,0,0,0,0,0,0,0,0,0,0,0,0,0,0,0,0,0,0,0,0,0,0],"id":22,"left_children":[1,3,5,7,9,11,13,15,17,19,21,23,25,27,29,-1,-1,-1,-1,-1,-1,-1,-1,-1,-1,-1,-1,-1,-1,-1,-1],"loss_changes":[1.1441795E1,3.0111158E0,5.1184835E0,5.503638E-1,2.1357107E0,8.122952E-1,1.7496662E0,5.7280725E-1,2.96844E-1,1.4696305E0,1.2669406E0,7.02532E-1,6.834583E-1,1.5025177E0,8.887595E-1,0E0,0E0,0E0,0E0,0E0,0E0,0E0,0E0,0E0,0E0,0E0,0E0,0E0,0E0,0E0,0E0],"parents":[2147483647,0,0,1,1,2,2,3,3,4,4,5,5,6,6,7,7,8,8,9,9,10,10,11,11,12,12,13,13,14,14],"right_children":[2,4,6,8,10,12,14,16,18,20,22,24,26,28,30,-1,-1,-1,-1,-1,-1,-1,-1,-1,-1,-1,-1,-1,-1,-1,-1],"split_conditions":[-6.076902E-1,-7.458637E-1,-6.8487024E-1,5.3156145E-2,3.6212623E-1,-7.4309033E-1,2.9939477E0,7.209302E-1,3.156146E-1,8.6710966E-1,2.061125E0,-8.234593E-1,2.7242523E-1,2.4141777E-1,1.574076E0,8.9070415E-3,-1.0937183E-2,1.7332928E-2,2.7438223E-3,2.8537897E-5,-3.6629688E-3,1.39358E-3,-5.1102582E-3,-1.10904155E-2,6.0433423E-4,-1.209251E-3,4.354723E-3,-2.3789643E-3,-4.595324E-3,-1.3545583E-3,9.090929E-3],"split_indices":[43,39,39,23,26,14,14,29,24,30,15,10,21,41,6,0,0,0,0,0,0,0,0,0,0,0,0,0,0,0,0],"split_type":[0,0,0,0,0,0,0,0,0,0,0,0,0,0,0,0,0,0,0,0,0,0,0,0,0,0,0,0,0,0,0],"sum_hessian":[1.2009929E4,8.132778E3,3.8771514E3,5.1984024E1,8.0807935E3,4.5317117E2,3.4239802E3,1.2638226E1,3.93458E1,1.873138E3,6.207656E3,5.822483E1,3.9494635E2,3.346304E3,7.767634E1,9.357238E0,3.2809873E0,3.3613926E1,5.7318716E0,1.5493901E3,3.2374777E2,6.134087E3,7.356877E1,1.5901434E1,4.2323395E1,6.3649223E1,3.3129712E2,2.1299263E3,1.2163776E3,3.581848E1,4.1857857E1],"tree_param":{"num_deleted":"0","num_feature":"45","num_nodes":"31","size_leaf_vector":"1"}},{"base_weights":[-6.8099337E-4,2.0087037E-2,-4.2949706E-2,1.5102019E-2,6.330409E-2,7.563913E-2,-5.772224E-2,-1.5201354E-1,1.6594674E-2,-1.6495693E-2,8.292056E-2,1.7752396E-1,4.710124E-2,-6.291543E-2,4.191505E-2,-1.2525856E-2,-6.395769E-4,1.2777074E-3,-5.7198387E-4,1.3875938E-2,-1.8963179E-3,3.3680368E-3,1.11767445E-2,1.8711638E-2,5.7272837E-3,-4.400809E-3,4.1763303E-3,-1.8674603E-3,-4.1504963E-3,4.011215E-3,-5.9905774E-3],"categories":[],"categories_nodes":[],"categories_segments":[],"categories_sizes":[],"default_left":[0,0,0,0,0,0,0,0,0,0,0,0,0,0,0,0,0,0,0,0,0,0,0,0,0,0,0,0,0,0,0],"id":23,"left_children":[1,3,5,7,9,11,13,15,17,19,21,23,25,27,29,-1,-1,-1,-1,-1,-1,-1,-1,-1,-1,-1,-1,-1,-1,-1,-1],"loss_changes":[1.0543447E1,1.7246025E0,6.940361E0,1.7931318E0,1.3084364E0,1.2358425E0,1.8293839E0,8.3868456E-1,1.8006389E0,1.0330126E0,1.4011416E0,1.0356398E0,1.7174351E0,1.7020483E0,1.0975442E0,0E0,0E0,0E0,0E0,0E0,0E0,0E0,0E0,0E0,0E0,0E0,0E0,0E0,0E0,0E0,0E0],"parents":[2147483647,0,0,1,1,2,2,3,3,4,4,5,5,6,6,7,7,8,8,9,9,10,10,11,11,12,12,13,13,14,14],"right_children":[2,4,6,8,10,12,14,16,18,20,22,24,26,28,30,-1,-1,-1,-1,-1,-1,-1,-1,-1,-1,-1,-1,-1,-1,-1,-1],"split_conditions":[-6.2974215E-1,1.9613122E0,-6.9127005E-1,-2.650235E0,-1.440172E0,-7.5352925E-1,1.7006342E0,4.155196E-1,-9.4760567E-1,-6.886108E-1,8.039867E-1,-4.5233837E-1,-7.18499E-1,4.385382E-1,2.4025059E0,-1.2525856E-2,-6.395769E-4,1.2777074E-3,-5.7198387E-4,1.3875938E-2,-1.8963179E-3,3.3680368E-3,1.11767445E-2,1.8711638E-2,5.7272837E-3,-4.400809E-3,4.1763303E-3,-1.8674603E-3,-4.1504963E-3,4.011215E-3,-5.9905774E-3],"split_indices":[43,37,40,41,38,36,1,2,38,35,30,7,40,25,15,0,0,0,0,0,0,0,0,0,0,0,0,0,0,0,0],"split_type":[0,0,0,0,0,0,0,0,0,0,0,0,0,0,0,0,0,0,0,0,0,0,0,0,0,0,0,0,0,0,0],"sum_hessian":[1.2004129E4,8.048376E3,3.9557524E3,7.2205137E3,8.2786224E2,4.3651895E2,3.5192334E3,6.1543304E1,7.15897E3,1.6240782E2,6.654544E2,9.246362E1,3.4405533E2,3.346549E3,1.7268452E2,3.468534E1,2.6857962E1,5.4279883E3,1.730982E3,9.092964E0,1.5331487E2,6.0245807E2,6.2996353E1,1.9641685E1,7.282194E1,7.187221E1,2.721831E2,1.4774648E3,1.8690841E3,1.4092818E2,3.1756353E1],"tree_param":{"num_deleted":"0","num_feature":"45","num_nodes":"31","size_leaf_vector":"1"}},{"base_weights":[9.652005E-4,2.1534711E-2,-3.875907E-2,2.6765097E-2,-4.1931942E-2,5.911297E-2,-4.9429167E-2,1.819915E-1,2.4950877E-2,9.7850375E-2,-5.545999E-2,1.2741466E-1,1.370109E-2,-5.300667E-2,5.997528E-2,1.0152138E-2,-6.50257E-3,1.5762903E-3,-4.46488E-4,-4.134092E-3,1.2564965E-2,-2.964691E-3,1.8098434E-2,7.3273415E-3,-9.160554E-3,5.435107E-3,-1.0970726E-3,-1.6528125E-3,-3.744933E-3,1.3119831E-2,1.4075608E-3],"categories":[],"categories_nodes":[],"categories_segments":[],"categories_sizes":[],"default_left":[0,0,0,0,0,0,0,0,0,0,0,0,0,0,0,0,0,0,0,0,0,0,0,0,0,0,0,0,0,0,0],"id":24,"left_children":[1,3,5,7,9,11,13,15,17,19,21,23,25,27,29,-1,-1,-1,-1,-1,-1,-1,-1,-1,-1,-1,-1,-1,-1,-1,-1],"loss_changes":[9.739524E0,2.608596E0,4.2504625E0,2.0149255E0,1.1364052E0,1.2219644E0,1.4412308E0,6.048317E-1,1.6021934E0,1.5208611E0,8.875227E-1,9.91853E-1,8.3681536E-1,1.5363188E0,7.046708E-1,0E0,0E0,0E0,0E0,0E0,0E0,0E0,0E0,0E0,0E0,0E0,0E0,0E0,0E0,0E0,0E0],"parents":[2147483647,0,0,1,1,2,2,3,3,4,4,5,5,6,6,7,7,8,8,9,9,10,10,11,11,12,12,13,13,14,14],"right_children":[2,4,6,8,10,12,14,16,18,20,22,24,26,28,30,-1,-1,-1,-1,-1,-1,-1,-1,-1,-1,-1,-1,-1,-1,-1,-1],"split_conditions":[-4.0758315E-1,-4.9896663E-1,-6.906223E-1,-7.3989856E-1,-6.982165E-1,4.717608E-1,1.9098636E0,6.511628E-1,2.2259136E-1,3.3222592E-1,3.1104143E0,1E0,-7.3989856E-1,-1.1998771E-1,-5.5318177E-1,1.0152138E-2,-6.50257E-3,1.5762903E-3,-4.46488E-4,-4.134092E-3,1.2564965E-2,-2.964691E-3,1.8098434E-2,7.3273415E-3,-9.160554E-3,5.435107E-3,-1.0970726E-3,-1.6528125E-3,-3.744933E-3,1.3119831E-2,1.4075608E-3],"split_indices":[41,42,36,36,36,22,1,34,28,28,2,17,36,9,36,0,0,0,0,0,0,0,0,0,0,0,0,0,0,0,0],"split_type":[0,0,0,0,0,0,0,0,0,0,0,0,0,0,0,0,0,0,0,0,0,0,0,0,0,0,0,0,0,0,0],"sum_hessian":[1.1917559E4,7.854089E3,4.0634702E3,7.2586265E3,5.954624E2,3.9764032E2,3.6658298E3,8.0924255E1,7.177702E3,5.079109E1,5.446713E2,1.5647726E2,2.4116306E2,3.551637E3,1.1419282E2,7.67646E1,4.159652E0,6.013754E3,1.1639482E3,2.3460524E1,2.7330566E1,5.4165204E2,3.0192719E0,1.4869704E2,7.7802267E0,6.544176E1,1.757213E2,1.8632362E3,1.6884009E3,1.3118442E1,1.0107437E2],"tree_param":{"num_deleted":"0","num_feature":"45","num_nodes":"31","size_leaf_vector":"1"}},{"base_weights":[-1.5209414E-3,1.9205548E-2,-3.5355188E-2,1.9074187E-1,1.7427087E-2,1.5357648E-1,-3.974686E-2,2.3604025E-1,-6.398803E-2,2.4204005E-2,-1.783429E-2,2.3395047E-1,-4.7393862E-2,-1.2901438E-2,-6.1391532E-2,-2.1861733E-3,1.4010458E-2,5.4243524E-3,-1.0903925E-2,-1.174475E-3,1.5011139E-3,1.4020689E-4,-3.6483032E-3,2.1224393E-2,6.8405196E-3,-7.644965E-3,7.1832403E-3,3.3105188E-4,-1.9126199E-3,-2.0814629E-3,-4.720953E-3],"categories":[],"categories_nodes":[],"categories_segments":[],"categories_sizes":[],"default_left":[0,0,0,0,0,0,0,0,0,0,0,0,0,0,0,0,0,0,0,0,0,0,0,0,0,0,0,0,0,0,0],"id":25,"left_children":[1,3,5,7,9,11,13,15,17,19,21,23,25,27,29,-1,-1,-1,-1,-1,-1,-1,-1,-1,-1,-1,-1,-1,-1,-1,-1],"loss_changes":[8.356614E0,2.2259376E0,3.7576175E0,9.1303515E-1,1.7491539E0,1.7005236E0,2.5633416E0,8.445718E-1,3.92251E-1,1.705239E0,1.3475254E0,1.1990142E0,6.629118E-1,9.8393923E-1,1.5765448E0,0E0,0E0,0E0,0E0,0E0,0E0,0E0,0E0,0E0,0E0,0E0,0E0,0E0,0E0,0E0,0E0],"parents":[2147483647,0,0,1,1,2,2,3,3,4,4,5,5,6,6,7,7,8,8,9,9,10,10,11,11,12,12,13,13,14,14],"right_children":[2,4,6,8,10,12,14,16,18,20,22,24,26,28,30,-1,-1,-1,-1,-1,-1,-1,-1,-1,-1,-1,-1,-1,-1,-1,-1],"split_conditions":[-5.1831853E-1,-7.5352925E-1,-7.452588E-1,8.903654E-1,1.7632464E-1,7.3754156E-1,-1.616561E-1,1.3289036E-2,-5.7151365E-1,-7.811281E-1,4.8172757E-1,2.591362E-1,2.3281813E0,7.100018E-1,1.7175485E-1,-2.1861733E-3,1.4010458E-2,5.4243524E-3,-1.0903925E-2,-1.174475E-3,1.5011139E-3,1.4020689E-4,-3.6483032E-3,2.1224393E-2,6.8405196E-3,-7.644965E-3,7.1832403E-3,3.3105188E-4,-1.9126199E-3,-2.0814629E-3,-4.720953E-3],"split_indices":[41,36,36,20,7,20,0,24,38,37,30,23,37,1,41,0,0,0,0,0,0,0,0,0,0,0,0,0,0,0,0],"split_type":[0,0,0,0,0,0,0,0,0,0,0,0,0,0,0,0,0,0,0,0,0,0,0,0,0,0,0,0,0,0,0],"sum_hessian":[1.1910244E4,7.384493E3,4.525751E3,7.301807E1,7.311475E3,1.0074959E2,4.4250015E3,6.2451656E1,1.0566407E1,6.1357104E3,1.175765E3,7.20886E1,2.8660984E1,1.9786886E3,2.4463127E3,8.209461E0,5.4242195E1,4.95885E0,5.6075573E0,6.645992E2,5.4711113E3,8.555694E2,3.2019565E2,2.1718756E1,5.0369843E1,1.905911E1,9.601873E0,1.1164537E3,8.6223486E2,1.5352391E3,9.110736E2],"tree_param":{"num_deleted":"0","num_feature":"45","num_nodes":"31","size_leaf_vector":"1"}},{"base_weights":[1.3549323E-3,2.2997672E-2,-3.1915344E-2,2.3739474E-2,-2.7073526E-1,7.623487E-2,-4.349999E-2,1.6385405E-1,2.2489004E-2,-3.746016E-1,2.7956043E-3,1.3686865E-2,1.1823077E-1,1.2167802E-3,-6.386591E-2,1.4635476E-2,3.3104941E-3,2.124051E-3,6.8403454E-4,-2.2423625E-2,-2.0745227E-3,-1.9110267E-3,5.6308205E-3,8.970036E-3,2.2436457E-3,-1.2052259E-3,1.2603058E-3,-3.3605408E-3,5.98407E-3],"categories":[],"categories_nodes":[],"categories_segments":[],"categories_sizes":[],"default_left":[0,0,0,0,0,0,0,0,0,0,0,0,0,0,0,0,0,0,0,0,0,0,0,0,0,0,0,0,0],"id":26,"left_children":[1,3,5,7,9,11,13,15,17,19,-1,21,23,25,27,-1,-1,-1,-1,-1,-1,-1,-1,-1,-1,-1,-1,-1,-1],"loss_changes":[8.583966E0,1.562469E0,5.888357E0,1.2371116E0,6.8521845E-1,1.1770515E0,3.8721647E0,7.1479964E-1,1.252034E0,2.6238382E-1,0E0,9.698307E-1,1.1758201E0,8.0845004E-1,1.8023968E0,0E0,0E0,0E0,0E0,0E0,0E0,0E0,0E0,0E0,0E0,0E0,0E0,0E0,0E0],"parents":[2147483647,0,0,1,1,2,2,3,3,4,4,5,5,6,6,7,7,8,8,9,9,11,11,12,12,13,13,14,14],"right_children":[2,4,6,8,10,12,14,16,18,20,-1,22,24,26,28,-1,-1,-1,-1,-1,-1,-1,-1,-1,-1,-1,-1,-1,-1],"split_conditions":[2.2591361E-1,2.9455507E0,-6.8487024E-1,-7.5352925E-1,8.3388704E-1,5.2370244E-1,-8.525444E-1,4.651163E-1,2.3255815E-1,8.07309E-1,2.7956043E-3,4.8671097E-1,4.883721E-1,4.6843854E-1,2.7833118E0,1.4635476E-2,3.3104941E-3,2.124051E-3,6.8403454E-4,-2.2423625E-2,-2.0745227E-3,-1.9110267E-3,5.6308205E-3,8.970036E-3,2.2436457E-3,-1.2052259E-3,1.2603058E-3,-3.3605408E-3,5.98407E-3],"split_indices":[25,1,39,36,18,2,38,31,34,32,0,30,30,18,2,0,0,0,0,0,0,0,0,0,0,0,0,0,0],"split_type":[0,0,0,0,0,0,0,0,0,0,0,0,0,0,0,0,0,0,0,0,0,0,0,0,0,0,0,0,0],"sum_hessian":[1.1918382E4,7.223213E3,4.695169E3,7.2071904E3,1.6022459E1,4.5235428E2,4.2428145E3,6.074464E1,7.146446E3,1.2166361E1,3.856098E0,1.8373517E2,2.686191E2,1.3267292E3,2.9160854E3,2.4023127E1,3.6721516E1,2.1798635E3,4.9665825E3,9.145435E0,3.0209253E0,1.2064852E2,6.3086647E1,1.4415782E2,1.2446129E2,6.434134E2,6.8331586E2,2.8656746E3,5.041068E1],"tree_param":{"num_deleted":"0","num_feature":"45","num_nodes":"29","size_leaf_vector":"1"}},{"base_weights":[-1.2868033E-4,1.675481E-2,-5.0135173E-2,1.0536355E-1,1.4208034E-2,5.252184E-2,-6.634529E-2,1.2843494E-1,-8.763001E-2,-1.1372193E-2,2.1783235E-2,1.5560132E-1,2.2974096E-2,-7.0745245E-2,1.09935805E-1,1.1062398E-2,4.211347E-3,1.0336446E-2,-9.295277E-3,1.1437888E-3,-2.0732298E-3,-1.8624607E-3,1.308361E-3,-5.167435E-3,9.824094E-3,-6.837293E-3,2.8167549E-3,-2.6748702E-3,-4.266498E-3,8.801708E-3,-2.439005E-3],"categories":[],"categories_nodes":[],"categories_segments":[],"categories_sizes":[],"default_left":[0,0,0,0,0,0,0,0,0,0,0,0,0,0,0,0,0,0,0,0,0,0,0,0,0,0,0,0,0,0,0],"id":27,"left_children":[1,3,5,7,9,11,13,15,17,19,21,23,25,27,29,-1,-1,-1,-1,-1,-1,-1,-1,-1,-1,-1,-1,-1,-1,-1,-1],"loss_changes":[1.0048163E1,1.9918942E0,5.0080695E0,1.1266122E0,1.6772891E0,1.2237648E0,2.02555E0,8.428359E-1,8.589118E-1,2.038306E0,1.728517E0,1.0052416E0,1.7218344E0,6.1468697E-1,6.9564456E-1,0E0,0E0,0E0,0E0,0E0,0E0,0E0,0E0,0E0,0E0,0E0,0E0,0E0,0E0,0E0,0E0],"parents":[2147483647,0,0,1,1,2,2,3,3,4,4,5,5,6,6,7,7,8,8,9,9,10,10,11,11,12,12,13,13,14,14],"right_children":[2,4,6,8,10,12,14,16,18,20,22,24,26,28,30,-1,-1,-1,-1,-1,-1,-1,-1,-1,-1,-1,-1,-1,-1,-1,-1],"split_conditions":[-4.32203E-1,-6.871574E-1,-6.9127005E-1,8.322259E-1,3.7209302E-1,-7.5352925E-1,2.7833118E0,7.973422E-1,-2.7138004E0,-1.616561E-1,-1.0574594E0,1.9756658E-1,-7.18499E-1,1.6021203E-2,-2.4900602E-1,1.1062398E-2,4.211347E-3,1.0336446E-2,-9.295277E-3,1.1437888E-3,-2.0732298E-3,-1.8624607E-3,1.308361E-3,-5.167435E-3,9.824094E-3,-6.837293E-3,2.8167549E-3,-2.6748702E-3,-4.266498E-3,8.801708E-3,-2.439005E-3],"split_indices":[43,36,40,30,26,36,2,17,43,0,44,3,40,0,36,0,0,0,0,0,0,0,0,0,0,0,0,0,0,0,0],"split_type":[0,0,0,0,0,0,0,0,0,0,0,0,0,0,0,0,0,0,0,0,0,0,0,0,0,0,0,0,0,0,0],"sum_hessian":[1.1893457E4,8.890967E3,3.0024907E3,2.4505003E2,8.645916E3,4.080026E2,2.5944883E3,2.1994403E2,2.5105999E1,1.9721343E3,6.673782E3,8.824318E1,3.197594E2,2.5330288E3,6.1459557E1,6.764806E1,1.5229597E2,5.4768467E0,1.9629152E1,9.2104987E2,1.0510844E3,4.5874606E2,6.215036E3,1.128135E1,7.696183E1,5.3659996E1,2.660994E2,1.1679761E3,1.3650526E3,4.368038E1,1.7779173E1],"tree_param":{"num_deleted":"0","num_feature":"45","num_nodes":"31","size_leaf_vector":"1"}},{"base_weights":[-3.2309073E-4,1.8623745E-2,-4.02738E-2,2.3706159E-2,-1.9103779E-2,6.050863E-2,-5.300289E-2,1.2843886E-1,2.219797E-2,-4.8112035E-2,3.8918145E-2,-5.6682736E-2,8.1788726E-2,-5.7256646E-2,9.657297E-2,1.14697E-2,2.889362E-3,1.1404468E-3,-1.0827622E-2,-3.0946088E-4,-6.8543577E-3,4.5547104E-3,-4.5400304E-3,7.218951E-3,-5.2377484E-3,-1.1581802E-2,4.4846674E-3,-2.1537342E-3,-4.1065984E-3,8.370658E-3,-3.6933583E-3],"categories":[],"categories_nodes":[],"categories_segments":[],"categories_sizes":[],"default_left":[0,0,0,0,0,0,0,0,0,0,0,0,0,0,0,0,0,0,0,0,0,0,0,0,0,0,0,0,0,0,0],"id":28,"left_children":[1,3,5,7,9,11,13,15,17,19,21,23,25,27,29,-1,-1,-1,-1,-1,-1,-1,-1,-1,-1,-1,-1,-1,-1,-1,-1],"loss_changes":[8.986079E0,1.544735E0,4.9059176E0,1.1001959E0,1.6109464E0,1.0801402E0,2.1661863E0,6.536429E-1,1.0114715E0,2.3648796E0,2.1692278E0,6.670572E-1,9.2942595E-1,1.1450863E0,1.1681867E0,0E0,0E0,0E0,0E0,0E0,0E0,0E0,0E0,0E0,0E0,0E0,0E0,0E0,0E0,0E0,0E0],"parents":[2147483647,0,0,1,1,2,2,3,3,4,4,5,5,6,6,7,7,8,8,9,9,10,10,11,11,12,12,13,13,14,14],"right_children":[2,4,6,8,10,12,14,16,18,20,22,24,26,28,30,-1,-1,-1,-1,-1,-1,-1,-1,-1,-1,-1,-1,-1,-1,-1,-1],"split_conditions":[-6.2974215E-1,1.1253862E0,-6.906223E-1,-7.3543954E-1,1.334851E0,2.358804E-1,2.0222685E0,-1.6868577E0,1.7037754E0,8.572719E-1,-7.316593E-1,-7.499963E-1,3.986711E-2,2.1486431E-1,-2.364393E-1,1.14697E-2,2.889362E-3,1.1404468E-3,-1.0827622E-2,-3.0946088E-4,-6.8543577E-3,4.5547104E-3,-4.5400304E-3,7.218951E-3,-5.2377484E-3,-1.1581802E-2,4.4846674E-3,-2.1537342E-3,-4.1065984E-3,8.370658E-3,-3.6933583E-3],"split_indices":[43,0,36,36,36,21,2,0,36,36,41,35,33,41,36,0,0,0,0,0,0,0,0,0,0,0,0,0,0,0,0],"split_type":[0,0,0,0,0,0,0,0,0,0,0,0,0,0,0,0,0,0,0,0,0,0,0,0,0,0,0,0,0,0,0],"sum_hessian":[1.1864753E4,8.0469897E3,3.817763E3,7.0946387E3,9.523509E2,4.26398E2,3.3913647E3,9.7384346E1,6.9972544E3,6.362971E2,3.160538E2,6.429472E1,3.6210327E2,3.2994358E3,9.1928955E1,3.7660965E1,5.972338E1,6.981616E3,1.5638239E1,4.3472754E2,2.0156955E2,2.2636905E2,8.968476E1,1.1231615E1,5.3063107E1,7.20391E0,3.5489935E2,2.1074285E3,1.1920076E3,6.537805E1,2.6550903E1],"tree_param":{"num_deleted":"0","num_feature":"45","num_nodes":"31","size_leaf_vector":"1"}},{"base_weights":[2.495247E-3,1.7807966E-2,-3.9754175E-2,2.4209665E-1,1.6863277E-2,5.790448E-2,-5.2888982E-2,-3.944417E-3,3.0123547E-1,8.5338205E-2,1.3988497E-2,1.4611372E-1,2.2284798E-2,-4.156528E-2,-9.247487E-2,-0E0,1.8322052E-2,-5.467066E-3,5.8426782E-3,7.7983993E-4,-4.224246E-3,8.827674E-3,-5.6016343E-3,2.2479463E-3,-9.419783E-3,6.9178255E-5,-2.6288677E-3,-5.6819017E-3,-2.5077055E-3],"categories":[],"categories_nodes":[],"categories_segments":[],"categories_sizes":[],"default_left":[0,0,0,0,0,0,0,0,0,0,0,0,0,0,0,0,0,0,0,0,0,0,0,0,0,0,0,0,0],"id":29,"left_children":[1,3,5,7,9,11,13,-1,15,17,19,21,23,25,27,-1,-1,-1,-1,-1,-1,-1,-1,-1,-1,-1,-1,-1,-1],"loss_changes":[7.6545386E0,1.8068225E0,4.041943E0,7.502332E-1,1.691293E0,1.1489124E0,1.223084E0,0E0,6.3030434E-1,2.1546888E0,1.311756E0,8.8016605E-1,1.2873318E0,1.0286496E0,5.219369E-1,0E0,0E0,0E0,0E0,0E0,0E0,0E0,0E0,0E0,0E0,0E0,0E0,0E0,0E0],"parents":[2147483647,0,0,1,1,2,2,3,3,4,4,5,5,6,6,8,8,9,9,10,10,11,11,12,12,13,13,14,14],"right_children":[2,4,6,8,10,12,14,-1,16,18,20,22,24,26,28,-1,-1,-1,-1,-1,-1,-1,-1,-1,-1,-1,-1,-1,-1],"split_conditions":[3.3887044E-1,6.644518E-3,-6.906223E-1,1.4285715E-1,-1.8786119E0,-7.3989856E-1,3.1998214E-1,-3.944417E-3,-1.7616274E0,2.3255814E-2,8.870432E-1,1.3839214E0,1.5571127E0,2.5249168E-1,1.3853724E0,-0E0,1.8322052E-2,-5.467066E-3,5.8426782E-3,7.7983993E-4,-4.224246E-3,8.827674E-3,-5.6016343E-3,2.2479463E-3,-9.419783E-3,6.9178255E-5,-2.6288677E-3,-5.6819017E-3,-2.5077055E-3],"split_indices":[25,16,36,32,12,36,36,0,8,24,22,5,1,24,0,0,0,0,0,0,0,0,0,0,0,0,0,0,0],"split_type":[0,0,0,0,0,0,0,0,0,0,0,0,0,0,0,0,0,0,0,0,0,0,0,0,0,0,0,0,0],"sum_hessian":[1.183087E4,8.686201E3,3.1446697E3,3.3846924E1,8.652354E3,3.7109677E2,2.773573E3,4.8988466E0,2.8948078E1,3.4490253E2,8.307451E3,1.0415467E2,2.669421E2,2.161806E3,6.117671E2,5.3400617E0,2.3608017E1,4.6924465E1,2.9797806E2,8.176607E3,1.3084448E2,9.408053E1,1.0074143E1,2.4285329E2,2.4088818E1,4.396741E2,1.7221317E3,4.0400488E2,2.077622E2],"tree_param":{"num_deleted":"0","num_feature":"45","num_nodes":"29","size_leaf_vector":"1"}},{"base_weights":[-1.7759533E-3,1.5295794E-2,-3.9289046E-2,5.3669125E-2,8.10933E-3,6.430452E-2,-5.2745037E-2,3.0847046E-1,5.021026E-2,-3.642253E-2,1.1878531E-2,1.1139524E-1,1.4652302E-2,-3.772086E-2,-7.96423E-2,1.9006345E-2,-0E0,2.059137E-4,3.5789919E-3,-2.1922549E-3,1.6391397E-2,1.4121471E-3,1.6572068E-5,3.9339396E-3,1.2587056E-2,2.0034665E-3,-8.394233E-3,-2.033821E-3,5.0044446E-3,-3.4872235E-3,-7.7019394E-3],"categories":[],"categories_nodes":[],"categories_segments":[],"categories_sizes":[],"default_left":[0,0,0,0,0,0,0,0,0,0,0,0,0,0,0,0,0,0,0,0,0,0,0,0,0,0,0,0,0,0,0],"id":30,"left_children":[1,3,5,7,9,11,13,15,17,19,21,23,25,27,29,-1,-1,-1,-1,-1,-1,-1,-1,-1,-1,-1,-1,-1,-1,-1,-1],"loss_changes":[7.5658712E0,2.2307756E0,5.1570487E0,1.0590131E0,1.1464009E0,9.775816E-1,1.3047676E0,3.3356953E-1,1.235981E0,1.4390774E0,1.1893299E0,9.224925E-1,9.756949E-1,8.5997057E-1,8.167238E-1,0E0,0E0,0E0,0E0,0E0,0E0,0E0,0E0,0E0,0E0,0E0,0E0,0E0,0E0,0E0,0E0],"parents":[2147483647,0,0,1,1,2,2,3,3,4,4,5,5,6,6,7,7,8,8,9,9,10,10,11,11,12,12,13,13,14,14],"right_children":[2,4,6,8,10,12,14,16,18,20,22,24,26,28,30,-1,-1,-1,-1,-1,-1,-1,-1,-1,-1,-1,-1,-1,-1,-1,-1],"split_conditions":[-6.245253E-1,-5.7350355E-1,-6.882193E-1,-2.8095715E0,-1.0721713E0,-9.389681E-2,2.4141777E-1,9.6345514E-1,2.4584718E-1,-4.3132627E-1,8.637874E-2,4.8006645E-1,9.368771E-1,2.0113351E0,8.1637806E-1,1.9006345E-2,-0E0,2.059137E-4,3.5789919E-3,-2.1922549E-3,1.6391397E-2,1.4121471E-3,1.6572068E-5,3.9339396E-3,1.2587056E-2,2.0034665E-3,-8.394233E-3,-2.033821E-3,5.0044446E-3,-3.4872235E-3,-7.7019394E-3],"split_indices":[43,36,39,42,0,15,41,17,33,36,25,31,33,1,39,0,0,0,0,0,0,0,0,0,0,0,0,0,0,0,0],"split_type":[0,0,0,0,0,0,0,0,0,0,0,0,0,0,0,0,0,0,0,0,0,0,0,0,0,0,0,0,0,0,0],"sum_hessian":[1.1806407E4,8.1128623E3,3.6935454E3,1.275463E3,6.8373994E3,4.22886E2,3.2706594E3,1.4332946E1,1.26113E3,5.3013794E2,6.307261E3,2.1473138E2,2.0815462E2,2.1039597E3,1.1666996E3,1.1064094E1,3.2688527E0,4.0172192E2,8.5940814E2,5.215439E2,8.5940485E0,2.604558E3,3.7027034E3,1.7724663E2,3.748475E1,1.8456412E2,2.3590494E1,2.0618745E3,4.208508E1,1.034312E3,1.323876E2],"tree_param":{"num_deleted":"0","num_feature":"45","num_nodes":"31","size_leaf_vector":"1"}},{"base_weights":[-3.2632381E-3,1.2159711E-2,-3.8889885E-2,1.7707603E-1,1.0116754E-2,5.3851724E-2,-5.178761E-2,9.394036E-2,2.4825868E-1,4.2614076E-2,4.340879E-3,1.3722351E-1,2.5555799E-2,-5.5973176E-2,9.0388864E-2,2.3389866E-3,1.5064994E-2,3.7703428E-3,1.55802965E-2,8.288911E-3,1.5077584E-3,-1.3608354E-4,2.0302436E-3,9.430053E-3,-7.42363E-4,-4.70316E-3,3.1176007E-3,-2.2771256E-3,-4.3517505E-3,6.6488483E-3,-3.2408081E-3],"categories":[],"categories_nodes":[],"categories_segments":[],"categories_sizes":[],"default_left":[0,0,0,0,0,0,0,0,0,0,0,0,0,0,0,0,0,0,0,0,0,0,0,0,0,0,0,0,0,0,0],"id":31,"left_children":[1,3,5,7,9,11,13,15,17,19,21,23,25,27,29,-1,-1,-1,-1,-1,-1,-1,-1,-1,-1,-1,-1,-1,-1,-1,-1],"loss_changes":[6.4809046E0,2.7493136E0,4.2683234E0,5.1056576E-1,1.5206518E0,1.0032744E0,1.8697338E0,4.2562175E-1,4.8341632E-1,1.8483832E0,1.772909E0,8.7391067E-1,1.4533272E0,9.6476746E-1,6.163786E-1,0E0,0E0,0E0,0E0,0E0,0E0,0E0,0E0,0E0,0E0,0E0,0E0,0E0,0E0,0E0,0E0],"parents":[2147483647,0,0,1,1,2,2,3,3,4,4,5,5,6,6,7,7,8,8,9,9,10,10,11,11,12,12,13,13,14,14],"right_children":[2,4,6,8,10,12,14,16,18,20,22,24,26,28,30,-1,-1,-1,-1,-1,-1,-1,-1,-1,-1,-1,-1,-1,-1,-1,-1],"split_conditions":[-6.076902E-1,-7.3989856E-1,-6.9127005E-1,-2.588168E-1,2.9900333E-2,1.6611295E-2,2.0222685E0,1E0,-1.4813794E0,-6.106105E-1,4.9833888E-1,-7.3855466E-1,-7.130235E-1,4.8848578E-1,-1.7397185E-1,2.3389866E-3,1.5064994E-2,3.7703428E-3,1.55802965E-2,8.288911E-3,1.5077584E-3,-1.3608354E-4,2.0302436E-3,9.430053E-3,-7.42363E-4,-4.70316E-3,3.1176007E-3,-2.2771256E-3,-4.3517505E-3,6.6488483E-3,-3.2408081E-3],"split_indices":[43,36,40,13,28,16,2,19,42,39,34,40,35,43,36,0,0,0,0,0,0,0,0,0,0,0,0,0,0,0,0],"split_type":[0,0,0,0,0,0,0,0,0,0,0,0,0,0,0,0,0,0,0,0,0,0,0,0,0,0,0,0,0,0,0],"sum_hessian":[1.1786286E4,8.22441E3,3.5618765E3,9.794031E1,8.1264697E3,4.3315497E2,3.1287214E3,4.796512E1,4.9975185E1,1.2218419E3,6.904628E3,1.06912415E2,3.2624255E2,3.0411096E3,8.7611885E1,4.1467453E1,6.497666E0,1.5001324E1,3.497386E1,1.0924529E2,1.1125966E3,5.7783623E3,1.1262656E3,8.004585E1,2.6866566E1,7.537602E1,2.5086653E2,2.2827178E3,7.5839197E2,6.947795E1,1.8133934E1],"tree_param":{"num_deleted":"0","num_feature":"45","num_nodes":"31","size_leaf_vector":"1"}},{"base_weights":[2.6830318E-3,2.1609839E-2,-2.8443882E-2,1.7933516E-1,2.0158816E-2,7.423002E-2,-3.9796468E-2,-1.7828623E-2,2.095292E-1,1.6920982E-2,7.583386E-2,1.5029454E-1,4.8957773E-2,-1.822743E-2,-6.10788E-2,-5.16456E-3,3.4359533E-3,1.4624967E-2,2.7411224E-3,8.818887E-4,-1.3309135E-2,4.7928314E-3,-2.4738566E-3,-7.6993415E-3,8.480021E-3,-4.1047847E-3,4.5855083E-3,-5.8764516E-4,-4.2397073E-3,-2.5127472E-3,-5.101266E-3],"categories":[],"categories_nodes":[],"categories_segments":[],"categories_sizes":[],"default_left":[0,0,0,0,0,0,0,0,0,0,0,0,0,0,0,0,0,0,0,0,0,0,0,0,0,0,0,0,0,0,0],"id":32,"left_children":[1,3,5,7,9,11,13,15,17,19,21,23,25,27,29,-1,-1,-1,-1,-1,-1,-1,-1,-1,-1,-1,-1,-1,-1,-1,-1],"loss_changes":[6.946174E0,1.6514654E0,5.1974382E0,4.194343E-1,1.2988296E0,8.1800365E-1,1.8330264E0,9.2845626E-2,6.753075E-1,1.379739E0,1.0110431E0,6.92127E-1,1.9035437E0,8.5007155E-1,8.6885023E-1,0E0,0E0,0E0,0E0,0E0,0E0,0E0,0E0,0E0,0E0,0E0,0E0,0E0,0E0,0E0,0E0],"parents":[2147483647,0,0,1,1,2,2,3,3,4,4,5,5,6,6,7,7,8,8,9,9,10,10,11,11,12,12,13,13,14,14],"right_children":[2,4,6,8,10,12,14,16,18,20,22,24,26,28,30,-1,-1,-1,-1,-1,-1,-1,-1,-1,-1,-1,-1,-1,-1,-1,-1],"split_conditions":[2.2923589E-1,-7.332565E-1,-6.9127005E-1,1.295681E-1,9.269103E-1,-7.452588E-1,4.3189368E-1,-1.1307167E0,6.810631E-1,9.800664E-1,1.2149729E0,1.2624584E-1,-7.1193534E-1,5.631229E-1,3.4274456E-1,-5.16456E-3,3.4359533E-3,1.4624967E-2,2.7411224E-3,8.818887E-4,-1.3309135E-2,4.7928314E-3,-2.4738566E-3,-7.6993415E-3,8.480021E-3,-4.1047847E-3,4.5855083E-3,-5.8764516E-4,-4.2397073E-3,-2.5127472E-3,-5.101266E-3],"split_indices":[25,40,40,20,33,36,25,41,32,23,3,33,39,34,40,0,0,0,0,0,0,0,0,0,0,0,0,0,0,0,0],"split_type":[0,0,0,0,0,0,0,0,0,0,0,0,0,0,0,0,0,0,0,0,0,0,0,0,0,0,0,0,0,0,0],"sum_hessian":[1.1787573E4,7.332718E3,4.4548555E3,6.398043E1,7.2687373E3,4.4154974E2,4.0133057E3,8.165804E0,5.581463E1,6.873411E3,3.9532584E2,1.0666326E2,3.3488647E2,1.9974047E3,2.0159009E3,4.495339E0,3.670465E0,3.4750183E1,2.1064445E1,6.8582754E3,1.5135897E1,3.4195483E2,5.337102E1,5.222286E0,1.0144098E2,8.134658E1,2.5353989E2,1.8238643E3,1.7354045E2,1.5998826E3,4.1601825E2],"tree_param":{"num_deleted":"0","num_feature":"45","num_nodes":"31","size_leaf_vector":"1"}},{"base_weights":[2.9150094E-4,1.5955327E-2,-3.5294816E-2,4.7314305E-2,8.698645E-3,5.4854352E-2,-4.763844E-2,5.9857313E-2,-1.5227058E-2,-3.3169243E-2,1.2982533E-2,1.2189467E-1,2.6624061E-2,-5.125329E-2,8.784276E-2,3.4719703E-3,-1.6099928E-3,-1.2307876E-4,-1.1293936E-2,9.772276E-3,-2.55285E-3,-1.921672E-3,8.8530144E-4,2.7098048E-3,1.4257463E-2,-1.5050198E-2,1.7859157E-3,-9.866754E-4,-2.9837745E-3,9.163085E-3,-2.9225273E-3],"categories":[],"categories_nodes":[],"categories_segments":[],"categories_sizes":[],"default_left":[0,0,0,0,0,0,0,0,0,0,0,0,0,0,0,0,0,0,0,0,0,0,0,0,0,0,0,0,0,0,0],"id":33,"left_children":[1,3,5,7,9,11,13,15,17,19,21,23,25,27,29,-1,-1,-1,-1,-1,-1,-1,-1,-1,-1,-1,-1,-1,-1,-1,-1],"loss_changes":[6.563697E0,1.8551731E0,4.0082626E0,1.2098508E0,1.1912723E0,7.986655E-1,1.5562396E0,1.1370201E0,6.659752E-1,2.522575E0,1.4649283E0,1.336332E0,9.1415656E-1,8.090439E-1,1.1829631E0,0E0,0E0,0E0,0E0,0E0,0E0,0E0,0E0,0E0,0E0,0E0,0E0,0E0,0E0,0E0,0E0],"parents":[2147483647,0,0,1,1,2,2,3,3,4,4,5,5,6,6,7,7,8,8,9,9,10,10,11,11,12,12,13,13,14,14],"right_children":[2,4,6,8,10,12,14,16,18,20,22,24,26,28,30,-1,-1,-1,-1,-1,-1,-1,-1,-1,-1,-1,-1,-1,-1,-1,-1],"split_conditions":[-6.245253E-1,-5.462924E-1,-6.9127005E-1,-7.794455E-1,-8.354969E-1,4.3023255E-1,1.8427681E0,1.3972164E0,1.6807415E0,5.9800666E-2,-4.9688503E-1,-6.959044E-1,-1.0521815E0,-4.467747E-1,4.883721E-1,3.4719703E-3,-1.6099928E-3,-1.2307876E-4,-1.1293936E-2,9.772276E-3,-2.55285E-3,-1.921672E-3,8.8530144E-4,2.7098048E-3,1.4257463E-2,-1.5050198E-2,1.7859157E-3,-9.866754E-4,-2.9837745E-3,9.163085E-3,-2.9225273E-3],"split_indices":[43,35,40,43,37,34,10,4,1,25,35,35,37,43,31,0,0,0,0,0,0,0,0,0,0,0,0,0,0,0,0],"split_type":[0,0,0,0,0,0,0,0,0,0,0,0,0,0,0,0,0,0,0,0,0,0,0,0,0,0,0,0,0,0,0],"sum_hessian":[1.1774632E4,8.1786123E3,3.5960193E3,1.532266E3,6.646346E3,4.3127798E2,3.1647415E3,1.277701E3,2.54565E2,6.1350684E2,6.0328394E3,1.2477902E2,3.0649896E2,3.0844255E3,8.031577E1,1.1586741E3,1.1902697E2,2.4237517E2,1.2189839E1,4.267357E1,5.7083325E2,5.046124E2,5.528227E3,9.0519E1,3.4260025E1,6.247164E0,3.002518E2,6.54298E2,2.4301277E3,4.871794E1,3.1597832E1],"tree_param":{"num_deleted":"0","num_feature":"45","num_nodes":"31","size_leaf_vector":"1"}},{"base_weights":[-1.1687488E-3,9.53197E-3,-4.1034617E-2,2.2030376E-1,8.462561E-3,5.098262E-2,-5.483787E-2,2.6013628E-1,-6.0380166E-3,1.3246552E-2,-2.8671147E-2,2.5856702E-2,1.4807284E-1,-6.0154952E-2,3.943492E-2,1.5873129E-2,1.3658841E-3,2.1166557E-3,3.895778E-4,-7.4242884E-3,-8.877813E-4,-8.673462E-3,2.028263E-3,3.3482083E-3,1.4435189E-2,-1.910647E-3,-3.9472757E-3,7.899298E-4,1.2659127E-2],"categories":[],"categories_nodes":[],"categories_segments":[],"categories_sizes":[],"default_left":[0,0,0,0,0,0,0,0,0,0,0,0,0,0,0,0,0,0,0,0,0,0,0,0,0,0,0,0,0],"id":34,"left_children":[1,3,5,7,9,11,13,15,-1,17,19,21,23,25,27,-1,-1,-1,-1,-1,-1,-1,-1,-1,-1,-1,-1,-1,-1],"loss_changes":[5.030078E0,2.067016E0,3.1757689E0,7.0628166E-1,1.6414039E0,7.692984E-1,1.0955486E0,5.139184E-1,0E0,1.2942598E0,1.3555937E0,7.686796E-1,6.751895E-1,8.307042E-1,5.520016E-1,0E0,0E0,0E0,0E0,0E0,0E0,0E0,0E0,0E0,0E0,0E0,0E0,0E0,0E0],"parents":[2147483647,0,0,1,1,2,2,3,3,4,4,5,5,6,6,7,7,9,9,10,10,11,11,12,12,13,13,14,14],"right_children":[2,4,6,8,10,12,14,16,-1,18,20,22,24,26,28,-1,-1,-1,-1,-1,-1,-1,-1,-1,-1,-1,-1,-1,-1],"split_conditions":[4.0863788E-1,-7.6333773E-1,-6.914215E-1,-1.857679E-1,-2.5133115E-1,1.479583E0,1.7239397E0,9.9667776E-1,-6.0380166E-3,-5.7350355E-1,-1.4270837E0,3.156146E-1,-1.5252931E0,-1.0546429E-2,9.269103E-1,1.5873129E-2,1.3658841E-3,2.1166557E-3,3.895778E-4,-7.4242884E-3,-8.877813E-4,-8.673462E-3,2.028263E-3,3.3482083E-3,1.4435189E-2,-1.910647E-3,-3.9472757E-3,7.899298E-4,1.2659127E-2],"split_indices":[25,36,39,41,8,41,1,26,0,36,38,30,0,0,26,0,0,0,0,0,0,0,0,0,0,0,0,0,0],"split_type":[0,0,0,0,0,0,0,0,0,0,0,0,0,0,0,0,0,0,0,0,0,0,0,0,0,0,0,0,0],"sum_hessian":[1.178005E4,9.286421E3,2.4936296E3,4.433751E1,9.242083E3,3.23622E2,2.1700076E3,4.0388355E1,3.9491534E0,8.190826E3,1.051257E3,2.5992004E2,6.3701958E1,2.0558406E3,1.1416695E2,3.1480385E1,8.907971E0,1.288511E3,6.9023154E3,8.49068E1,9.6635016E2,1.5911115E1,2.4400894E2,4.272424E1,2.097772E1,9.536448E2,1.1021958E3,1.05154564E2,9.01238E0],"tree_param":{"num_deleted":"0","num_feature":"45","num_nodes":"29","size_leaf_vector":"1"}},{"base_weights":[-2.2639125E-3,1.1289142E-2,-3.3181716E-2,-2.3086753E-3,2.3882313E-2,5.0385684E-2,-4.47868E-2,4.850152E-3,-5.1963896E-2,-8.653359E-3,3.1850394E-2,1.3081186E-1,2.7498497E-2,-4.8022125E-2,1.0256131E-1,-2.6069186E-4,2.2840071E-3,-3.0926343E-3,9.994165E-3,7.153523E-3,-1.2322838E-3,-1.2648519E-3,1.903658E-3,9.154616E-3,-8.757355E-4,-4.9501047E-3,2.6899602E-3,-8.04898E-3,-2.2747468E-3,1.6917627E-2,2.5965371E-3],"categories":[],"categories_nodes":[],"categories_segments":[],"categories_sizes":[],"default_left":[0,0,0,0,0,0,0,0,0,0,0,0,0,0,0,0,0,0,0,0,0,0,0,0,0,0,0,0,0,0,0],"id":35,"left_children":[1,3,5,7,9,11,13,15,17,19,21,23,25,27,29,-1,-1,-1,-1,-1,-1,-1,-1,-1,-1,-1,-1,-1,-1,-1,-1],"loss_changes":[4.906214E0,1.395224E0,3.4651222E0,1.3948536E0,1.0987804E0,7.778317E-1,1.4993176E0,1.4085077E0,1.2424965E0,2.0108657E0,1.2117863E0,7.587483E-1,1.1446276E0,8.412261E-1,7.298512E-1,0E0,0E0,0E0,0E0,0E0,0E0,0E0,0E0,0E0,0E0,0E0,0E0,0E0,0E0,0E0,0E0],"parents":[2147483647,0,0,1,1,2,2,3,3,4,4,5,5,6,6,7,7,8,8,9,9,10,10,11,11,12,12,13,13,14,14],"right_children":[2,4,6,8,10,12,14,16,18,20,22,24,26,28,30,-1,-1,-1,-1,-1,-1,-1,-1,-1,-1,-1,-1,-1,-1,-1,-1],"split_conditions":[-6.245253E-1,6.3787377E-1,-6.9127005E-1,8.687708E-1,-1.8497721E0,-7.5352925E-1,2.4625988E0,7.093023E-1,1.7086636E0,-6.141347E-1,-7.2308886E-1,1.6611295E-2,-7.18499E-1,-6.561707E-1,2.591362E-1,-2.6069186E-4,2.2840071E-3,-3.0926343E-3,9.994165E-3,7.153523E-3,-1.2322838E-3,-1.2648519E-3,1.903658E-3,9.154616E-3,-8.757355E-4,-4.9501047E-3,2.6899602E-3,-8.04898E-3,-2.2747468E-3,1.6917627E-2,2.5965371E-3],"split_indices":[43,26,40,30,42,36,5,30,3,39,37,16,40,40,16,0,0,0,0,0,0,0,0,0,0,0,0,0,0,0,0],"split_type":[0,0,0,0,0,0,0,0,0,0,0,0,0,0,0,0,0,0,0,0,0,0,0,0,0,0,0,0,0,0,0],"sum_hessian":[1.1699472E4,8.1325444E3,3.5669275E3,3.9072634E3,4.2252812E3,4.3307602E2,3.1338513E3,3.4147478E3,4.9251575E2,8.287135E2,3.3965676E3,9.288289E1,3.4019315E2,3.068503E3,6.5348366E1,2.738936E3,6.7581177E2,4.7574164E2,1.677413E1,7.690907E1,7.5180444E2,3.31353E2,3.0652146E3,6.882844E1,2.4054451E1,5.6949226E1,2.832439E2,6.353908E1,3.0049639E3,9.193368E0,5.6155E1],"tree_param":{"num_deleted":"0","num_feature":"45","num_nodes":"31","size_leaf_vector":"1"}},{"base_weights":[4.1148258E-5,1.1950343E-2,-3.7079822E-2,1.6454427E-1,1.0522999E-2,4.4367824E-2,-5.0618738E-2,9.3896255E-2,2.5870726E-1,2.408786E-2,-2.0453956E-3,6.065279E-2,-9.9409424E-2,-5.468473E-2,1.195732E-1,-2.782413E-3,7.6078773E-3,-2.17669E-3,1.6539214E-2,1.3078277E-3,-6.765493E-3,3.2401722E-4,-2.424481E-3,6.866404E-3,1.6895023E-3,-1.5369299E-2,-0E0,-2.239728E-3,-4.2087124E-3,1.5213038E-2,1.9934955E-3],"categories":[],"categories_nodes":[],"categories_segments":[],"categories_sizes":[],"default_left":[0,0,0,0,0,0,0,0,0,0,0,0,0,0,0,0,0,0,0,0,0,0,0,0,0,0,0,0,0,0,0],"id":36,"left_children":[1,3,5,7,9,11,13,15,17,19,21,23,25,27,29,-1,-1,-1,-1,-1,-1,-1,-1,-1,-1,-1,-1,-1,-1,-1,-1],"loss_changes":[5.199634E0,1.919925E0,3.1546953E0,4.602971E-1,1.5079552E0,9.614242E-1,1.7027378E0,4.6639493E-1,7.8331304E-1,1.3980119E0,1.8192055E0,7.306919E-1,8.7405086E-1,6.7832375E-1,7.8398955E-1,0E0,0E0,0E0,0E0,0E0,0E0,0E0,0E0,0E0,0E0,0E0,0E0,0E0,0E0,0E0,0E0],"parents":[2147483647,0,0,1,1,2,2,3,3,4,4,5,5,6,6,7,7,8,8,9,9,10,10,11,11,12,12,13,13,14,14],"right_children":[2,4,6,8,10,12,14,16,18,20,22,24,26,28,30,-1,-1,-1,-1,-1,-1,-1,-1,-1,-1,-1,-1,-1,-1,-1,-1],"split_conditions":[-4.420855E-1,-7.452588E-1,-6.9127005E-1,3.181882E-1,1.0631229E-1,1.4019191E0,2.7833118E0,8.7375414E-1,-1.6304091E0,1.3302193E0,1.0385059E0,-7.3855466E-1,5.714286E-1,6.323527E-1,6.348406E-1,-2.782413E-3,7.6078773E-3,-2.17669E-3,1.6539214E-2,1.3078277E-3,-6.765493E-3,3.2401722E-4,-2.424481E-3,6.866404E-3,1.6895023E-3,-1.5369299E-2,-0E0,-2.239728E-3,-4.2087124E-3,1.5213038E-2,1.9934955E-3],"split_indices":[43,36,40,5,25,6,2,19,8,6,0,40,19,43,15,0,0,0,0,0,0,0,0,0,0,0,0,0,0,0,0],"split_type":[0,0,0,0,0,0,0,0,0,0,0,0,0,0,0,0,0,0,0,0,0,0,0,0,0,0,0,0,0,0,0],"sum_hessian":[1.1763406E4,8.909197E3,2.8542095E3,7.979583E1,8.829401E3,4.05123E2,2.4490864E3,4.8479362E1,3.1316473E1,4.249312E3,4.5800894E3,3.6556857E2,3.95544E1,2.393841E3,5.5245403E1,1.3135804E1,3.5343555E1,5.915516E0,2.5400957E1,4.19714E3,5.217209E1,3.8693608E3,7.107285E2,9.174643E1,2.7382214E2,1.1596716E1,2.7957687E1,1.7989424E3,5.948987E2,1.4577378E1,4.0668026E1],"tree_param":{"num_deleted":"0","num_feature":"45","num_nodes":"31","size_leaf_vector":"1"}},{"base_weights":[2.2549771E-3,1.5322938E-2,-2.8538968E-2,5.0675016E-2,8.426397E-3,5.743825E-2,-4.110487E-2,5.803602E-2,-7.725669E-2,-3.499608E-3,2.4425948E-2,1.5751232E-1,2.9449822E-2,-4.5868736E-2,9.642083E-2,1.9817732E-3,5.7781907E-3,1.0291192E-2,-6.372238E-3,4.0396038E-3,-4.140678E-4,1.638935E-3,-1.0724935E-3,9.364315E-3,-2.3866652E-3,5.8099935E-3,-6.3405384E-4,-1.6792965E-3,-3.4936306E-3,3.2554325E-3,2.0589722E-2],"categories":[],"categories_nodes":[],"categories_segments":[],"categories_sizes":[],"default_left":[0,0,0,0,0,0,0,0,0,0,0,0,0,0,0,0,0,0,0,0,0,0,0,0,0,0,0,0,0,0,0],"id":37,"left_children":[1,3,5,7,9,11,13,15,17,19,21,23,25,27,29,-1,-1,-1,-1,-1,-1,-1,-1,-1,-1,-1,-1,-1,-1,-1,-1],"loss_changes":[4.714945E0,1.9998219E0,3.7731233E0,1.2696004E0,1.3172379E0,1.2178583E0,1.999877E0,1.3192954E0,1.0826669E0,1.5847943E0,1.1317784E0,6.1830735E-1,1.2955112E0,8.5378075E-1,9.054191E-1,0E0,0E0,0E0,0E0,0E0,0E0,0E0,0E0,0E0,0E0,0E0,0E0,0E0,0E0,0E0,0E0],"parents":[2147483647,0,0,1,1,2,2,3,3,4,4,5,5,6,6,7,7,8,8,9,9,10,10,11,11,12,12,13,13,14,14],"right_children":[2,4,6,8,10,12,14,16,18,20,22,24,26,28,30,-1,-1,-1,-1,-1,-1,-1,-1,-1,-1,-1,-1,-1,-1,-1,-1],"split_conditions":[-6.134999E-1,-5.7350355E-1,-6.8487024E-1,-5.6655914E-1,4.2358804E-1,-7.5352925E-1,2.0222685E0,-1.1342816E0,-6.424833E-1,2.9235882E-1,1.1987687E-1,8.9700997E-1,3.2724252E-1,2.9138526E-1,9.501661E-1,1.9817732E-3,5.7781907E-3,1.0291192E-2,-6.372238E-3,4.0396038E-3,-4.140678E-4,1.638935E-3,-1.0724935E-3,9.364315E-3,-2.3866652E-3,5.8099935E-3,-6.3405384E-4,-1.6792965E-3,-3.4936306E-3,3.2554325E-3,2.0589722E-2],"split_indices":[43,36,39,0,34,36,2,0,36,30,7,32,31,43,30,0,0,0,0,0,0,0,0,0,0,0,0,0,0,0,0],"split_type":[0,0,0,0,0,0,0,0,0,0,0,0,0,0,0,0,0,0,0,0,0,0,0,0,0,0,0,0,0,0,0],"sum_hessian":[1.1715762E4,8.228222E3,3.4875403E3,1.3387112E3,6.8895103E3,4.4279446E2,3.0447458E3,1.2676471E3,7.1064186E1,3.9445613E3,2.9449487E3,9.3970314E1,3.4882416E2,2.9447986E3,9.994718E1,9.6432043E2,3.0332657E2,9.467749E0,6.1596436E1,2.0892735E2,3.735634E3,2.4936694E3,4.5127927E2,8.264381E1,1.1326509E1,1.1365635E2,2.351678E2,1.9539332E3,9.908653E2,9.34035E1,6.543678E0],"tree_param":{"num_deleted":"0","num_feature":"45","num_nodes":"31","size_leaf_vector":"1"}},{"base_weights":[-2.9092448E-4,1.30426325E-2,-3.1493217E-2,6.681387E-2,9.370897E-3,6.3167706E-2,-4.4798777E-2,2.9198013E-2,1.3365865E-1,-3.481784E-2,1.375877E-2,-2.3842616E-2,9.028932E-2,-4.853437E-2,6.788033E-2,6.581237E-4,1.0666313E-2,2.5054386E-3,9.897219E-3,-4.1563953E-3,-2.3642425E-4,4.6131792E-4,2.9343676E-3,-2.4741972E-3,9.488695E-3,5.1543205E-3,-6.538374E-3,-1.9423191E-3,-3.9317436E-3,4.942686E-4,1.1227624E-2],"categories":[],"categories_nodes":[],"categories_segments":[],"categories_sizes":[],"default_left":[0,0,0,0,0,0,0,0,0,0,0,0,0,0,0,0,0,0,0,0,0,0,0,0,0,0,0,0,0,0,0],"id":38,"left_children":[1,3,5,7,9,11,13,15,17,19,21,23,25,27,29,-1,-1,-1,-1,-1,-1,-1,-1,-1,-1,-1,-1,-1,-1,-1,-1],"loss_changes":[4.8727746E0,1.6101795E0,4.421529E0,1.2887006E0,1.4880338E0,1.0307777E0,1.2999654E0,9.6856976E-1,9.570141E-1,9.967209E-1,1.4155533E0,5.711216E-1,9.598603E-1,8.513212E-1,8.6912006E-1,0E0,0E0,0E0,0E0,0E0,0E0,0E0,0E0,0E0,0E0,0E0,0E0,0E0,0E0,0E0,0E0],"parents":[2147483647,0,0,1,1,2,2,3,3,4,4,5,5,6,6,7,7,8,8,9,9,10,10,11,11,12,12,13,13,14,14],"right_children":[2,4,6,8,10,12,14,16,18,20,22,24,26,28,30,-1,-1,-1,-1,-1,-1,-1,-1,-1,-1,-1,-1,-1,-1,-1,-1],"split_conditions":[-6.245253E-1,-6.390027E-1,-6.9127005E-1,-6.5210664E-1,-1.4490135E0,-5.107872E-1,2.0222685E0,9.335548E-1,7.068098E-1,1.991384E-1,7.508306E-1,5.0830567E-1,1.5623968E0,4.8848578E-1,8.538206E-1,6.581237E-4,1.0666313E-2,2.5054386E-3,9.897219E-3,-4.1563953E-3,-2.3642425E-4,4.6131792E-4,2.9343676E-3,-2.4741972E-3,9.488695E-3,5.1543205E-3,-6.538374E-3,-1.9423191E-3,-3.9317436E-3,4.942686E-4,1.1227624E-2],"split_indices":[43,36,40,40,13,5,2,33,37,2,31,30,5,43,26,0,0,0,0,0,0,0,0,0,0,0,0,0,0,0,0],"split_type":[0,0,0,0,0,0,0,0,0,0,0,0,0,0,0,0,0,0,0,0,0,0,0,0,0,0,0,0,0,0,0],"sum_hessian":[1.1703934E4,8.198472E3,3.5054624E3,5.2010425E2,7.678367E3,4.301558E2,3.0753066E3,3.356129E2,1.8449135E2,6.902672E2,6.9880996E3,1.01400856E2,3.287549E2,2.978585E3,9.6721565E1,3.1119714E2,2.441577E1,8.244936E1,1.0204199E2,2.62293E2,4.279742E2,6.351949E3,6.361506E2,9.232368E1,9.077185E0,3.1220114E2,1.6553787E1,2.2593164E3,7.1926855E2,7.260865E1,2.411291E1],"tree_param":{"num_deleted":"0","num_feature":"45","num_nodes":"31","size_leaf_vector":"1"}},{"base_weights":[7.7060953E-4,1.1230865E-2,-3.607345E-2,4.4514477E-2,3.3311138E-3,5.0225053E-2,-5.0609548E-2,3.01869E-1,4.0878195E-2,-2.1405546E-2,1.21676065E-2,-2.4258476E-2,8.441365E-2,-5.356532E-2,1.3379999E-1,8.9312636E-4,1.837561E-2,1.0106667E-2,1.8069929E-3,-8.5224176E-4,-8.3099855E-3,-2.3000545E-3,8.453891E-4,-6.3858465E-3,3.5609943E-3,1.0231708E-2,1.8044632E-3,-2.1437283E-3,-4.5962357E-3,1.9218976E-3,1.453689E-2],"categories":[],"categories_nodes":[],"categories_segments":[],"categories_sizes":[],"default_left":[0,0,0,0,0,0,0,0,0,0,0,0,0,0,0,0,0,0,0,0,0,0,0,0,0,0,0,0,0,0,0],"id":39,"left_children":[1,3,5,7,9,11,13,15,17,19,21,23,25,27,29,-1,-1,-1,-1,-1,-1,-1,-1,-1,-1,-1,-1,-1,-1,-1,-1],"loss_changes":[4.495689E0,2.3856604E0,3.2400522E0,1.5708072E0,1.6068699E0,9.5680064E-1,1.2103829E0,3.8771033E-1,1.2757661E0,1.1965687E0,1.4936494E0,1.1854123E0,1.4494091E0,8.71047E-1,4.6683592E-1,0E0,0E0,0E0,0E0,0E0,0E0,0E0,0E0,0E0,0E0,0E0,0E0,0E0,0E0,0E0,0E0],"parents":[2147483647,0,0,1,1,2,2,3,3,4,4,5,5,6,6,7,7,8,8,9,9,10,10,11,11,12,12,13,13,14,14],"right_children":[2,4,6,8,10,12,14,16,18,20,22,24,26,28,30,-1,-1,-1,-1,-1,-1,-1,-1,-1,-1,-1,-1,-1,-1,-1,-1],"split_conditions":[-3.3592722E-1,-5.462924E-1,-6.9127005E-1,-7.499963E-1,-5.812255E-1,3.6877078E-1,3.1104143E0,1.2292359E-1,-2.9057186E0,5.631229E-1,-4.9843144E-1,-1.551834E0,1.6611295E-2,3.4274456E-1,9.501661E-1,8.9312636E-4,1.837561E-2,1.0106667E-2,1.8069929E-3,-8.5224176E-4,-8.3099855E-3,-2.3000545E-3,8.453891E-4,-6.3858465E-3,3.5609943E-3,1.0231708E-2,1.8044632E-3,-2.1437283E-3,-4.5962357E-3,1.9218976E-3,1.453689E-2],"split_indices":[43,35,40,35,3,33,2,28,43,34,35,0,16,40,19,0,0,0,0,0,0,0,0,0,0,0,0,0,0,0,0],"split_type":[0,0,0,0,0,0,0,0,0,0,0,0,0,0,0,0,0,0,0,0,0,0,0,0,0,0,0,0,0,0,0],"sum_hessian":[1.1667391E4,9.090614E3,2.5767769E3,1.739546E3,7.3510684E3,3.69763E2,2.2070137E3,2.1567856E1,1.7179783E3,1.9310823E3,5.419986E3,1.1559117E2,2.5417184E2,2.1741274E3,3.2886234E1,4.812801E0,1.6755056E1,4.6059467E1,1.6719187E3,1.8774655E3,5.361685E1,4.0549387E2,5.014492E3,5.5655758E1,5.9935417E1,7.0426796E1,1.8374504E2,1.7056154E3,4.685122E2,2.2401302E1,1.0484932E1],"tree_param":{"num_deleted":"0","num_feature":"45","num_nodes":"31","size_leaf_vector":"1"}},{"base_weights":[1.2780305E-3,1.3102245E-2,-3.6274917E-2,2.0132366E-1,1.1446045E-2,4.4024885E-2,-4.9693838E-2,2.519443E-1,-3.770055E-2,1.2049649E-2,-2.1931873E-1,-5.3694922E-2,6.372716E-2,-5.3838965E-2,8.032089E-2,-1.2500309E-3,1.4551187E-2,7.695953E-3,-1.0072678E-2,4.1198343E-4,2.3502465E-3,-1.53853735E-2,-2.3537022E-3,-5.1807603E-3,8.080419E-3,3.943227E-3,-5.3183883E-3,-1.7993139E-3,-3.4024648E-3,-0E0,1.29003525E-2],"categories":[],"categories_nodes":[],"categories_segments":[],"categories_sizes":[],"default_left":[0,0,0,0,0,0,0,0,0,0,0,0,0,0,0,0,0,0,0,0,0,0,0,0,0,0,0,0,0,0,0],"id":40,"left_children":[1,3,5,7,9,11,13,15,17,19,21,23,25,27,29,-1,-1,-1,-1,-1,-1,-1,-1,-1,-1,-1,-1,-1,-1,-1,-1],"loss_changes":[5.2024837E0,2.7536888E0,3.0273664E0,9.7362375E-1,1.2160859E0,7.8107303E-1,1.3022966E0,7.3655653E-1,5.334815E-1,1.1684296E0,2.8172398E-1,7.544761E-1,8.791369E-1,5.7655144E-1,1.0745662E0,0E0,0E0,0E0,0E0,0E0,0E0,0E0,0E0,0E0,0E0,0E0,0E0,0E0,0E0,0E0,0E0],"parents":[2147483647,0,0,1,1,2,2,3,3,4,4,5,5,6,6,7,7,8,8,9,9,10,10,11,11,12,12,13,13,14,14],"right_children":[2,4,6,8,10,12,14,16,18,20,22,24,26,28,30,-1,-1,-1,-1,-1,-1,-1,-1,-1,-1,-1,-1,-1,-1,-1,-1],"split_conditions":[-4.467747E-1,-7.332565E-1,-6.9127005E-1,3.089701E-1,2.6652367E0,1.5946844E-1,2.4625988E0,-2.5253135E-1,-1.115179E-1,1.9181151E0,-1.0513948E0,1.838776E0,1.5914646E0,-3.1124938E-2,8.2392025E-1,-1.2500309E-3,1.4551187E-2,7.695953E-3,-1.0072678E-2,4.1198343E-4,2.3502465E-3,-1.53853735E-2,-2.3537022E-3,-5.1807603E-3,8.080419E-3,3.943227E-3,-5.3183883E-3,-1.7993139E-3,-3.4024648E-3,-0E0,1.29003525E-2],"split_indices":[43,40,40,24,1,32,5,37,15,37,41,41,1,0,26,0,0,0,0,0,0,0,0,0,0,0,0,0,0,0,0],"split_type":[0,0,0,0,0,0,0,0,0,0,0,0,0,0,0,0,0,0,0,0,0,0,0,0,0,0,0,0,0,0,0],"sum_hessian":[1.1717484E4,8.914546E3,2.8029382E3,7.5126976E1,8.839419E3,3.9961276E2,2.4033254E3,6.225322E1,1.28737545E1,8.818681E3,2.0737854E1,6.56205E1,3.3399225E2,2.3309512E3,7.2374405E1,7.4708676E0,5.4782352E1,5.7060785E0,7.167676E0,7.95676E3,8.6192145E2,1.2281846E1,8.456009E0,5.4488693E1,1.1131805E1,3.0822296E2,2.5769302E1,1.0393276E3,1.2916235E3,5.1023895E1,2.1350513E1],"tree_param":{"num_deleted":"0","num_feature":"45","num_nodes":"31","size_leaf_vector":"1"}},{"base_weights":[-3.8697504E-4,1.0821352E-2,-3.174618E-2,1.9232826E-2,-1.5145526E-2,5.742473E-2,-4.542413E-2,7.550751E-2,1.5331624E-2,-3.5421982E-2,1.7012749E-2,6.394156E-2,-1.5315443E-1,-4.7410235E-2,1.5826355E-1,2.605113E-3,1.0775995E-2,-3.392445E-3,8.759904E-4,-1.0487902E-2,-1.5229307E-3,1.1735748E-3,-8.780302E-3,2.1683264E-3,8.184138E-3,3.3929548E-4,-1.2419206E-2,-1.8449755E-3,-3.7247937E-3,1.6427299E-2,-0E0],"categories":[],"categories_nodes":[],"categories_segments":[],"categories_sizes":[],"default_left":[0,0,0,0,0,0,0,0,0,0,0,0,0,0,0,0,0,0,0,0,0,0,0,0,0,0,0,0,0,0,0],"id":41,"left_children":[1,3,5,7,9,11,13,15,17,19,21,23,25,27,29,-1,-1,-1,-1,-1,-1,-1,-1,-1,-1,-1,-1,-1,-1,-1,-1],"loss_changes":[4.0890636E0,1.8714908E0,3.7411144E0,1.4095097E0,1.3681523E0,5.6973803E-1,1.0794516E0,1.3186886E0,1.0997721E0,1.0764253E0,9.9950534E-1,7.798922E-1,2.1575242E-1,7.335105E-1,7.236667E-1,0E0,0E0,0E0,0E0,0E0,0E0,0E0,0E0,0E0,0E0,0E0,0E0,0E0,0E0,0E0,0E0],"parents":[2147483647,0,0,1,1,2,2,3,3,4,4,5,5,6,6,7,7,8,8,9,9,10,10,11,11,12,12,13,13,14,14],"right_children":[2,4,6,8,10,12,14,16,18,20,22,24,26,28,30,-1,-1,-1,-1,-1,-1,-1,-1,-1,-1,-1,-1,-1,-1,-1,-1],"split_conditions":[-5.2651393E-1,9.8238295E-1,-6.882193E-1,-6.395594E-1,5.826334E-1,1.7495648E0,3.1302273E0,-5.5013216E-1,-6.1532307E-1,3.6544852E-2,1.754357E0,1.3586324E0,-1.8087784E-2,5.1150155E-1,4.6511628E-2,2.605113E-3,1.0775995E-2,-3.392445E-3,8.759904E-4,-1.0487902E-2,-1.5229307E-3,1.1735748E-3,-8.780302E-3,2.1683264E-3,8.184138E-3,3.3929548E-4,-1.2419206E-2,-1.8449755E-3,-3.7247937E-3,1.6427299E-2,-0E0],"split_indices":[43,4,39,39,3,3,3,42,35,33,39,3,38,41,33,0,0,0,0,0,0,0,0,0,0,0,0,0,0,0,0],"split_type":[0,0,0,0,0,0,0,0,0,0,0,0,0,0,0,0,0,0,0,0,0,0,0,0,0,0,0,0,0,0,0],"sum_hessian":[1.1623796E4,8.561785E3,3.0620105E3,6.4702437E3,2.0915417E3,4.0539618E2,2.6566145E3,4.154241E2,6.0548193E3,1.2845275E3,8.0701434E2,3.9503845E2,1.035774E1,2.6329666E3,2.3647945E1,3.5888873E2,5.653535E1,1.524884E2,5.902331E3,3.2716194E1,1.2518113E3,7.8303375E2,2.3980646E1,3.3069373E2,6.434471E1,4.1668367E0,6.1909037E0,1.9029381E3,7.300283E2,1.065563E1,1.2992315E1],"tree_param":{"num_deleted":"0","num_feature":"45","num_nodes":"31","size_leaf_vector":"1"}},{"base_weights":[1.8886072E-4,1.7230164E-1,-2.1685502E-3,-6.7728567E-3,1.8334514E-1,1.5852384E-2,-2.2859156E-2,2.1236505E-1,5.4692976E-2,2.8380802E-2,-4.8395884E-3,5.1406153E-2,-2.8459528E-2,9.000078E-3,1.8786682E-2,-5.9984336E-3,6.9860355E-3,1.1895794E-3,5.5875736E-3,-1.2725492E-2,-1.2454505E-4,-8.703884E-4,6.03496E-3,-3.209306E-4,-2.0862725E-3],"categories":[],"categories_nodes":[],