{"learner":{"attributes":{"scikit_learn":"{\"_estimator_type\": \"regressor\"}"},"feature_names":[],"feature_types":[],"gradient_booster":{"model":{"gbtree_model_param":{"num_parallel_tree":"1","num_trees":"600"},"iteration_indptr":[0,1,2,3,4,5,6,7,8,9,10,11,12,13,14,15,16,17,18,19,20,21,22,23,24,25,26,27,28,29,30,31,32,33,34,35,36,37,38,39,40,41,42,43,44,45,46,47,48,49,50,51,52,53,54,55,56,57,58,59,60,61,62,63,64,65,66,67,68,69,70,71,72,73,74,75,76,77,78,79,80,81,82,83,84,85,86,87,88,89,90,91,92,93,94,95,96,97,98,99,100,101,102,103,104,105,106,107,108,109,110,111,112,113,114,115,116,117,118,119,120,121,122,123,124,125,126,127,128,129,130,131,132,133,134,135,136,137,138,139,140,141,142,143,144,145,146,147,148,149,150,151,152,153,154,155,156,157,158,159,160,161,162,163,164,165,166,167,168,169,170,171,172,173,174,175,176,177,178,179,180,181,182,183,184,185,186,187,188,189,190,191,192,193,194,195,196,197,198,199,200,201,202,203,204,205,206,207,208,209,210,211,212,213,214,215,216,217,218,219,220,221,222,223,224,225,226,227,228,229,230,231,232,233,234,235,236,237,238,239,240,241,242,243,244,245,246,247,248,249,250,251,252,253,254,255,256,257,258,259,260,261,262,263,264,265,266,267,268,269,270,271,272,273,274,275,276,277,278,279,280,281,282,283,284,285,286,287,288,289,290,291,292,293,294,295,296,297,298,299,300,301,302,303,304,305,306,307,308,309,310,311,312,313,314,315,316,317,318,319,320,321,322,323,324,325,326,327,328,329,330,331,332,333,334,335,336,337,338,339,340,341,342,343,344,345,346,347,348,349,350,351,352,353,354,355,356,357,358,359,360,361,362,363,364,365,366,367,368,369,370,371,372,373,374,375,376,377,378,379,380,381,382,383,384,385,386,387,388,389,390,391,392,393,394,395,396,397,398,399,400,401,402,403,404,405,406,407,408,409,410,411,412,413,414,415,416,417,418,419,420,421,422,423,424,425,426,427,428,429,430,431,432,433,434,435,436,437,438,439,440,441,442,443,444,445,446,447,448,449,450,451,452,453,454,455,456,457,458,459,460,461,462,463,464,465,466,467,468,469,470,471,472,473,474,475,476,477,478,479,480,481,482,483,484,485,486,487,488,489,490,491,492,493,494,495,496,497,498,499,500,501,502,503,504,505,506,507,508,509,510,511,512,513,514,515,516,517,518,519,520,521,522,523,524,525,526,527,528,529,530,531,532,533,534,535,536,537,538,539,540,541,542,543,544,545,546,547,548,549,550,551,552,553,554,555,556,557,558,559,560,561,562,563,564,565,566,567,568,569,570,571,572,573,574,575,576,577,578,579,580,581,582,583,584,585,586,587,588,589,590,591,592,593,594,595,596,597,598,599,600],"tree_info":[0,0,0,0,0,0,0,0,0,0,0,0,0,0,0,0,0,0,0,0,0,0,0,0,0,0,0,0,0,0,0,0,0,0,0,0,0,0,0,0,0,0,0,0,0,0,0,0,0,0,0,0,0,0,0,0,0,0,0,0,0,0,0,0,0,0,0,0,0,0,0,0,0,0,0,0,0,0,0,0,0,0,0,0,0,0,0,0,0,0,0,0,0,0,0,0,0,0,0,0,0,0,0,0,0,0,0,0,0,0,0,0,0,0,0,0,0,0,0,0,0,0,0,0,0,0,0,0,0,0,0,0,0,0,0,0,0,0,0,0,0,0,0,0,0,0,0,0,0,0,0,0,0,0,0,0,0,0,0,0,0,0,0,0,0,0,0,0,0,0,0,0,0,0,0,0,0,0,0,0,0,0,0,0,0,0,0,0,0,0,0,0,0,0,0,0,0,0,0,0,0,0,0,0,0,0,0,0,0,0,0,0,0,0,0,0,0,0,0,0,0,0,0,0,0,0,0,0,0,0,0,0,0,0,0,0,0,0,0,0,0,0,0,0,0,0,0,0,0,0,0,0,0,0,0,0,0,0,0,0,0,0,0,0,0,0,0,0,0,0,0,0,0,0,0,0,0,0,0,0,0,0,0,0,0,0,0,0,0,0,0,0,0,0,0,0,0,0,0,0,0,0,0,0,0,0,0,0,0,0,0,0,0,0,0,0,0,0,0,0,0,0,0,0,0,0,0,0,0,0,0,0,0,0,0,0,0,0,0,0,0,0,0,0,0,0,0,0,0,0,0,0,0,0,0,0,0,0,0,0,0,0,0,0,0,0,0,0,0,0,0,0,0,0,0,0,0,0,0,0,0,0,0,0,0,0,0,0,0,0,0,0,0,0,0,0,0,0,0,0,0,0,0,0,0,0,0,0,0,0,0,0,0,0,0,0,0,0,0,0,0,0,0,0,0,0,0,0,0,0,0,0,0,0,0,0,0,0,0,0,0,0,0,0,0,0,0,0,0,0,0,0,0,0,0,0,0,0,0,0,0,0,0,0,0,0,0,0,0,0,0,0,0,0,0,0,0,0,0,0,0,0,0,0,0,0,0,0,0,0,0,0,0,0,0,0,0,0,0,0,0,0,0,0,0,0,0,0,0,0,0,0,0,0,0,0,0,0,0,0,0,0,0,0,0,0,0,0,0,0,0,0,0,0,0,0,0,0,0,0,0,0,0,0,0,0,0,0,0,0,0,0,0,0,0,0,0,0,0,0,0,0,0,0,0,0,0,0,0,0,0,0,0,0,0,0,0,0,0,0,0,0,0,0,0,0,0,0,0,0,0,0,0,0,0,0,0,0,0,0],"trees":[{"base_weights":[-1.2427325E-4,-1.5609832E-3,1.1710456E-2,-2.750251E-3,7.8748976E-4,3.2295488E-2,9.357415E-3,1.4878556E-2,-2.8587228E-3,-2.0302695E-4,5.539712E-3,2.9214082E-2,9.162241E-2,8.849767E-3,4.481558E-2,5.6873406E-3,2.618918E-2,-2.3342292E-3,-4.2126207E-3,2.6582925E-2,-3.7730925E-4,5.1019317E-3,4.8905168E-2,2.690194E-2,3.9893766E-3,8.341478E-3,1.231145E-2,4.569772E-3,1.2135979E-2,9.038386E-2,8.43623E-3,3.947895E-3,9.596215E-3,9.149578E-3,3.162121E-2,-2.8112442E-3,-6.7216845E-4,-1.2365339E-3,-4.4483673E-3,5.1179826E-3,3.3883408E-2,9.2048326E-4,-1.5384245E-3,8.0493E-3,1.6080758E-3,4.475956E-3,9.18424E-2,3.8784046E-3,2.497281E-2,7.3201954E-4,1.3311573E-4,3.3470973E-2,4.1467086E-3,1.140539E-2,2.971071E-2,7.970617E-3,3.0889995E-2,9.994106E-4,3.049708E-3,2.6873717E-4,8.826571E-5,5.3701726E-5,5.4187863E-4,5.2059506E-4,7.0949216E-5,1.7265124E-3,4.7223284E-4,-1.268878E-4,-2.4756126E-4,1.3955927E-5,-1.5014743E-4,1.170414E-3,-8.742455E-5,-2.262871E-4,1.5213525E-4,3.8720842E-4,-4.4796307E-6,2.0044004E-3,4.1749535E-4,-9.006868E-6,2.0846247E-4,-8.8872584E-5,2.4759848E-4,1.3625171E-3,3.3922784E-4,2.745552E-5,4.611353E-4,-2.3175335E-5,3.138473E-4,5.866419E-3,1.0217609E-3,3.937416E-4,1.4384759E-3,-4.901038E-5,2.3723745E-3,1.9323453E-4,1.8687601E-3,6.587969E-4,1.6443302E-4,2.267251E-3,7.093839E-4,2.0868566E-3,4.8730965E-4,3.6960468E-4,-5.17071E-5],"categories":[],"categories_nodes":[],"categories_segments":[],"categories_sizes":[],"default_left":[0,0,0,0,0,0,0,0,0,0,0,0,0,0,0,0,0,0,0,0,0,0,0,0,0,0,0,0,0,0,0,0,0,0,0,0,0,0,0,0,0,0,0,0,0,0,0,0,0,0,0,0,0,0,0,0,0,0,0,0,0,0,0,0,0,0,0,0,0,0,0,0,0,0,0,0,0,0,0,0,0,0,0,0,0,0,0,0,0,0,0,0,0,0,0,0,0,0,0,0,0,0,0,0,0],"id":0,"left_children":[1,3,5,7,9,11,13,15,17,19,21,23,25,27,29,31,33,35,37,39,41,43,45,47,-1,-1,49,51,53,55,57,59,61,63,65,67,69,71,73,75,77,79,81,83,85,87,89,-1,91,-1,-1,93,95,97,99,-1,101,-1,103,-1,-1,-1,-1,-1,-1,-1,-1,-1,-1,-1,-1,-1,-1,-1,-1,-1,-1,-1,-1,-1,-1,-1,-1,-1,-1,-1,-1,-1,-1,-1,-1,-1,-1,-1,-1,-1,-1,-1,-1,-1,-1,-1,-1,-1,-1],"loss_changes":[2.0119864E-1,2.9473515E-2,6.174612E-2,1.3437677E-2,1.6702112E-2,2.1271482E-2,2.0321697E-2,4.321264E-3,4.9346723E-3,1.3720879E-2,1.1369022E-2,1.2587115E-2,3.373459E-2,1.5922353E-2,2.576141E-2,1.3209687E-4,1.4693113E-3,3.9788987E-3,1.3577156E-3,2.8039692E-3,4.400018E-3,6.2377453E-3,1.1034922E-2,9.987399E-3,0E0,0E0,5.0911738E-5,5.9135966E-3,7.904358E-3,2.3823146E-2,5.6129193E-4,4.9681927E-5,6.241363E-5,4.37767E-5,5.7704654E-4,2.2705328E-3,2.4863651E-3,1.85779E-3,1.0570884E-3,8.275019E-5,1.8832199E-3,4.931585E-3,2.399478E-3,7.8046806E-3,2.2446883E-3,3.849309E-5,3.0620154E-3,0E0,7.4984506E-3,0E0,0E0,3.4170607E-3,4.4379896E-3,8.83799E-3,5.4239556E-3,0E0,7.399698E-4,0E0,1.4951368E-4,0E0,0E0,0E0,0E0,0E0,0E0,0E0,0E0,0E0,0E0,0E0,0E0,0E0,0E0,0E0,0E0,0E0,0E0,0E0,0E0,0E0,0E0,0E0,0E0,0E0,0E0,0E0,0E0,0E0,0E0,0E0,0E0,0E0,0E0,0E0,0E0,0E0,0E0,0E0,0E0,0E0,0E0,0E0,0E0,0E0,0E0],"parents":[2147483647,0,0,1,1,2,2,3,3,4,4,5,5,6,6,7,7,8,8,9,9,10,10,11,11,12,12,13,13,14,14,15,15,16,16,17,17,18,18,19,19,20,20,21,21,22,22,23,23,26,26,27,27,28,28,29,29,30,30,31,31,32,32,33,33,34,34,35,35,36,36,37,37,38,38,39,39,40,40,41,41,42,42,43,43,44,44,45,45,46,46,48,48,51,51,52,52,53,53,54,54,56,56,58,58],"right_children":[2,4,6,8,10,12,14,16,18,20,22,24,26,28,30,32,34,36,38,40,42,44,46,48,-1,-1,50,52,54,56,58,60,62,64,66,68,70,72,74,76,78,80,82,84,86,88,90,-1,92,-1,-1,94,96,98,100,-1,102,-1,104,-1,-1,-1,-1,-1,-1,-1,-1,-1,-1,-1,-1,-1,-1,-1,-1,-1,-1,-1,-1,-1,-1,-1,-1,-1,-1,-1,-1,-1,-1,-1,-1,-1,-1,-1,-1,-1,-1,-1,-1,-1,-1,-1,-1,-1,-1],"split_conditions":[1.0159911E0,-1.1509594E-1,-2.7690086E0,-1.1207683E0,8.5974795E-1,4.309765E0,1.8900757E0,6.6394013E-1,1.9732001E0,-1.1655327E0,1.4194244E0,4.309765E0,-3.6333344E0,1.0228949E0,-5.704257E-1,-1.1461271E0,2.4654198E-1,8.35224E-1,-8.4744465E-1,7.2205967E-1,-3.7721452E-1,-1.319236E-1,1.5784053E0,-1.1655327E0,3.9893766E-3,8.341478E-3,-3.1197517E0,-3.3700893E0,2.3504663E0,3.093353E0,-1.786301E-1,2.0053935E-1,1.6538993E-1,2.9102182E-1,-2.5722393E-1,4.309765E0,2.3504663E0,-2.1719522E0,3.9814746E-1,1.0092906E0,4.3805596E-1,-7.5442296E-1,5.7529798E0,-1.5739306E0,5.7529798E0,1.3302482E0,1.53638E0,3.8784046E-3,8.3503777E-1,7.3201954E-4,1.3311573E-4,-6.121284E-1,3.7780733E0,5.1338875E-1,-3.394883E-1,7.970617E-3,-9.809734E-1,9.994106E-4,-1.02502756E-1,2.6873717E-4,8.826571E-5,5.3701726E-5,5.4187863E-4,5.2059506E-4,7.0949216E-5,1.7265124E-3,4.7223284E-4,-1.268878E-4,-2.4756126E-4,1.3955927E-5,-1.5014743E-4,1.170414E-3,-8.742455E-5,-2.262871E-4,1.5213525E-4,3.8720842E-4,-4.4796307E-6,2.0044004E-3,4.1749535E-4,-9.006868E-6,2.0846247E-4,-8.8872584E-5,2.4759848E-4,1.3625171E-3,3.3922784E-4,2.745552E-5,4.611353E-4,-2.3175335E-5,3.138473E-4,5.866419E-3,1.0217609E-3,3.937416E-4,1.4384759E-3,-4.901038E-5,2.3723745E-3,1.9323453E-4,1.8687601E-3,6.587969E-4,1.6443302E-4,2.267251E-3,7.093839E-4,2.0868566E-3,4.8730965E-4,3.6960468E-4,-5.17071E-5],"split_indices":[8,8,2,7,4,28,9,9,44,6,17,40,2,4,6,7,13,9,7,9,6,11,3,6,0,0,2,15,48,2,6,3,3,4,8,31,48,9,6,3,4,7,45,3,45,2,2,0,4,0,0,4,18,7,9,0,7,0,17,0,0,0,0,0,0,0,0,0,0,0,0,0,0,0,0,0,0,0,0,0,0,0,0,0,0,0,0,0,0,0,0,0,0,0,0,0,0,0,0,0,0,0,0,0,0],"split_type":[0,0,0,0,0,0,0,0,0,0,0,0,0,0,0,0,0,0,0,0,0,0,0,0,0,0,0,0,0,0,0,0,0,0,0,0,0,0,0,0,0,0,0,0,0,0,0,0,0,0,0,0,0,0,0,0,0,0,0,0,0,0,0,0,0,0,0,0,0,0,0,0,0,0,0,0,0,0,0,0,0,0,0,0,0,0,0,0,0,0,0,0,0,0,0,0,0,0,0,0,0,0,0,0,0],"sum_hessian":[1.1831E4,1.0551E4,1.28E3,7.004E3,3.547E3,1.3E2,1.15E3,4.2E1,6.962E3,2.936E3,6.11E2,1.25E2,5E0,1.135E3,1.5E1,2.4E1,1.8E1,5.02E3,1.942E3,1.8E1,2.918E3,6.06E2,5E0,1.21E2,4E0,2E0,3E0,4.94E2,6.41E2,6E0,9E0,1.8E1,6E0,5E0,1.3E1,3.9E3,1.12E3,1.43E2,1.799E3,5E0,1.3E1,1.378E3,1.54E3,3.28E2,2.78E2,3E0,2E0,3E0,1.18E2,2E0,1E0,6E0,4.88E2,6.17E2,2.4E1,2E0,4E0,2E0,7E0,1E1,8E0,1E0,5E0,4E0,1E0,1.1E1,2E0,3.46E3,4.4E2,7.96E2,3.24E2,2E0,1.41E2,1.781E3,1.8E1,3E0,2E0,1E1,3E0,1.03E3,3.48E2,1.486E3,5.4E1,1.9E1,3.09E2,2.45E2,3.3E1,1E0,2E0,1E0,1E0,2.2E1,9.6E1,2E0,4E0,4.85E2,3E0,5.06E2,1.11E2,1.1E1,1.3E1,2E0,2E0,3E0,4E0],"tree_param":{"num_deleted":"0","num_feature":"50","num_nodes":"105","size_leaf_vector":"1"}},{"base_weights":[1.1129879E-4,-1.5337107E-3,1.1412485E-2,-2.0959743E-3,3.6507177E-3,2.5630299E-2,7.7418867E-3,1.3924038E-2,-2.2218358E-3,2.9798085E-3,2.9030656E-2,7.840901E-3,3.337152E-2,2.8905782E-3,1.036E-2,1.8259156E-2,7.799068E-3,-2.6172542E-3,1.0455435E-3,3.081169E-2,2.5485693E-3,8.084777E-3,1.725624E-2,2.6647027E-3,1.2446185E-2,3.8542468E-2,-2.539526E-3,2.5183495E-2,1.8349941E-3,8.219952E-3,2.1281982E-2,1.5755935E-2,3.810078E-2,3.27992E-3,1.0718489E-2,-3.6014828E-3,-1.8372755E-3,-2.6987412E-4,4.5066415E-3,4.803104E-2,9.740881E-3,1.819412E-3,1.240313E-2,9.37692E-3,1.8088894E-3,1.2993772E-3,1.1550309E-2,1.6949391E-2,1.8175319E-3,4.8284642E-2,1.8446334E-2,-2.190005E-5,-3.2251559E-3,3.2763646E-3,5.4896254E-2,1.318715E-3,1.0329934E-2,6.211049E-3,1.4371064E-2,7.2025254E-2,1.4863668E-2,9.7489957E-4,3.8404902E-4,5.607886E-4,2.1661927E-3,2.9427485E-4,1.01713136E-4,6.689644E-4,1.3617716E-4,-1.9818397E-4,-1.0630861E-4,-1.11919035E-4,-2.0472164E-5,-5.5956898E-5,1.24901E-4,5.1523367E-4,1.0226921E-4,9.2553237E-4,3.1020574E-3,1.188752E-4,8.2549406E-4,5.147899E-4,5.9876533E-5,1.8960445E-3,5.3072354E-4,2.4120543E-4,7.517011E-4,1.5764321E-4,-1.467638E-4,1.4726135E-4,9.586825E-4,4.066942E-4,1.4795831E-3,3.9869716E-4,1.8423865E-5,4.2011887E-3,1.9744148E-3,2.8329312E-3,5.083718E-4,1.02873E-4,-6.32568E-5,-9.8944176E-5,-1.837412E-4,-1.04273924E-4,4.492894E-4,3.6271035E-3,6.529361E-5,5.9063164E-5,1.3421961E-3,2.3060913E-4,1.0237097E-3,2.2597812E-4,6.4151554E-4,1.0489839E-3,3.914487E-4,1.6332469E-4,7.0158686E-3,2.3630548E-3,5.81832E-4],"categories":[],"categories_nodes":[],"categories_segments":[],"categories_sizes":[],"default_left":[0,0,0,0,0,0,0,0,0,0,0,0,0,0,0,0,0,0,0,0,0,0,0,0,0,0,0,0,0,0,0,0,0,0,0,0,0,0,0,0,0,0,0,0,0,0,0,0,0,0,0,0,0,0,0,0,0,0,0,0,0,0,0,0,0,0,0,0,0,0,0,0,0,0,0,0,0,0,0,0,0,0,0,0,0,0,0,0,0,0,0,0,0,0,0,0,0,0,0,0,0,0,0,0,0,0,0,0,0,0,0,0,0,0,0,0,0,0,0],"id":1,"left_children":[1,3,5,7,9,11,13,15,17,19,21,23,25,27,29,31,33,35,37,39,41,-1,43,45,47,49,51,53,55,57,59,61,63,65,67,69,71,73,75,77,79,81,83,85,-1,87,89,91,93,95,97,99,101,103,105,107,109,111,113,115,117,-1,-1,-1,-1,-1,-1,-1,-1,-1,-1,-1,-1,-1,-1,-1,-1,-1,-1,-1,-1,-1,-1,-1,-1,-1,-1,-1,-1,-1,-1,-1,-1,-1,-1,-1,-1,-1,-1,-1,-1,-1,-1,-1,-1,-1,-1,-1,-1,-1,-1,-1,-1,-1,-1,-1,-1,-1,-1],"loss_changes":[2.2063167E-1,3.0207206E-2,7.85009E-2,1.8877309E-2,1.7179517E-2,4.229124E-2,1.5211582E-2,1.7959261E-3,1.1985868E-2,1.1791642E-2,3.782308E-2,2.2314317E-3,4.002212E-2,9.884315E-3,1.8033072E-2,1.4857417E-3,3.8702984E-4,6.3451454E-3,4.563111E-3,4.974519E-3,6.983321E-3,0E0,3.3879871E-3,5.43052E-4,2.3623453E-3,3.591594E-2,4.826185E-5,1.2187644E-2,1.7582246E-3,7.979855E-3,4.029158E-2,1.028697E-3,7.577939E-5,3.346654E-5,3.677467E-4,1.9457005E-3,2.6438627E-3,1.7117342E-3,3.9175656E-3,2.1602474E-3,3.594893E-4,4.7792876E-3,2.6555415E-3,4.168331E-4,0E0,3.3105834E-4,3.3712614E-4,3.659985E-3,1.397974E-4,3.629315E-2,1.9354332E-2,2.069891E-5,5.0569506E-6,3.86096E-4,7.4704364E-3,1.3085316E-3,1.2396232E-3,5.473029E-3,6.75321E-3,6.528119E-2,1.1368442E-2,0E0,0E0,0E0,0E0,0E0,0E0,0E0,0E0,0E0,0E0,0E0,0E0,0E0,0E0,0E0,0E0,0E0,0E0,0E0,0E0,0E0,0E0,0E0,0E0,0E0,0E0,0E0,0E0,0E0,0E0,0E0,0E0,0E0,0E0,0E0,0E0,0E0,0E0,0E0,0E0,0E0,0E0,0E0,0E0,0E0,0E0,0E0,0E0,0E0,0E0,0E0,0E0,0E0,0E0,0E0,0E0,0E0,0E0],"parents":[2147483647,0,0,1,1,2,2,3,3,4,4,5,5,6,6,7,7,8,8,9,9,10,10,11,11,12,12,13,13,14,14,15,15,16,16,17,17,18,18,19,19,20,20,22,22,23,23,24,24,25,25,26,26,27,27,28,28,29,29,30,30,31,31,32,32,33,33,34,34,35,35,36,36,37,37,38,38,39,39,40,40,41,41,42,42,43,43,45,45,46,46,47,47,48,48,49,49,50,50,51,51,52,52,53,53,54,54,55,55,56,56,57,57,58,58,59,59,60,60],"right_children":[2,4,6,8,10,12,14,16,18,20,22,24,26,28,30,32,34,36,38,40,42,-1,44,46,48,50,52,54,56,58,60,62,64,66,68,70,72,74,76,78,80,82,84,86,-1,88,90,92,94,96,98,100,102,104,106,108,110,112,114,116,118,-1,-1,-1,-1,-1,-1,-1,-1,-1,-1,-1,-1,-1,-1,-1,-1,-1,-1,-1,-1,-1,-1,-1,-1,-1,-1,-1,-1,-1,-1,-1,-1,-1,-1,-1,-1,-1,-1,-1,-1,-1,-1,-1,-1,-1,-1,-1,-1,-1,-1,-1,-1,-1,-1,-1,-1,-1,-1],"split_conditions":[1.0128226E0,4.0723807E-1,-1.8289355E0,-1.1273056E0,2.9660597E0,1.5045325E0,8.3503777E-1,5.2863413E-1,2.9642937E0,-1.1655327E0,1.4674923E0,1.192919E0,1.3447855E0,-1.7972435E0,1.7883569E0,2.7953884E-1,4.9758813E-1,-5.2120316E-1,8.35224E-1,4.3805596E-1,5.7529798E0,8.084777E-3,2.0385015E0,5.7529798E0,7.684435E-1,5.7529798E0,-1.834458E0,6.5252984E-1,1.663018E0,2.7941062E0,1.0760565E0,7.339638E-2,-8.512225E-1,-2.7781788E-1,5.224415E-1,4.0838826E-1,5.843226E-1,8.152604E-2,-6.0091776E-1,7.38821E-1,1.7307475E0,-1.4734447E0,-3.0481472E0,2.7496643E0,1.8088894E-3,-8.1374854E-1,-2.131727E0,2.7130413E-1,-2.050732E0,-3.7906199E0,-7.4667597E-1,-1.9202615E0,-6.47503E-1,5.666454E-1,9.973608E-1,4.7669625E0,-1.4714362E-1,1.8908441E0,-2.5246364E-1,8.976646E-1,1.0897658E0,9.7489957E-4,3.8404902E-4,5.607886E-4,2.1661927E-3,2.9427485E-4,1.01713136E-4,6.689644E-4,1.3617716E-4,-1.9818397E-4,-1.0630861E-4,-1.11919035E-4,-2.0472164E-5,-5.5956898E-5,1.24901E-4,5.1523367E-4,1.0226921E-4,9.2553237E-4,3.1020574E-3,1.188752E-4,8.2549406E-4,5.147899E-4,5.9876533E-5,1.8960445E-3,5.3072354E-4,2.4120543E-4,7.517011E-4,1.5764321E-4,-1.467638E-4,1.4726135E-4,9.586825E-4,4.066942E-4,1.4795831E-3,3.9869716E-4,1.8423865E-5,4.2011887E-3,1.9744148E-3,2.8329312E-3,5.083718E-4,1.02873E-4,-6.32568E-5,-9.8944176E-5,-1.837412E-4,-1.04273924E-4,4.492894E-4,3.6271035E-3,6.529361E-5,5.9063164E-5,1.3421961E-3,2.3060913E-4,1.0237097E-3,2.2597812E-4,6.4151554E-4,1.0489839E-3,3.914487E-4,1.6332469E-4,7.0158686E-3,2.3630548E-3,5.81832E-4],"split_indices":[5,5,15,11,15,5,4,16,46,6,13,5,6,16,3,4,4,5,9,4,45,0,6,45,6,45,10,9,11,5,8,8,0,2,1,11,3,8,6,1,14,9,3,8,0,0,1,6,10,1,6,0,0,15,2,5,14,0,15,2,5,0,0,0,0,0,0,0,0,0,0,0,0,0,0,0,0,0,0,0,0,0,0,0,0,0,0,0,0,0,0,0,0,0,0,0,0,0,0,0,0,0,0,0,0,0,0,0,0,0,0,0,0,0,0,0,0,0,0],"split_type":[0,0,0,0,0,0,0,0,0,0,0,0,0,0,0,0,0,0,0,0,0,0,0,0,0,0,0,0,0,0,0,0,0,0,0,0,0,0,0,0,0,0,0,0,0,0,0,0,0,0,0,0,0,0,0,0,0,0,0,0,0,0,0,0,0,0,0,0,0,0,0,0,0,0,0,0,0,0,0,0,0,0,0,0,0,0,0,0,0,0,0,0,0,0,0,0,0,0,0,0,0,0,0,0,0,0,0,0,0,0,0,0,0,0,0,0,0,0,0],"sum_hessian":[1.1866E4,1.0359E4,1.507E3,9.346E3,1.013E3,3.08E2,1.199E3,7.2E1,9.274E3,9.88E2,2.5E1,9.4E1,2.14E2,4.21E2,7.78E2,4.1E1,3.1E1,8.273E3,1.001E3,1.4E1,9.74E2,1E0,2.4E1,4.5E1,4.9E1,1.87E2,2.7E1,1.8E1,4.03E2,6.52E2,1.26E2,3.8E1,3E0,1.3E1,1.8E1,3.656E3,4.617E3,7.26E2,2.75E2,7E0,7E0,9.08E2,6.6E1,1.8E1,6E0,4E1,5E0,3.4E1,1.5E1,1.25E2,6.2E1,6E0,2.1E1,1.1E1,7E0,3.81E2,2.2E1,4.93E2,1.59E2,1.3E1,1.13E2,2.5E1,1.3E1,1E0,2E0,3E0,1E1,1.3E1,5E0,2.934E3,7.22E2,3.604E3,1.013E3,5.56E2,1.7E2,8.1E1,1.94E2,3E0,4E0,4E0,3E0,6.1E1,8.47E2,3E0,6.3E1,1.1E1,7E0,2.8E1,1.2E1,3E0,2E0,2.1E1,1.3E1,2E0,1.3E1,2.3E1,1.02E2,1E1,5.2E1,2E0,4E0,7E0,1.4E1,6E0,5E0,5E0,2E0,3.8E2,1E0,1.5E1,7E0,3.94E2,9.9E1,7.8E1,8.1E1,7E0,6E0,9E0,1.04E2],"tree_param":{"num_deleted":"0","num_feature":"50","num_nodes":"119","size_leaf_vector":"1"}},{"base_weights":[-9.056924E-6,-1.1170392E-3,1.3922782E-2,-1.961934E-3,3.8480149E-3,4.2139977E-2,1.0041781E-2,1.4202405E-2,-2.0835076E-3,2.636929E-3,1.2671422E-2,3.6195934E-2,1.2018569E-1,5.775525E-3,1.5919756E-2,1.8275872E-2,7.4394937E-3,-2.9040927E-3,-9.464544E-4,2.908622E-2,2.4068584E-3,2.6659597E-2,5.633324E-3,4.252979E-2,6.809501E-4,8.027916E-3,6.4180506E-4,5.239225E-3,2.1949973E-2,1.7840449E-2,-2.044032E-3,2.1768795E-2,1.0304498E-2,1.6078774E-3,9.691746E-3,-3.9719357E-3,-2.3235502E-3,-1.2676211E-3,3.1272308E-3,1.5428638E-4,1.8705096E-3,2.1567956E-2,2.097405E-3,8.77124E-3,1.03444874E-1,1.5762452E-3,1.4620918E-2,2.1338005E-2,4.925502E-2,-2.2584198E-3,1.0063665E-2,1.9182455E-2,4.6582315E-3,4.7950502E-4,1.2967456E-3,2.6967458E-2,1.4990105E-2,-2.974602E-3,5.213607E-3,1.2122755E-3,4.1169027E-4,2.3637623E-4,7.2967046E-4,8.755942E-5,1.15347675E-5,6.2805275E-4,1.2842967E-4,-2.0866453E-4,-1.2535711E-4,-1.17126634E-4,1.6014649E-3,-2.2140184E-5,-1.0040602E-4,7.695899E-5,5.372196E-4,2.2634775E-3,6.8929803E-4,4.286044E-4,6.441704E-5,2.1764894E-3,1.7039063E-4,2.5325266E-3,8.361342E-3,1.9984056E-5,5.474395E-4,5.400047E-4,1.723612E-3,3.0827706E-3,5.863539E-4,3.7282747E-3,1.9896026E-3,2.8396607E-5,-1.2706385E-4,7.2857377E-4,-8.64941E-5,6.9932044E-6,1.4778305E-3,1.6655657E-4,4.1658827E-4,3.358606E-3,1.2365689E-3,2.8763923E-3,7.0761814E-4,-2.7256328E-5,-1.6707565E-4,3.1349788E-4,5.111392E-5],"categories":[],"categories_nodes":[],"categories_segments":[],"categories_sizes":[],"default_left":[0,0,0,0,0,0,0,0,0,0,0,0,0,0,0,0,0,0,0,0,0,0,0,0,0,0,0,0,0,0,0,0,0,0,0,0,0,0,0,0,0,0,0,0,0,0,0,0,0,0,0,0,0,0,0,0,0,0,0,0,0,0,0,0,0,0,0,0,0,0,0,0,0,0,0,0,0,0,0,0,0,0,0,0,0,0,0,0,0,0,0,0,0,0,0,0,0,0,0,0,0,0,0,0,0,0,0],"id":2,"left_children":[1,3,5,7,9,11,13,15,17,19,21,23,25,27,29,31,33,35,37,39,41,43,45,47,49,-1,-1,51,53,55,57,59,61,63,65,67,69,71,73,-1,-1,75,77,79,81,83,85,87,89,91,93,95,97,-1,-1,99,101,103,105,-1,-1,-1,-1,-1,-1,-1,-1,-1,-1,-1,-1,-1,-1,-1,-1,-1,-1,-1,-1,-1,-1,-1,-1,-1,-1,-1,-1,-1,-1,-1,-1,-1,-1,-1,-1,-1,-1,-1,-1,-1,-1,-1,-1,-1,-1,-1,-1],"loss_changes":[1.8250269E-1,4.5950618E-2,9.496088E-2,1.8423483E-2,1.698923E-2,4.4359982E-2,1.9142076E-2,1.7924327E-3,8.666202E-3,8.461455E-3,1.8752245E-2,2.2240773E-2,2.827695E-2,3.75376E-3,1.1146404E-2,9.729499E-4,3.521765E-4,3.335908E-3,5.1012244E-3,2.4816906E-3,8.202648E-3,8.700067E-2,4.680729E-3,1.0920644E-2,4.6399632E-4,0E0,0E0,3.4183431E-3,4.408285E-4,7.1661547E-3,2.3162807E-4,7.7251345E-4,2.8979627E-4,1.3722947E-6,3.7650648E-4,5.4963306E-4,2.356099E-3,2.2052354E-3,3.4309481E-3,0E0,0E0,3.4337211E-3,7.16561E-3,9.732181E-3,3.1937808E-2,9.880898E-4,2.6616333E-3,7.801691E-3,1.2122154E-2,1.1836171E-5,2.3785915E-4,3.354229E-3,2.0051822E-3,0E0,0E0,4.452005E-3,7.1682334E-3,2.4029083E-5,1.1300399E-5,0E0,0E0,0E0,0E0,0E0,0E0,0E0,0E0,0E0,0E0,0E0,0E0,0E0,0E0,0E0,0E0,0E0,0E0,0E0,0E0,0E0,0E0,0E0,0E0,0E0,0E0,0E0,0E0,0E0,0E0,0E0,0E0,0E0,0E0,0E0,0E0,0E0,0E0,0E0,0E0,0E0,0E0,0E0,0E0,0E0,0E0,0E0,0E0],"parents":[2147483647,0,0,1,1,2,2,3,3,4,4,5,5,6,6,7,7,8,8,9,9,10,10,11,11,12,12,13,13,14,14,15,15,16,16,17,17,18,18,19,19,20,20,21,21,22,22,23,23,24,24,27,27,28,28,29,29,30,30,31,31,32,32,33,33,34,34,35,35,36,36,37,37,38,38,41,41,42,42,43,43,44,44,45,45,46,46,47,47,48,48,49,49,50,50,51,51,52,52,55,55,56,56,57,57,58,58],"right_children":[2,4,6,8,10,12,14,16,18,20,22,24,26,28,30,32,34,36,38,40,42,44,46,48,50,-1,-1,52,54,56,58,60,62,64,66,68,70,72,74,-1,-1,76,78,80,82,84,86,88,90,92,94,96,98,-1,-1,100,102,104,106,-1,-1,-1,-1,-1,-1,-1,-1,-1,-1,-1,-1,-1,-1,-1,-1,-1,-1,-1,-1,-1,-1,-1,-1,-1,-1,-1,-1,-1,-1,-1,-1,-1,-1,-1,-1,-1,-1,-1,-1,-1,-1,-1,-1,-1,-1,-1,-1],"split_conditions":[1.5045325E0,4.3020558E-1,-1.2838131E0,-1.1273056E0,1.7883569E0,4.309765E0,1.9586241E0,3.792652E-1,-3.2983667E-1,-3.0481472E0,-5.9362733E-1,1.3139399E0,-3.7906199E0,4.309765E0,1.2916975E0,2.8611854E-1,9.2407864E-1,-7.455036E-1,4.309765E0,-7.8299046E-1,-1.1655327E0,4.309765E0,1.6573027E0,-9.1831696E-1,-1.656137E0,8.027916E-3,6.4180506E-4,-1.9376758E0,-3.7835714E-1,-8.8135624E-1,1.2092346E0,1.1426432E0,2.3269801E-1,1.365695E-1,5.224415E-1,4.6260884E-1,1.3302482E0,-1.795091E-1,1.1895708E0,1.5428638E-4,1.8705096E-3,5.8871955E-1,-1.4327321E0,4.6251932E-1,1.4827772E0,4.309765E0,3.217142E0,-1.1719204E0,-8.317465E-1,8.3246666E-1,-1.9202615E0,-8.080254E-1,1.0923694E0,4.7950502E-4,1.2967456E-3,-1.1821743E0,-1.7972435E0,-1.70043E0,-2.131727E0,1.2122755E-3,4.1169027E-4,2.3637623E-4,7.2967046E-4,8.755942E-5,1.15347675E-5,6.2805275E-4,1.2842967E-4,-2.0866453E-4,-1.2535711E-4,-1.17126634E-4,1.6014649E-3,-2.2140184E-5,-1.0040602E-4,7.695899E-5,5.372196E-4,2.2634775E-3,6.8929803E-4,4.286044E-4,6.441704E-5,2.1764894E-3,1.7039063E-4,2.5325266E-3,8.361342E-3,1.9984056E-5,5.474395E-4,5.400047E-4,1.723612E-3,3.0827706E-3,5.863539E-4,3.7282747E-3,1.9896026E-3,2.8396607E-5,-1.2706385E-4,7.2857377E-4,-8.64941E-5,6.9932044E-6,1.4778305E-3,1.6655657E-4,4.1658827E-4,3.358606E-3,1.2365689E-3,2.8763923E-3,7.0761814E-4,-2.7256328E-5,-1.6707565E-4,3.1349788E-4,5.111392E-5],"split_indices":[5,5,9,11,3,28,8,16,8,3,6,6,1,24,6,8,21,5,43,6,6,39,6,11,3,0,0,3,1,9,7,0,14,10,1,7,2,11,2,0,0,5,9,10,9,34,8,7,11,7,0,10,22,0,0,6,16,16,1,0,0,0,0,0,0,0,0,0,0,0,0,0,0,0,0,0,0,0,0,0,0,0,0,0,0,0,0,0,0,0,0,0,0,0,0,0,0,0,0,0,0,0,0,0,0,0,0],"split_type":[0,0,0,0,0,0,0,0,0,0,0,0,0,0,0,0,0,0,0,0,0,0,0,0,0,0,0,0,0,0,0,0,0,0,0,0,0,0,0,0,0,0,0,0,0,0,0,0,0,0,0,0,0,0,0,0,0,0,0,0,0,0,0,0,0,0,0,0,0,0,0,0,0,0,0,0,0,0,0,0,0,0,0,0,0,0,0,0,0,0,0,0,0,0,0,0,0,0,0,0,0,0,0,0,0,0,0],"sum_hessian":[1.1821E4,1.0951E4,8.7E2,9.359E3,1.592E3,1.04E2,7.66E2,6.9E1,9.29E3,1.401E3,1.91E2,9.8E1,6E0,4.45E2,3.21E2,4.2E1,2.7E1,5.395E3,3.895E3,1.1E1,1.39E3,6.3E1,1.28E2,8.3E1,1.5E1,4E0,2E0,4.32E2,1.3E1,2.9E2,3.1E1,2.8E1,1.4E1,8E0,1.9E1,1.898E3,3.497E3,3.611E3,2.84E2,3E0,8E0,2.1E1,1.369E3,5.2E1,1.1E1,8.9E1,3.9E1,2.1E1,6.2E1,1.2E1,3E0,1.6E1,4.16E2,4E0,9E0,6.7E1,2.23E2,2.8E1,3E0,2.3E1,5E0,7E0,7E0,7E0,1E0,1.3E1,6E0,1.667E3,2.31E2,3.496E3,1E0,1.709E3,1.902E3,2.36E2,4.8E1,4E0,1.7E1,1.51E2,1.218E3,6E0,4.6E1,7E0,4E0,8E1,9E0,3.4E1,5E0,3E0,1.8E1,1.5E1,4.7E1,1E0,1.1E1,2E0,1E0,6E0,1E1,3.07E2,1.09E2,2E0,6.5E1,3E0,2.2E2,4E0,2.4E1,2E0,1E0],"tree_param":{"num_deleted":"0","num_feature":"50","num_nodes":"107","size_leaf_vector":"1"}},{"base_weights":[-1.9974088E-5,-1.3763305E-3,1.0911714E-2,-2.497566E-3,5.9807295E-4,2.9267423E-2,8.828265E-3,1.39971245E-2,-2.5859005E-3,-1.8857695E-4,4.716422E-3,2.4165971E-2,1.17641255E-1,3.0281956E-3,1.20781325E-2,4.8003765E-3,2.2927186E-2,-2.8508792E-3,-5.7453555E-5,1.50262015E-2,-4.0477293E-4,3.6677573E-2,3.9628013E-3,2.7950458E-2,-1.9660247E-3,7.7067986E-3,8.8014913E-4,1.8962584E-3,8.629288E-3,1.1549336E-2,5.0265644E-2,2.013296E-3,6.6443174E-3,2.660524E-2,3.402685E-3,-3.4174796E-3,-2.249811E-3,-9.91961E-4,3.6230674E-3,2.5213856E-2,6.611613E-3,7.698337E-4,-1.410456E-3,5.338334E-2,5.505994E-3,3.3918968E-3,2.6001945E-2,1.9753024E-2,4.672764E-2,-3.7168835E-3,4.6830194E-4,1.3885085E-3,7.758329E-3,2.659115E-3,7.2330693E-3,3.988567E-2,1.0991607E-2,7.313563E-3,7.980332E-3,6.283915E-5,1.553697E-4,3.5861446E-4,3.4115033E-5,4.459247E-4,1.5141859E-3,3.4508506E-5,2.0384E-4,-1.827071E-4,-1.07215186E-4,-1.2545017E-4,-3.707698E-5,3.4729397E-4,-6.742562E-5,6.109074E-4,1.3990591E-4,6.0538616E-4,1.8554609E-3,2.0340965E-4,7.205824E-4,-2.962621E-5,1.7189175E-4,3.7115258E-6,-1.1355466E-4,-9.679101E-5,3.0270107E-3,6.452299E-4,-7.097288E-5,2.775681E-4,3.3145418E-5,3.2561235E-3,-3.5282144E-6,5.868047E-4,2.6588093E-3,4.0334332E-4,2.6671623E-3,-2.704407E-5,-2.0048374E-4,-5.4263695E-5,8.0875114E-5,3.0506779E-5,2.9500452E-4,1.8496172E-3,1.3852767E-4,2.3243052E-4,1.4914555E-3,6.8317755E-4,3.2077928E-3,5.1467464E-4,1.4088277E-3,1.2886495E-4,6.3695194E-4],"categories":[],"categories_nodes":[],"categories_segments":[],"categories_sizes":[],"default_left":[0,0,0,0,0,0,0,0,0,0,0,0,0,0,0,0,0,0,0,0,0,0,0,0,0,0,0,0,0,0,0,0,0,0,0,0,0,0,0,0,0,0,0,0,0,0,0,0,0,0,0,0,0,0,0,0,0,0,0,0,0,0,0,0,0,0,0,0,0,0,0,0,0,0,0,0,0,0,0,0,0,0,0,0,0,0,0,0,0,0,0,0,0,0,0,0,0,0,0,0,0,0,0,0,0,0,0,0,0,0,0],"id":3,"left_children":[1,3,5,7,9,11,13,15,17,19,21,23,25,27,29,31,33,35,37,39,41,43,45,47,49,-1,-1,51,53,55,57,59,61,63,65,67,69,71,73,75,77,79,81,83,85,87,89,91,93,95,97,99,101,-1,103,105,107,-1,109,-1,-1,-1,-1,-1,-1,-1,-1,-1,-1,-1,-1,-1,-1,-1,-1,-1,-1,-1,-1,-1,-1,-1,-1,-1,-1,-1,-1,-1,-1,-1,-1,-1,-1,-1,-1,-1,-1,-1,-1,-1,-1,-1,-1,-1,-1,-1,-1,-1,-1,-1,-1],"loss_changes":[1.7583674E-1,2.3356782E-2,4.9801975E-2,9.84069E-3,1.2383018E-2,5.7118103E-2,2.2149228E-2,2.846531E-3,4.484717E-3,1.0564973E-2,1.4619737E-2,1.2614764E-2,2.2842817E-2,2.6718325E-3,1.4645301E-2,8.4268046E-5,1.2020906E-3,2.0557977E-3,2.1910993E-3,3.690916E-3,3.741025E-3,6.996503E-3,7.461151E-3,1.6162626E-2,7.419739E-5,0E0,0E0,1.0428965E-3,4.031937E-3,1.1335589E-2,3.9428987E-2,3.5439734E-6,2.973192E-5,7.0581865E-4,4.5005036E-6,9.313598E-4,1.1486523E-3,1.4471324E-3,8.8048715E-4,2.6687365E-3,4.5717845E-4,5.3124395E-3,2.1800548E-3,3.6804043E-3,3.2574957E-4,3.4497096E-3,1.530415E-2,2.054406E-2,8.009918E-3,7.130293E-6,1.6038392E-5,1.1447239E-3,3.980266E-3,0E0,3.9492333E-3,8.033222E-3,8.491799E-3,0E0,1.7285929E-4,0E0,0E0,0E0,0E0,0E0,0E0,0E0,0E0,0E0,0E0,0E0,0E0,0E0,0E0,0E0,0E0,0E0,0E0,0E0,0E0,0E0,0E0,0E0,0E0,0E0,0E0,0E0,0E0,0E0,0E0,0E0,0E0,0E0,0E0,0E0,0E0,0E0,0E0,0E0,0E0,0E0,0E0,0E0,0E0,0E0,0E0,0E0,0E0,0E0,0E0,0E0,0E0],"parents":[2147483647,0,0,1,1,2,2,3,3,4,4,5,5,6,6,7,7,8,8,9,9,10,10,11,11,12,12,13,13,14,14,15,15,16,16,17,17,18,18,19,19,20,20,21,21,22,22,23,23,24,24,27,27,28,28,29,29,30,30,31,31,32,32,33,33,34,34,35,35,36,36,37,37,38,38,39,39,40,40,41,41,42,42,43,43,44,44,45,45,46,46,47,47,48,48,49,49,50,50,51,51,52,52,54,54,55,55,56,56,58,58],"right_children":[2,4,6,8,10,12,14,16,18,20,22,24,26,28,30,32,34,36,38,40,42,44,46,48,50,-1,-1,52,54,56,58,60,62,64,66,68,70,72,74,76,78,80,82,84,86,88,90,92,94,96,98,100,102,-1,104,106,108,-1,110,-1,-1,-1,-1,-1,-1,-1,-1,-1,-1,-1,-1,-1,-1,-1,-1,-1,-1,-1,-1,-1,-1,-1,-1,-1,-1,-1,-1,-1,-1,-1,-1,-1,-1,-1,-1,-1,-1,-1,-1,-1,-1,-1,-1,-1,-1,-1,-1,-1,-1,-1,-1],"split_conditions":[1.0159911E0,-1.4977627E-1,-2.7690086E0,-1.1282794E0,8.907397E-1,4.309765E0,8.115153E-1,6.6394013E-1,2.9642937E0,-1.1300929E0,-1.7441413E0,1.3139399E0,-3.7906199E0,2.0488765E0,1.9832311E0,-6.795488E-1,1.2919716E0,-5.1390284E-1,8.6840034E-1,2.8611854E-1,-3.7721452E-1,1.5041096E0,1.8558868E0,1.5041096E0,-2.6238215E0,7.7067986E-3,8.8014913E-4,5.7529798E0,8.37268E-2,-3.3700893E0,1.5811507E0,5.307371E-1,3.786291E-1,-8.102535E-1,6.8553203E-1,-3.8041806E-1,1.0638294E0,-9.6298087E-1,3.4907597E-1,5.224415E-1,1.4073371E0,-8.076887E-1,1.0923694E0,-3.0491977E0,1.6535197E0,-6.1623055E-2,1.0570261E0,3.1926203E-1,8.115153E-1,1.4757771E0,1.7414094E0,5.037124E-1,-8.076887E-1,2.659115E-3,1.9499809E0,-1.4246362E0,2.3504663E0,7.313563E-3,3.7780733E0,6.283915E-5,1.553697E-4,3.5861446E-4,3.4115033E-5,4.459247E-4,1.5141859E-3,3.4508506E-5,2.0384E-4,-1.827071E-4,-1.07215186E-4,-1.2545017E-4,-3.707698E-5,3.4729397E-4,-6.742562E-5,6.109074E-4,1.3990591E-4,6.0538616E-4,1.8554609E-3,2.0340965E-4,7.205824E-4,-2.962621E-5,1.7189175E-4,3.7115258E-6,-1.1355466E-4,-9.679101E-5,3.0270107E-3,6.452299E-4,-7.097288E-5,2.775681E-4,3.3145418E-5,3.2561235E-3,-3.5282144E-6,5.868047E-4,2.6588093E-3,4.0334332E-4,2.6671623E-3,-2.704407E-5,-2.0048374E-4,-5.4263695E-5,8.0875114E-5,3.0506779E-5,2.9500452E-4,1.8496172E-3,1.3852767E-4,2.3243052E-4,1.4914555E-3,6.8317755E-4,3.2077928E-3,5.1467464E-4,1.4088277E-3,1.2886495E-4,6.3695194E-4],"split_indices":[8,8,2,12,4,28,4,9,46,6,3,6,1,15,9,8,1,4,9,8,6,49,3,49,13,0,0,45,3,15,14,0,13,14,0,8,9,15,15,1,9,6,22,0,4,6,4,6,4,6,8,14,6,0,6,10,48,0,1,0,0,0,0,0,0,0,0,0,0,0,0,0,0,0,0,0,0,0,0,0,0,0,0,0,0,0,0,0,0,0,0,0,0,0,0,0,0,0,0,0,0,0,0,0,0,0,0,0,0,0,0],"split_type":[0,0,0,0,0,0,0,0,0,0,0,0,0,0,0,0,0,0,0,0,0,0,0,0,0,0,0,0,0,0,0,0,0,0,0,0,0,0,0,0,0,0,0,0,0,0,0,0,0,0,0,0,0,0,0,0,0,0,0,0,0,0,0,0,0,0,0,0,0,0,0,0,0,0,0,0,0,0,0,0,0,0,0,0,0,0,0,0,0,0,0,0,0,0,0,0,0,0,0,0,0,0,0,0,0,0,0,0,0,0,0],"sum_hessian":[1.1857E4,1.0549E4,1.308E3,6.728E3,3.821E3,1.32E2,1.176E3,3.5E1,6.693E3,3.209E3,6.12E2,1.26E2,6E0,4.23E2,7.53E2,1.8E1,1.7E1,6.058E3,6.35E2,4.4E1,3.165E3,1.3E1,5.99E2,1.1E2,1.6E1,4E0,2E0,3.53E2,7E1,7.44E2,9E0,8E0,1E1,1.4E1,3E0,3.116E3,2.942E3,5.07E2,1.28E2,1.9E1,2.5E1,1.46E3,1.705E3,8E0,5E0,5.85E2,1.4E1,7.8E1,3.2E1,9E0,7E0,3.26E2,2.7E1,1E0,6.9E1,1.3E1,7.31E2,2E0,7E0,6E0,2E0,9E0,1E0,3E0,1.1E1,1E0,2E0,2.626E3,4.9E2,2.51E3,4.32E2,2.1E1,4.86E2,1E1,1.18E2,1E1,9E0,2E1,5E0,9.67E2,4.93E2,6.26E2,1.079E3,1E0,7E0,2E0,3E0,3.26E2,2.59E2,5E0,9E0,6.4E1,1.4E1,5E0,2.7E1,1E0,8E0,3E0,4E0,2.79E2,4.7E1,3E0,2.4E1,6.3E1,6E0,7E0,6E0,7.04E2,2.7E1,4E0,3E0],"tree_param":{"num_deleted":"0","num_feature":"50","num_nodes":"111","size_leaf_vector":"1"}},{"base_weights":[5.9090493E-5,-1.2680021E-3,1.0460395E-2,1.3246473E-2,-1.4062994E-3,3.0568112E-2,8.984643E-3,6.3723065E-3,2.0130882E-2,-1.8376416E-3,2.818908E-3,1.304256E-2,4.2334832E-2,3.6504306E-3,1.2273145E-2,1.0086901E-2,4.836079E-3,1.7586838E-2,2.2177324E-3,-2.6839848E-3,-7.254297E-4,2.3291213E-3,2.4655106E-2,6.004083E-3,2.9772995E-2,6.2078882E-2,5.666008E-3,2.6636536E-3,8.988369E-3,1.1738955E-2,4.8113573E-2,6.3833576E-3,1.0769387E-3,4.129118E-3,7.748414E-4,2.1439064E-2,3.3807552E-3,-2.9246772E-3,-2.6955566E-4,-1.0489916E-3,1.3571999E-3,1.8379433E-2,1.7809977E-3,6.522019E-2,4.081059E-3,2.640412E-3,1.40832085E-2,4.231436E-2,-2.7529912E-3,9.404367E-2,4.1312743E-2,1.9095E-2,-8.332239E-5,2.1531477E-3,8.736735E-3,3.536744E-3,6.2907594E-3,3.0276457E-2,1.0749779E-2,1.0810068E-1,1.2105826E-2,1.4694243E-4,4.2119427E-4,2.5593326E-4,-4.89126E-6,1.3566362E-3,6.3130964E-4,-3.1221218E-5,5.272963E-4,-1.6819648E-4,-1.12383066E-4,-1.9930028E-5,1.5579306E-3,-3.6878446E-5,-1.3998253E-4,2.820634E-4,2.1164222E-5,1.7098574E-3,1.6707403E-4,4.2446998E-5,2.4085534E-4,3.7091057E-4,5.335856E-3,8.068471E-4,-1.3882893E-5,3.567574E-4,3.949302E-5,1.5245975E-4,1.0046889E-3,2.2753582E-3,4.991192E-4,-1.7047963E-4,-1.9579684E-5,5.869109E-3,1.6612813E-3,8.238886E-4,2.6729773E-3,1.2033108E-3,3.0508553E-4,-1.7217352E-4,2.7654055E-4,2.0901694E-5,1.9523356E-4,1.7802565E-3,2.2931835E-4,2.018869E-4,1.3317427E-3,9.6449506E-4,3.1767131E-3,6.697805E-4,3.1777736E-4,7.0697786E-3,2.0540087E-4,1.3641211E-4,1.0400674E-3],"categories":[],"categories_nodes":[],"categories_segments":[],"categories_sizes":[],"default_left":[0,0,0,0,0,0,0,0,0,0,0,0,0,0,0,0,0,0,0,0,0,0,0,0,0,0,0,0,0,0,0,0,0,0,0,0,0,0,0,0,0,0,0,0,0,0,0,0,0,0,0,0,0,0,0,0,0,0,0,0,0,0,0,0,0,0,0,0,0,0,0,0,0,0,0,0,0,0,0,0,0,0,0,0,0,0,0,0,0,0,0,0,0,0,0,0,0,0,0,0,0,0,0,0,0,0,0,0,0,0,0,0,0,0,0],"id":4,"left_children":[1,3,5,7,9,11,13,15,17,19,21,23,25,27,29,31,33,35,-1,37,39,41,43,45,47,49,51,53,55,57,59,61,-1,63,-1,65,67,69,71,73,75,77,79,81,83,85,87,89,91,93,95,97,99,101,103,-1,105,107,109,111,113,-1,-1,-1,-1,-1,-1,-1,-1,-1,-1,-1,-1,-1,-1,-1,-1,-1,-1,-1,-1,-1,-1,-1,-1,-1,-1,-1,-1,-1,-1,-1,-1,-1,-1,-1,-1,-1,-1,-1,-1,-1,-1,-1,-1,-1,-1,-1,-1,-1,-1,-1,-1,-1,-1],"loss_changes":[1.6310154E-1,2.1053268E-2,3.9399505E-2,4.5568515E-3,1.8924657E-2,1.8213712E-2,2.182953E-2,2.4224864E-4,2.2396315E-3,8.865222E-3,1.0231241E-2,4.295998E-3,3.874377E-2,2.4885857E-3,1.4196426E-2,4.562853E-4,2.224078E-4,2.4448708E-3,0E0,3.1077042E-3,2.7453795E-3,8.254563E-3,1.7260179E-2,7.2372914E-4,4.603615E-3,1.9347295E-2,1.5457452E-3,1.2337272E-3,1.1881055E-2,1.3628885E-2,2.245136E-2,5.958695E-5,0E0,1.5526288E-4,0E0,1.4638063E-3,3.2226084E-4,1.4388971E-3,1.983463E-3,1.9197473E-3,2.1901368E-3,7.2595784E-3,2.5767148E-3,1.5998583E-2,7.927033E-4,1.6903676E-4,4.6929566E-4,3.715651E-4,4.8668117E-6,1.4552131E-2,6.057415E-3,2.4070963E-4,3.0200995E-4,1.1349886E-3,3.2936279E-3,0E0,3.1926252E-3,1.2659203E-2,8.332372E-3,1.3268836E-2,5.95593E-4,0E0,0E0,0E0,0E0,0E0,0E0,0E0,0E0,0E0,0E0,0E0,0E0,0E0,0E0,0E0,0E0,0E0,0E0,0E0,0E0,0E0,0E0,0E0,0E0,0E0,0E0,0E0,0E0,0E0,0E0,0E0,0E0,0E0,0E0,0E0,0E0,0E0,0E0,0E0,0E0,0E0,0E0,0E0,0E0,0E0,0E0,0E0,0E0,0E0,0E0,0E0,0E0,0E0,0E0],"parents":[2147483647,0,0,1,1,2,2,3,3,4,4,5,5,6,6,7,7,8,8,9,9,10,10,11,11,12,12,13,13,14,14,15,15,16,16,17,17,19,19,20,20,21,21,22,22,23,23,24,24,25,25,26,26,27,27,28,28,29,29,30,30,31,31,33,33,35,35,36,36,37,37,38,38,39,39,40,40,41,41,42,42,43,43,44,44,45,45,46,46,47,47,48,48,49,49,50,50,51,51,52,52,53,53,54,54,56,56,57,57,58,58,59,59,60,60],"right_children":[2,4,6,8,10,12,14,16,18,20,22,24,26,28,30,32,34,36,-1,38,40,42,44,46,48,50,52,54,56,58,60,62,-1,64,-1,66,68,70,72,74,76,78,80,82,84,86,88,90,92,94,96,98,100,102,104,-1,106,108,110,112,114,-1,-1,-1,-1,-1,-1,-1,-1,-1,-1,-1,-1,-1,-1,-1,-1,-1,-1,-1,-1,-1,-1,-1,-1,-1,-1,-1,-1,-1,-1,-1,-1,-1,-1,-1,-1,-1,-1,-1,-1,-1,-1,-1,-1,-1,-1,-1,-1,-1,-1,-1,-1,-1,-1],"split_conditions":[9.8455775E-1,-1.1207683E0,-3.3700893E0,8.0518705E-1,6.758661E-1,-1.7533561E0,8.3503777E-1,-3.401687E-1,2.3932714E0,-3.2983667E-1,1.7883569E0,4.4927387E0,-1.3304948E0,2.0488765E0,1.9832311E0,2.5383353E-1,6.5849596E-1,1.316785E0,2.2177324E-3,2.9642937E0,2.9642937E0,-1.5739306E0,3.1407806E-1,-2.7690086E0,5.7529798E0,-1.5200533E0,-3.030761E0,5.7529798E0,8.37268E-2,-2.7690086E0,3.093353E0,-1.1821743E0,1.0769387E-3,1.5759669E-1,7.748414E-4,7.488569E-1,1.8508126E0,-4.7355276E-1,1.281197E0,1.9732001E0,-8.010668E-1,-2.0387521E-1,4.647306E-1,2.6146203E-1,7.638585E-1,-1.5527945E0,-1.0374575E0,1.2274483E0,-3.7906199E0,1.07437246E-1,-3.7869244E0,-5.704257E-1,2.0761652E0,1.5041096E0,-8.076887E-1,3.536744E-3,1.9499809E0,4.433942E0,7.19031E-1,4.0240545E0,2.7420387E0,1.4694243E-4,4.2119427E-4,2.5593326E-4,-4.89126E-6,1.3566362E-3,6.3130964E-4,-3.1221218E-5,5.272963E-4,-1.6819648E-4,-1.12383066E-4,-1.9930028E-5,1.5579306E-3,-3.6878446E-5,-1.3998253E-4,2.820634E-4,2.1164222E-5,1.7098574E-3,1.6707403E-4,4.2446998E-5,2.4085534E-4,3.7091057E-4,5.335856E-3,8.068471E-4,-1.3882893E-5,3.567574E-4,3.949302E-5,1.5245975E-4,1.0046889E-3,2.2753582E-3,4.991192E-4,-1.7047963E-4,-1.9579684E-5,5.869109E-3,1.6612813E-3,8.238886E-4,2.6729773E-3,1.2033108E-3,3.0508553E-4,-1.7217352E-4,2.7654055E-4,2.0901694E-5,1.9523356E-4,1.7802565E-3,2.2931835E-4,2.018869E-4,1.3317427E-3,9.6449506E-4,3.1767131E-3,6.697805E-4,3.1777736E-4,7.0697786E-3,2.0540087E-4,1.3641211E-4,1.0400674E-3],"split_indices":[8,7,15,9,4,10,4,16,17,8,3,8,9,15,9,2,1,10,0,46,46,3,10,2,27,10,1,27,3,2,2,6,0,17,0,17,1,4,2,44,11,6,13,1,13,17,17,16,1,6,0,6,16,49,6,0,6,4,16,0,3,0,0,0,0,0,0,0,0,0,0,0,0,0,0,0,0,0,0,0,0,0,0,0,0,0,0,0,0,0,0,0,0,0,0,0,0,0,0,0,0,0,0,0,0,0,0,0,0,0,0,0,0,0,0],"split_type":[0,0,0,0,0,0,0,0,0,0,0,0,0,0,0,0,0,0,0,0,0,0,0,0,0,0,0,0,0,0,0,0,0,0,0,0,0,0,0,0,0,0,0,0,0,0,0,0,0,0,0,0,0,0,0,0,0,0,0,0,0,0,0,0,0,0,0,0,0,0,0,0,0,0,0,0,0,0,0,0,0,0,0,0,0,0,0,0,0,0,0,0,0,0,0,0,0,0,0,0,0,0,0,0,0,0,0,0,0,0,0,0,0,0,0],"sum_hessian":[1.1814E4,1.0478E4,1.336E3,9.8E1,1.038E4,9E1,1.246E3,5E1,4.8E1,9.419E3,9.61E2,3.7E1,5.3E1,4.76E2,7.7E2,1.3E1,3.7E1,4.5E1,3E0,5.348E3,4.071E3,9.41E2,2E1,2.7E1,1E1,3.4E1,1.9E1,4.03E2,7.3E1,7.6E2,1E1,1.1E1,2E0,3.6E1,1E0,3.5E1,1E1,4.863E3,4.85E2,3.524E3,5.47E2,3E1,9.11E2,6E0,1.4E1,2E1,7E0,7E0,3E0,1.2E1,2.2E1,5E0,1.4E1,3.73E2,3E1,2E0,7.1E1,3.7E1,7.23E2,3E0,7E0,5E0,6E0,2.9E1,7E0,2E1,1.5E1,7E0,3E0,2.947E3,1.916E3,4.84E2,1E0,2.993E3,5.31E2,9.7E1,4.5E2,1.4E1,1.6E1,6.98E2,2.13E2,3E0,3E0,3E0,1.1E1,5E0,1.5E1,3E0,4E0,6E0,1E0,2E0,1E0,8E0,4E0,8E0,1.4E1,3E0,2E0,9E0,5E0,1.88E2,1.85E2,3E0,2.7E1,6.5E1,6E0,2.9E1,8E0,4.5E2,2.73E2,2E0,1E0,4E0,3E0],"tree_param":{"num_deleted":"0","num_feature":"50","num_nodes":"115","size_leaf_vector":"1"}},{"base_weights":[-1.729214E-5,-1.0446818E-3,1.19289905E-2,-1.7578758E-3,3.146156E-3,3.1984266E-2,8.185134E-3,1.0688358E-2,-1.8648432E-3,2.2800106E-3,1.2728662E-2,2.5366094E-2,7.080054E-2,5.3328373E-3,1.21967625E-2,9.902944E-3,1.818401E-3,-2.157658E-3,5.2245316E-4,3.1869203E-2,2.1363862E-3,3.3424694E-2,4.916438E-3,3.0006409E-2,-1.1919282E-3,9.701926E-2,4.5032157E-3,1.0974241E-2,3.9006856E-3,1.3690936E-2,-2.6564288E-3,1.1533796E-2,7.360208E-4,-2.828254E-3,-1.3497262E-3,-5.0845963E-4,3.2075539E-3,6.948786E-5,1.8358743E-3,7.394316E-3,1.5322411E-3,1.582659E-2,1.1877745E-1,1.2997867E-3,1.7943375E-2,3.441973E-2,5.7824184E-3,-2.6055642E-3,6.416789E-4,1.3880524E-1,6.224575E-2,8.74337E-3,-2.0323902E-4,3.0167721E-2,8.587076E-3,1.9462358E-2,3.5940758E-3,1.0038576E-2,1.8263346E-2,-3.7341826E-3,2.4565747E-3,3.436146E-4,8.526954E-4,-7.1042773E-6,2.818324E-4,-1.7795216E-4,-1.19688884E-4,4.9258153E-5,-7.976258E-5,2.9872102E-4,-4.401542E-5,3.9241166E-4,7.130928E-5,3.1851113E-4,1.1365324E-3,8.8691985E-4,6.653359E-5,2.3729873E-3,3.642457E-5,1.5407781E-3,7.752725E-3,-3.7925034E-5,5.3081295E-4,4.2790972E-4,1.606226E-3,2.1266413E-3,1.1404689E-3,7.8753066E-5,6.9673115E-4,-1.7723916E-4,-2.4453877E-5,1.4373567E-3,7.753372E-3,3.4845693E-3,1.082107E-3,5.2144076E-4,5.003973E-5,4.868967E-4,1.7028963E-3,2.9362956E-4,9.5497834E-4,-1.4558451E-5,1.3711001E-3,1.6244121E-4,7.2518544E-4,3.1647176E-4,1.5097708E-3,2.5042132E-3,7.478308E-4,-9.7363714E-5,-2.1450144E-4,2.9192062E-4,3.0626234E-5],"categories":[],"categories_nodes":[],"categories_segments":[],"categories_sizes":[],"default_left":[0,0,0,0,0,0,0,0,0,0,0,0,0,0,0,0,0,0,0,0,0,0,0,0,0,0,0,0,0,0,0,0,0,0,0,0,0,0,0,0,0,0,0,0,0,0,0,0,0,0,0,0,0,0,0,0,0,0,0,0,0,0,0,0,0,0,0,0,0,0,0,0,0,0,0,0,0,0,0,0,0,0,0,0,0,0,0,0,0,0,0,0,0,0,0,0,0,0,0,0,0,0,0,0,0,0,0,0,0,0,0,0,0],"id":5,"left_children":[1,3,5,7,9,11,13,15,17,19,21,23,25,27,29,31,-1,33,35,37,39,41,43,45,47,49,51,53,55,57,59,61,63,65,67,69,71,-1,-1,73,75,77,79,81,83,85,87,89,-1,91,93,95,-1,97,99,101,103,105,107,109,111,-1,-1,-1,-1,-1,-1,-1,-1,-1,-1,-1,-1,-1,-1,-1,-1,-1,-1,-1,-1,-1,-1,-1,-1,-1,-1,-1,-1,-1,-1,-1,-1,-1,-1,-1,-1,-1,-1,-1,-1,-1,-1,-1,-1,-1,-1,-1,-1,-1,-1,-1,-1],"loss_changes":[1.4615288E-1,3.2778606E-2,7.0542485E-2,1.24959275E-2,1.3209231E-2,3.6224216E-2,9.043071E-3,1.2533832E-3,6.4965673E-3,6.1535197E-3,2.11777E-2,1.5810177E-2,3.606595E-2,3.7302487E-3,7.3601417E-3,1.1725528E-3,0E0,4.4806264E-3,2.8140252E-3,9.833826E-4,4.6200827E-3,5.219383E-2,4.5467247E-3,1.1453971E-2,4.2997792E-4,1.3155654E-2,2.8984723E-4,4.04784E-3,1.7145397E-3,4.826691E-3,1.8000057E-4,1.6068453E-3,5.674342E-5,1.427263E-3,2.1547908E-3,1.7770879E-3,2.3200328E-3,0E0,0E0,2.211078E-3,4.25246E-3,1.4771042E-2,1.4367893E-2,1.4846025E-3,2.5200164E-3,7.6958835E-3,5.954384E-4,3.603536E-5,0E0,6.280966E-3,1.5149266E-3,5.481133E-5,0E0,4.6310667E-4,2.3133955E-3,1.1086015E-3,1.3389764E-3,1.2444092E-2,1.31403655E-2,1.7470535E-5,3.3841494E-5,0E0,0E0,0E0,0E0,0E0,0E0,0E0,0E0,0E0,0E0,0E0,0E0,0E0,0E0,0E0,0E0,0E0,0E0,0E0,0E0,0E0,0E0,0E0,0E0,0E0,0E0,0E0,0E0,0E0,0E0,0E0,0E0,0E0,0E0,0E0,0E0,0E0,0E0,0E0,0E0,0E0,0E0,0E0,0E0,0E0,0E0,0E0,0E0,0E0,0E0,0E0,0E0],"parents":[2147483647,0,0,1,1,2,2,3,3,4,4,5,5,6,6,7,7,8,8,9,9,10,10,11,11,12,12,13,13,14,14,15,15,17,17,18,18,19,19,20,20,21,21,22,22,23,23,24,24,25,25,26,26,27,27,28,28,29,29,30,30,31,31,32,32,33,33,34,34,35,35,36,36,39,39,40,40,41,41,42,42,43,43,44,44,45,45,46,46,47,47,49,49,50,50,51,51,53,53,54,54,55,55,56,56,57,57,58,58,59,59,60,60],"right_children":[2,4,6,8,10,12,14,16,18,20,22,24,26,28,30,32,-1,34,36,38,40,42,44,46,48,50,52,54,56,58,60,62,64,66,68,70,72,-1,-1,74,76,78,80,82,84,86,88,90,-1,92,94,96,-1,98,100,102,104,106,108,110,112,-1,-1,-1,-1,-1,-1,-1,-1,-1,-1,-1,-1,-1,-1,-1,-1,-1,-1,-1,-1,-1,-1,-1,-1,-1,-1,-1,-1,-1,-1,-1,-1,-1,-1,-1,-1,-1,-1,-1,-1,-1,-1,-1,-1,-1,-1,-1,-1,-1,-1,-1,-1],"split_conditions":[1.4369962E0,4.0723807E-1,-1.2230655E0,-1.1207683E0,2.0505009E0,3.3729079E0,1.9586241E0,2.2276416E0,2.9642937E0,-3.0481472E0,-5.704257E-1,1.3447855E0,5.7529798E0,-1.0531288E0,1.2916975E0,1.3750998E0,1.818401E-3,-3.9974314E-1,8.0518705E-1,-3.7869244E0,-1.4327321E0,4.309765E0,1.5856465E0,-1.4021411E0,1.968056E0,-1.4696908E0,-6.626986E-1,-1.3801525E0,-1.9376758E0,1.5041096E0,2.0046952E0,8.884546E-1,1.3854347E0,-7.718914E-1,-9.610403E-1,-9.1047555E-1,-6.320567E-1,6.948786E-5,1.8358743E-3,2.3504663E0,-1.1655327E0,1.3302482E0,2.6898878E0,5.7529798E0,3.285366E0,9.7364616E-1,5.7529798E0,2.0046952E0,6.416789E-4,-1.930334E0,3.967215E0,-7.709612E-1,-2.0323902E-4,-1.0506364E0,2.7941062E0,-1.893988E0,3.093353E0,2.2489433E-1,-2.3211284E0,-1.2501781E0,-1.0861391E0,3.436146E-4,8.526954E-4,-7.1042773E-6,2.818324E-4,-1.7795216E-4,-1.19688884E-4,4.9258153E-5,-7.976258E-5,2.9872102E-4,-4.401542E-5,3.9241166E-4,7.130928E-5,3.1851113E-4,1.1365324E-3,8.8691985E-4,6.653359E-5,2.3729873E-3,3.642457E-5,1.5407781E-3,7.752725E-3,-3.7925034E-5,5.3081295E-4,4.2790972E-4,1.606226E-3,2.1266413E-3,1.1404689E-3,7.8753066E-5,6.9673115E-4,-1.7723916E-4,-2.4453877E-5,1.4373567E-3,7.753372E-3,3.4845693E-3,1.082107E-3,5.2144076E-4,5.003973E-5,4.868967E-4,1.7028963E-3,2.9362956E-4,9.5497834E-4,-1.4558451E-5,1.3711001E-3,1.6244121E-4,7.2518544E-4,3.1647176E-4,1.5097708E-3,2.5042132E-3,7.478308E-4,-9.7363714E-5,-2.1450144E-4,2.9192062E-4,3.0626234E-5],"split_indices":[5,5,9,7,20,5,8,1,46,20,6,6,45,13,6,10,0,8,9,0,9,39,12,20,7,10,7,1,20,49,6,9,8,5,7,7,12,0,0,48,6,2,1,45,20,16,45,6,0,10,5,10,0,6,5,1,2,6,2,16,0,0,0,0,0,0,0,0,0,0,0,0,0,0,0,0,0,0,0,0,0,0,0,0,0,0,0,0,0,0,0,0,0,0,0,0,0,0,0,0,0,0,0,0,0,0,0,0,0,0,0,0,0],"split_type":[0,0,0,0,0,0,0,0,0,0,0,0,0,0,0,0,0,0,0,0,0,0,0,0,0,0,0,0,0,0,0,0,0,0,0,0,0,0,0,0,0,0,0,0,0,0,0,0,0,0,0,0,0,0,0,0,0,0,0,0,0,0,0,0,0,0,0,0,0,0,0,0,0,0,0,0,0,0,0,0,0,0,0,0,0,0,0,0,0,0,0,0,0,0,0,0,0,0,0,0,0,0,0,0,0,0,0,0,0,0,0,0,0],"sum_hessian":[1.1906E4,1.0964E4,9.42E2,9.37E3,1.594E3,1.47E2,7.95E2,7.9E1,9.291E3,1.463E3,1.31E2,1.27E2,2E1,4.66E2,3.29E2,7.8E1,1E0,8.276E3,1.015E3,6E0,1.457E3,3.5E1,9.6E1,1.08E2,1.9E1,1.4E1,6E0,9.3E1,3.73E2,2.99E2,3E1,6.6E1,1.2E1,4.521E3,3.755E3,7.34E2,2.81E2,1E0,5E0,1.49E2,1.308E3,3E1,5E0,7.6E1,2E1,9.1E1,1.7E1,1.8E1,1E0,5E0,9E0,4E0,2E0,9E0,8.4E1,6E0,3.67E2,1.68E2,1.31E2,2.5E1,5E0,3.7E1,2.9E1,1.1E1,1E0,1.683E3,2.838E3,3.57E2,3.398E3,3.9E1,6.95E2,7.7E1,2.04E2,1.41E2,8E0,1.5E1,1.293E3,9E0,2.1E1,2E0,3E0,6.3E1,1.3E1,1.3E1,7E0,5.2E1,3.9E1,1.2E1,5E0,1.2E1,6E0,1E0,4E0,7E0,2E0,3E0,1E0,2E0,7E0,6.8E1,1.6E1,2E0,4E0,3.57E2,1E1,1.43E2,2.5E1,1.1E1,1.2E2,7E0,1.8E1,1E0,4E0],"tree_param":{"num_deleted":"0","num_feature":"50","num_nodes":"113","size_leaf_vector":"1"}},{"base_weights":[-1.018102E-5,-1.1742188E-3,9.126606E-3,-1.6873535E-3,2.585212E-3,5.792162E-3,1.6698852E-2,1.0640642E-2,-1.7829648E-3,2.1410608E-3,1.5074942E-2,5.2603222E-3,4.5906592E-2,4.103772E-2,1.1345311E-2,5.5253194E-3,1.546039E-2,-2.0696882E-3,6.24928E-4,1.938808E-2,1.8214834E-3,1.4368913E-3,3.7999347E-2,3.8720092E-3,1.3333371E-2,9.571927E-2,9.035346E-3,4.9925726E-2,3.342392E-3,1.6133469E-2,8.4183905E-3,1.9397857E-3,7.237262E-3,3.1789318E-2,1.113496E-2,-2.6048834E-3,-1.0543606E-3,5.4914514E-3,6.118939E-5,5.8027026E-3,3.2445937E-2,9.4084265E-3,1.1870135E-3,1.35192E-2,-5.537537E-4,9.670721E-2,2.5223903E-3,2.8063944E-3,1.34675475E-2,1.8228358E-2,6.8019745E-3,1.1636482E-1,3.2842613E-4,2.5228444E-3,9.524284E-4,5.467434E-2,-1.1327352E-3,1.2402832E-2,-1.0798435E-3,7.001309E-3,2.7065359E-2,7.1540624E-3,2.2351405E-2,-1.8241505E-7,1.1467345E-4,4.1097167E-4,-1.188873E-4,3.5827525E-4,1.7349519E-3,6.833195E-4,4.325309E-5,-1.6677352E-4,-1.1129448E-4,-7.633905E-5,5.5194665E-5,1.8933378E-4,1.0313124E-3,-3.4911598E-5,1.6028636E-4,1.7989117E-4,7.5140933E-4,1.9468245E-3,1.0794857E-4,2.9810873E-4,2.2424404E-3,4.641298E-5,5.732227E-4,-1.1544832E-4,9.782455E-4,3.2663494E-4,-7.269987E-5,-5.729638E-5,7.296013E-3,3.7511647E-6,6.7490153E-4,1.1666724E-4,1.1530418E-3,1.7487277E-4,1.0965035E-3,3.2661247E-4,1.2857126E-3,9.134161E-5,7.254863E-4,1.772941E-3,6.575695E-3,3.0830718E-4,-4.2017044E-5,2.8843852E-3,1.2926552E-4,7.1269234E-5,-1.3840706E-4,1.041175E-3,-7.605631E-6,2.0022351E-4,-1.74351E-4,7.187438E-4,1.6611406E-4,1.748775E-3,7.365803E-4,2.9411743E-4,1.2203873E-3,4.5317863E-4,1.6577874E-3],"categories":[],"categories_nodes":[],"categories_segments":[],"categories_sizes":[],"default_left":[0,0,0,0,0,0,0,0,0,0,0,0,0,0,0,0,0,0,0,0,0,0,0,0,0,0,0,0,0,0,0,0,0,0,0,0,0,0,0,0,0,0,0,0,0,0,0,0,0,0,0,0,0,0,0,0,0,0,0,0,0,0,0,0,0,0,0,0,0,0,0,0,0,0,0,0,0,0,0,0,0,0,0,0,0,0,0,0,0,0,0,0,0,0,0,0,0,0,0,0,0,0,0,0,0,0,0,0,0,0,0,0,0,0,0,0,0,0,0,0,0,0,0],"id":6,"left_children":[1,3,5,7,9,11,13,15,17,19,21,23,25,27,29,31,33,35,37,39,41,43,45,47,49,51,53,55,57,59,61,63,65,67,69,71,73,75,77,79,81,83,85,87,89,91,93,95,97,99,101,103,-1,105,-1,107,109,111,113,115,117,119,121,-1,-1,-1,-1,-1,-1,-1,-1,-1,-1,-1,-1,-1,-1,-1,-1,-1,-1,-1,-1,-1,-1,-1,-1,-1,-1,-1,-1,-1,-1,-1,-1,-1,-1,-1,-1,-1,-1,-1,-1,-1,-1,-1,-1,-1,-1,-1,-1,-1,-1,-1,-1,-1,-1,-1,-1,-1,-1,-1,-1],"loss_changes":[1.2545723E-1,2.018847E-2,3.35605E-2,1.087122E-2,6.940715E-3,1.9535558E-2,5.2566156E-2,1.6650502E-3,6.30947E-3,6.6614724E-3,1.3389101E-2,1.0214824E-2,2.1175008E-2,2.4290785E-2,4.5590624E-3,2.0693743E-4,2.1886947E-3,4.434105E-3,2.669038E-3,3.7144357E-3,5.7363743E-3,6.8093074E-4,3.308049E-2,7.968494E-3,4.160138E-3,8.43849E-3,4.7363236E-4,1.436688E-2,6.144041E-4,1.238931E-2,3.5394346E-3,8.944047E-6,2.4618965E-4,2.5290297E-4,7.681034E-4,1.4728159E-3,2.8769653E-3,2.5278402E-3,2.086988E-3,1.9002415E-4,2.0783078E-3,1.0969163E-2,2.9225962E-3,4.279447E-4,1.6898687E-4,2.9061127E-2,2.9446295E-4,6.7106322E-3,6.504327E-3,6.4862706E-3,2.2359756E-3,2.392754E-4,0E0,7.870019E-5,0E0,8.326888E-3,2.9047053E-5,5.317725E-4,1.485909E-4,1.8511713E-3,5.0457716E-3,4.1131256E-3,2.1401178E-3,0E0,0E0,0E0,0E0,0E0,0E0,0E0,0E0,0E0,0E0,0E0,0E0,0E0,0E0,0E0,0E0,0E0,0E0,0E0,0E0,0E0,0E0,0E0,0E0,0E0,0E0,0E0,0E0,0E0,0E0,0E0,0E0,0E0,0E0,0E0,0E0,0E0,0E0,0E0,0E0,0E0,0E0,0E0,0E0,0E0,0E0,0E0,0E0,0E0,0E0,0E0,0E0,0E0,0E0,0E0,0E0,0E0,0E0,0E0,0E0],"parents":[2147483647,0,0,1,1,2,2,3,3,4,4,5,5,6,6,7,7,8,8,9,9,10,10,11,11,12,12,13,13,14,14,15,15,16,16,17,17,18,18,19,19,20,20,21,21,22,22,23,23,24,24,25,25,26,26,27,27,28,28,29,29,30,30,31,31,32,32,33,33,34,34,35,35,36,36,37,37,38,38,39,39,40,40,41,41,42,42,43,43,44,44,45,45,46,46,47,47,48,48,49,49,50,50,51,51,53,53,55,55,56,56,57,57,58,58,59,59,60,60,61,61,62,62],"right_children":[2,4,6,8,10,12,14,16,18,20,22,24,26,28,30,32,34,36,38,40,42,44,46,48,50,52,54,56,58,60,62,64,66,68,70,72,74,76,78,80,82,84,86,88,90,92,94,96,98,100,102,104,-1,106,-1,108,110,112,114,116,118,120,122,-1,-1,-1,-1,-1,-1,-1,-1,-1,-1,-1,-1,-1,-1,-1,-1,-1,-1,-1,-1,-1,-1,-1,-1,-1,-1,-1,-1,-1,-1,-1,-1,-1,-1,-1,-1,-1,-1,-1,-1,-1,-1,-1,-1,-1,-1,-1,-1,-1,-1,-1,-1,-1,-1,-1,-1,-1,-1,-1,-1],"split_conditions":[9.8455775E-1,4.3020558E-1,2.2785156E0,-1.1273056E0,1.7883569E0,1.8900757E0,-1.2230655E0,8.884546E-1,2.9642937E0,-1.1655327E0,1.1598866E0,5.7529798E0,-5.704257E-1,5.7529798E0,-7.562431E-1,9.2407864E-1,1.0080196E0,-2.5722393E-1,-8.05352E-1,6.7225707E-1,-1.4138541E0,7.638585E-1,1.305739E0,2.7420387E0,1.1875528E0,4.0240545E0,3.7780733E0,1.3447855E0,-6.320567E-1,-9.471919E-1,4.309765E0,-1.0196381E0,3.990186E-1,3.7401846E-1,1.1714894E0,-7.583351E-1,1.0638294E0,1.1895708E0,9.611436E-1,1.3693682E0,1.1895708E0,2.2783651E0,1.9578893E0,-4.3082497E-1,4.303407E-1,2.9102182E-1,1.3665928E0,4.309765E0,1.8213437E-1,2.4667203E-1,1.4441394E0,2.3601787E0,3.2842613E-4,-4.5418558E-1,9.524284E-4,2.6414952E0,-1.834458E0,-3.0491977E0,1.6535197E0,-6.858299E-1,2.7420387E0,4.309765E0,1.9586241E0,-1.8241505E-7,1.1467345E-4,4.1097167E-4,-1.188873E-4,3.5827525E-4,1.7349519E-3,6.833195E-4,4.325309E-5,-1.6677352E-4,-1.1129448E-4,-7.633905E-5,5.5194665E-5,1.8933378E-4,1.0313124E-3,-3.4911598E-5,1.6028636E-4,1.7989117E-4,7.5140933E-4,1.9468245E-3,1.0794857E-4,2.9810873E-4,2.2424404E-3,4.641298E-5,5.732227E-4,-1.1544832E-4,9.782455E-4,3.2663494E-4,-7.269987E-5,-5.729638E-5,7.296013E-3,3.7511647E-6,6.7490153E-4,1.1666724E-4,1.1530418E-3,1.7487277E-4,1.0965035E-3,3.2661247E-4,1.2857126E-3,9.134161E-5,7.254863E-4,1.772941E-3,6.575695E-3,3.0830718E-4,-4.2017044E-5,2.8843852E-3,1.2926552E-4,7.1269234E-5,-1.3840706E-4,1.041175E-3,-7.605631E-6,2.0022351E-4,-1.74351E-4,7.187438E-4,1.6611406E-4,1.748775E-3,7.365803E-4,2.9411743E-4,1.2203873E-3,4.5317863E-4,1.6577874E-3],"split_indices":[8,5,5,11,3,9,9,9,46,6,5,27,6,27,12,21,9,8,11,9,9,13,5,3,6,0,1,6,12,11,40,1,1,3,13,5,9,2,10,1,2,4,11,1,9,4,0,29,16,6,11,0,0,0,0,16,10,0,4,2,3,30,8,0,0,0,0,0,0,0,0,0,0,0,0,0,0,0,0,0,0,0,0,0,0,0,0,0,0,0,0,0,0,0,0,0,0,0,0,0,0,0,0,0,0,0,0,0,0,0,0,0,0,0,0,0,0,0,0,0,0,0,0],"split_type":[0,0,0,0,0,0,0,0,0,0,0,0,0,0,0,0,0,0,0,0,0,0,0,0,0,0,0,0,0,0,0,0,0,0,0,0,0,0,0,0,0,0,0,0,0,0,0,0,0,0,0,0,0,0,0,0,0,0,0,0,0,0,0,0,0,0,0,0,0,0,0,0,0,0,0,0,0,0,0,0,0,0,0,0,0,0,0,0,0,0,0,0,0,0,0,0,0,0,0,0,0,0,0,0,0,0,0,0,0,0,0,0,0,0,0,0,0,0,0,0,0,0,0],"sum_hessian":[1.1794E4,1.0462E4,1.332E3,9.206E3,1.256E3,9.26E2,4.06E2,7E1,9.136E3,1.214E3,4.2E1,9.15E2,1.1E1,7.2E1,3.34E2,3.5E1,3.5E1,8.164E3,9.72E2,2.1E1,1.193E3,2.7E1,1.5E1,7.82E2,1.33E2,4E0,7E0,5.8E1,1.4E1,1.25E2,2.09E2,1.2E1,2.3E1,6E0,2.9E1,5.345E3,2.819E3,1E2,8.72E2,1.1E1,1E1,9.1E1,1.102E3,3E0,2.4E1,5E0,1E1,7.05E2,7.7E1,7.5E1,5.8E1,3E0,1E0,5E0,2E0,5.3E1,5E0,4E0,1E1,6.9E1,5.6E1,1.93E2,1.6E1,2E0,1E1,2.1E1,2E0,1E0,5E0,2.3E1,6E0,1.823E3,3.522E3,2.313E3,5.06E2,9.1E1,9E0,7.03E2,1.69E2,1E1,1E0,8E0,2E0,8.4E1,7E0,1.076E3,2.6E1,1E0,2E0,2E0,2.2E1,2E0,3E0,9E0,1E0,6.9E2,1.5E1,3.6E1,4.1E1,3E1,4.5E1,3.6E1,2.2E1,1E0,2E0,2E0,3E0,5E1,3E0,2E0,3E0,2E0,2E0,3E0,7E0,2.2E1,4.7E1,3.3E1,2.3E1,1.81E2,1.2E1,8E0,8E0],"tree_param":{"num_deleted":"0","num_feature":"50","num_nodes":"123","size_leaf_vector":"1"}},{"base_weights":[1.9350435E-5,-1.14847E-3,8.133972E-3,1.3407445E-2,-1.2754721E-3,2.4377607E-2,6.544135E-3,4.9859374E-3,2.035226E-2,-1.6576245E-3,2.2983197E-3,5.7636932E-3,3.0462561E-2,8.156237E-3,-7.907559E-5,6.3237464E-3,-6.220017E-4,2.7954336E-2,8.884996E-3,-1.9644022E-3,7.840328E-4,1.7090164E-3,1.79656E-2,2.203236E-3,2.2011954E-2,5.930117E-2,2.2965835E-2,6.128899E-3,1.865919E-2,-1.3267028E-3,6.8608774E-3,3.4297407E-3,8.178064E-3,2.0445273E-3,-1.6759426E-3,1.908561E-2,4.5541994E-2,1.3225172E-2,1.6286318E-3,-2.7167122E-3,-1.3294964E-3,-1.8007761E-4,3.5342E-3,1.3081451E-3,1.330593E-2,1.1071972E-2,7.034664E-2,6.743905E-3,-9.462784E-4,1.3500926E-3,-7.3438045E-5,8.137952E-2,6.6728904E-3,2.7843243E-2,-2.3648397E-3,1.9516522E-2,4.7089467E-3,1.1244714E-1,1.6395908E-2,1.6941417E-3,-3.0675596E-3,3.3817387E-3,1.4986985E-2,3.2171357E-4,-1.7536804E-7,6.5187935E-4,2.8445252E-4,1.9814575E-5,1.3352498E-4,7.4575255E-5,-1.6206113E-4,1.118286E-3,2.0580544E-4,7.8176864E-4,2.5926558E-3,3.2686407E-4,1.130917E-3,-4.1686064E-5,1.8826293E-4,-1.5178726E-4,-7.11897E-5,-8.225796E-5,2.0223275E-5,2.1388671E-4,-3.9146424E-5,5.575347E-4,9.601593E-5,3.6098858E-4,3.8679893E-5,5.3992186E-4,1.2343356E-3,2.671774E-4,1.4152675E-3,6.95583E-3,5.2555795E-5,7.655662E-4,2.7313987E-5,-1.1714028E-4,3.4086462E-4,5.3245444E-3,2.0527581E-3,-8.7947505E-5,6.7182543E-4,1.1902553E-3,3.6981374E-3,-1.4110861E-4,8.951205E-5,6.565349E-4,2.371603E-3,2.401538E-5,3.469279E-4,1.8964418E-5,7.4838335E-3,1.3851329E-3,2.6430315E-4,4.9885926E-5,6.2490423E-4,-1.906746E-4,-5.4121316E-5,4.1391552E-4,1.035646E-4,9.032217E-4,-1.3341894E-5],"categories":[],"categories_nodes":[],"categories_segments":[],"categories_sizes":[],"default_left":[0,0,0,0,0,0,0,0,0,0,0,0,0,0,0,0,0,0,0,0,0,0,0,0,0,0,0,0,0,0,0,0,0,0,0,0,0,0,0,0,0,0,0,0,0,0,0,0,0,0,0,0,0,0,0,0,0,0,0,0,0,0,0,0,0,0,0,0,0,0,0,0,0,0,0,0,0,0,0,0,0,0,0,0,0,0,0,0,0,0,0,0,0,0,0,0,0,0,0,0,0,0,0,0,0,0,0,0,0,0,0,0,0,0,0,0,0,0,0,0,0,0,0],"id":7,"left_children":[1,3,5,7,9,11,13,15,17,19,21,23,25,27,29,31,33,35,37,39,41,43,45,47,49,51,53,55,57,59,61,63,65,67,69,71,73,75,77,79,81,83,85,87,89,91,93,95,97,-1,-1,99,101,103,105,107,109,111,113,115,117,119,121,-1,-1,-1,-1,-1,-1,-1,-1,-1,-1,-1,-1,-1,-1,-1,-1,-1,-1,-1,-1,-1,-1,-1,-1,-1,-1,-1,-1,-1,-1,-1,-1,-1,-1,-1,-1,-1,-1,-1,-1,-1,-1,-1,-1,-1,-1,-1,-1,-1,-1,-1,-1,-1,-1,-1,-1,-1,-1,-1,-1],"loss_changes":[1.1268397E-1,1.9233633E-2,3.847426E-2,5.1622465E-3,1.4079055E-2,1.4888644E-2,1.4564477E-2,3.1903211E-4,4.0232018E-3,6.9759097E-3,9.165144E-3,1.9184446E-3,2.0257615E-2,2.3244105E-2,2.3295737E-3,1.5440921E-4,2.8719784E-5,3.6542267E-3,6.398328E-4,3.947478E-3,2.75816E-3,4.4501573E-3,1.22205615E-2,4.2110775E-4,7.426571E-4,2.2695877E-2,1.0073233E-2,1.7416105E-2,3.572786E-2,1.2042164E-3,1.1084639E-3,1.5475204E-4,1.677369E-4,2.0369534E-6,3.9539897E-5,9.3907444E-4,8.8795647E-4,6.688037E-4,5.048934E-5,1.5569292E-3,2.4571605E-3,2.075331E-3,3.2974584E-3,2.9332554E-3,6.46614E-4,3.1065117E-3,1.8915575E-2,6.2880764E-4,2.1112827E-4,0E0,0E0,9.804398E-3,4.228424E-4,1.0903414E-2,3.165591E-5,1.5064392E-2,7.859806E-3,1.6632158E-2,2.1710783E-2,6.195562E-4,2.1058449E-4,1.7535407E-4,5.681345E-4,0E0,0E0,0E0,0E0,0E0,0E0,0E0,0E0,0E0,0E0,0E0,0E0,0E0,0E0,0E0,0E0,0E0,0E0,0E0,0E0,0E0,0E0,0E0,0E0,0E0,0E0,0E0,0E0,0E0,0E0,0E0,0E0,0E0,0E0,0E0,0E0,0E0,0E0,0E0,0E0,0E0,0E0,0E0,0E0,0E0,0E0,0E0,0E0,0E0,0E0,0E0,0E0,0E0,0E0,0E0,0E0,0E0,0E0,0E0,0E0],"parents":[2147483647,0,0,1,1,2,2,3,3,4,4,5,5,6,6,7,7,8,8,9,9,10,10,11,11,12,12,13,13,14,14,15,15,16,16,17,17,18,18,19,19,20,20,21,21,22,22,23,23,24,24,25,25,26,26,27,27,28,28,29,29,30,30,31,31,32,32,33,33,34,34,35,35,36,36,37,37,38,38,39,39,40,40,41,41,42,42,43,43,44,44,45,45,46,46,47,47,48,48,51,51,52,52,53,53,54,54,55,55,56,56,57,57,58,58,59,59,60,60,61,61,62,62],"right_children":[2,4,6,8,10,12,14,16,18,20,22,24,26,28,30,32,34,36,38,40,42,44,46,48,50,52,54,56,58,60,62,64,66,68,70,72,74,76,78,80,82,84,86,88,90,92,94,96,98,-1,-1,100,102,104,106,108,110,112,114,116,118,120,122,-1,-1,-1,-1,-1,-1,-1,-1,-1,-1,-1,-1,-1,-1,-1,-1,-1,-1,-1,-1,-1,-1,-1,-1,-1,-1,-1,-1,-1,-1,-1,-1,-1,-1,-1,-1,-1,-1,-1,-1,-1,-1,-1,-1,-1,-1,-1,-1,-1,-1,-1,-1,-1,-1,-1,-1,-1,-1,-1,-1],"split_conditions":[1.0128226E0,-1.1273056E0,-2.7690086E0,7.3700345E-1,4.0723807E-1,-1.878728E0,6.3718295E-1,3.990186E-1,1.0923694E0,2.9642937E0,2.6435485E0,6.297237E-1,-3.7906199E0,4.309765E0,1.8248626E0,1.4253718E-1,-1.7938313E-1,2.7668226E-1,1.316785E0,-5.121112E-1,8.35224E-1,1.7542151E0,3.2504203E0,-9.440043E-1,3.2758787E0,5.7529798E0,1.2916975E0,-1.2230655E0,1.060471E0,1.5041096E0,3.344454E-1,-6.944725E-1,4.7320622E-1,-7.0718515E-1,-8.9464194E-1,1.2200899E0,7.106397E-1,1.029905E0,1.509594E0,4.082442E-1,1.0885375E0,-8.010668E-1,-5.471269E-1,-1.4327321E0,4.303407E-1,1.9499809E0,4.0240545E0,-3.541203E0,7.219298E-4,1.3500926E-3,-7.3438045E-5,1.07437246E-1,7.275838E-1,4.309765E0,5.7529798E0,2.2785156E0,8.3503777E-1,-1.4287333E0,-5.089878E-1,1.0198069E0,1.4441394E0,2.0288E0,2.4437387E0,3.2171357E-4,-1.7536804E-7,6.5187935E-4,2.8445252E-4,1.9814575E-5,1.3352498E-4,7.4575255E-5,-1.6206113E-4,1.118286E-3,2.0580544E-4,7.8176864E-4,2.5926558E-3,3.2686407E-4,1.130917E-3,-4.1686064E-5,1.8826293E-4,-1.5178726E-4,-7.11897E-5,-8.225796E-5,2.0223275E-5,2.1388671E-4,-3.9146424E-5,5.575347E-4,9.601593E-5,3.6098858E-4,3.8679893E-5,5.3992186E-4,1.2343356E-3,2.671774E-4,1.4152675E-3,6.95583E-3,5.2555795E-5,7.655662E-4,2.7313987E-5,-1.1714028E-4,3.4086462E-4,5.3245444E-3,2.0527581E-3,-8.7947505E-5,6.7182543E-4,1.1902553E-3,3.6981374E-3,-1.4110861E-4,8.951205E-5,6.565349E-4,2.371603E-3,2.401538E-5,3.469279E-4,1.8964418E-5,7.4838335E-3,1.3851329E-3,2.6430315E-4,4.9885926E-5,6.2490423E-4,-1.906746E-4,-5.4121316E-5,4.1391552E-4,1.035646E-4,9.032217E-4,-1.3341894E-5],"split_indices":[5,11,19,9,5,10,7,1,22,46,19,6,1,39,11,9,4,5,10,5,9,12,0,7,4,27,6,9,5,49,1,9,9,0,3,0,1,3,10,12,9,11,5,9,9,6,0,13,7,0,0,6,14,34,27,5,4,1,7,9,11,11,1,0,0,0,0,0,0,0,0,0,0,0,0,0,0,0,0,0,0,0,0,0,0,0,0,0,0,0,0,0,0,0,0,0,0,0,0,0,0,0,0,0,0,0,0,0,0,0,0,0,0,0,0,0,0,0,0,0,0,0,0],"split_type":[0,0,0,0,0,0,0,0,0,0,0,0,0,0,0,0,0,0,0,0,0,0,0,0,0,0,0,0,0,0,0,0,0,0,0,0,0,0,0,0,0,0,0,0,0,0,0,0,0,0,0,0,0,0,0,0,0,0,0,0,0,0,0,0,0,0,0,0,0,0,0,0,0,0,0,0,0,0,0,0,0,0,0,0,0,0,0,0,0,0,0,0,0,0,0,0,0,0,0,0,0,0,0,0,0,0,0,0,0,0,0,0,0,0,0,0,0,0,0,0,0,0,0],"sum_hessian":[1.1889E4,1.0394E4,1.495E3,8.9E1,1.0305E4,1.32E2,1.363E3,4.1E1,4.8E1,9.31E3,9.95E2,3.3E1,9.9E1,1.096E3,2.67E2,3.3E1,8E0,2.8E1,2E1,8.271E3,1.039E3,9.6E2,3.5E1,2.8E1,5E0,1.9E1,8E1,9.2E2,1.76E2,2.27E2,4E1,1.4E1,1.9E1,2E0,6E0,2E1,8E0,1.2E1,8E0,3.784E3,4.487E3,7.7E2,2.69E2,9.29E2,3.1E1,3.2E1,3E0,1.1E1,1.7E1,4E0,1E0,1.3E1,6E0,6.7E1,1.3E1,8.7E1,8.33E2,3E0,1.73E2,8.3E1,1.44E2,2.9E1,1.1E1,7E0,7E0,5E0,1.4E1,1E0,1E0,2E0,4E0,1.6E1,4E0,2E0,6E0,8E0,4E0,4E0,4E0,3.034E3,7.5E2,3.796E3,6.91E2,9.1E1,6.79E2,4.6E1,2.23E2,7.6E1,8.53E2,2.7E1,4E0,2.5E1,7E0,1E0,2E0,4E0,7E0,1.5E1,2E0,7E0,6E0,3E0,3E0,6.3E1,4E0,1.2E1,1E0,7.2E1,1.5E1,2.88E2,5.45E2,1E0,2E0,8.5E1,8.8E1,7.9E1,4E0,1.04E2,4E1,5E0,2.4E1,9E0,2E0],"tree_param":{"num_deleted":"0","num_feature":"50","num_nodes":"123","size_leaf_vector":"1"}},{"base_weights":[4.6010533E-5,-1.0169249E-3,8.683449E-3,-1.4920599E-3,2.6986152E-3,2.0314375E-2,5.60355E-3,9.962183E-3,-1.5780679E-3,2.1058652E-3,1.7510243E-2,2.5553007E-2,-2.340469E-3,4.503784E-3,1.0771868E-2,1.43188825E-2,5.689482E-3,-1.8681774E-3,4.4263268E-4,2.6511021E-2,1.8478007E-3,4.2903963E-2,7.285872E-3,4.329085E-2,2.1867314E-2,1.302986E-4,-2.590446E-3,3.2452182E-3,1.0046456E-2,3.9955867E-3,1.9004662E-2,5.178146E-3,1.8465402E-2,1.4970191E-3,7.405639E-3,-1.4999426E-3,-2.952332E-3,2.1232178E-3,-1.1492068E-3,4.4720277E-2,7.115797E-3,2.7344225E-2,1.7117495E-3,2.3872847E-2,6.7819343E-3,3.8020583E-3,1.3365791E-3,2.9819116E-2,9.676697E-2,1.813065E-2,3.984523E-2,-3.0909218E-3,4.2341748E-4,2.977599E-3,1.8229079E-2,8.768507E-3,1.6376093E-3,1.7264199E-2,2.4935901E-3,5.9007467E-3,1.6291847E-2,-2.2401653E-5,4.630425E-4,5.805685E-4,1.1890326E-3,1.0783644E-4,-6.0050963E-5,2.0649424E-4,5.181855E-4,-6.5657034E-5,-1.676081E-4,-2.6135327E-5,-1.5611365E-4,-1.8357325E-5,3.7536057E-4,-8.907211E-5,1.0975858E-4,3.9635654E-4,2.5246742E-3,-2.748404E-5,6.501163E-4,1.6316617E-3,2.247952E-5,7.158424E-5,6.18622E-4,3.854037E-3,6.014212E-4,2.655669E-5,5.6876004E-4,1.9253911E-3,5.260377E-4,6.5572313E-3,3.6076034E-4,9.886908E-4,-1.549098E-4,3.1104087E-4,2.5635103E-3,-1.0913732E-4,-2.1155066E-4,-4.4895805E-5,1.4624727E-4,1.7365978E-4,-1.7579044E-4,2.2714108E-4,1.2252177E-3,6.980085E-4,2.5266604E-4,1.8697159E-4,3.4746774E-3,5.264802E-5,5.9449946E-4,1.2785491E-3,1.4928186E-4],"categories":[],"categories_nodes":[],"categories_segments":[],"categories_sizes":[],"default_left":[0,0,0,0,0,0,0,0,0,0,0,0,0,0,0,0,0,0,0,0,0,0,0,0,0,0,0,0,0,0,0,0,0,0,0,0,0,0,0,0,0,0,0,0,0,0,0,0,0,0,0,0,0,0,0,0,0,0,0,0,0,0,0,0,0,0,0,0,0,0,0,0,0,0,0,0,0,0,0,0,0,0,0,0,0,0,0,0,0,0,0,0,0,0,0,0,0,0,0,0,0,0,0,0,0,0,0,0,0,0,0,0,0],"id":8,"left_children":[1,3,5,7,9,11,13,15,17,19,21,23,25,27,29,31,33,35,37,39,41,43,45,47,49,-1,51,53,55,57,59,61,63,65,67,69,71,73,75,77,79,81,83,85,-1,87,-1,89,91,93,95,97,99,101,103,105,-1,107,109,-1,111,-1,-1,-1,-1,-1,-1,-1,-1,-1,-1,-1,-1,-1,-1,-1,-1,-1,-1,-1,-1,-1,-1,-1,-1,-1,-1,-1,-1,-1,-1,-1,-1,-1,-1,-1,-1,-1,-1,-1,-1,-1,-1,-1,-1,-1,-1,-1,-1,-1,-1,-1,-1],"loss_changes":[1.09006114E-1,1.8667659E-2,4.649069E-2,9.250583E-3,1.0489857E-2,3.234087E-2,5.805943E-3,1.2215739E-3,5.455645E-3,7.219025E-3,1.1630606E-2,1.350148E-2,7.1048475E-5,5.9038177E-3,9.965856E-3,1.1930596E-3,2.551258E-4,3.2440517E-3,3.129774E-3,3.919851E-3,3.9180564E-3,1.9704912E-2,2.2017024E-3,2.3769885E-2,1.1705399E-2,0E0,7.672704E-5,2.7326504E-3,4.268443E-3,1.9498909E-3,1.9833643E-2,2.797894E-4,5.61784E-4,2.3949333E-5,2.0913687E-4,2.0978851E-3,8.497536E-4,7.631968E-3,1.2746856E-3,8.742176E-4,3.230085E-4,8.3880406E-4,3.3799931E-3,6.6354414E-3,0E0,7.370935E-4,0E0,4.7928803E-3,2.0603828E-2,5.4680444E-3,1.1589963E-2,3.5287143E-5,2.906918E-5,2.213398E-3,9.19302E-4,2.8226543E-3,0E0,6.804032E-3,1.2193229E-3,0E0,9.801261E-3,0E0,0E0,0E0,0E0,0E0,0E0,0E0,0E0,0E0,0E0,0E0,0E0,0E0,0E0,0E0,0E0,0E0,0E0,0E0,0E0,0E0,0E0,0E0,0E0,0E0,0E0,0E0,0E0,0E0,0E0,0E0,0E0,0E0,0E0,0E0,0E0,0E0,0E0,0E0,0E0,0E0,0E0,0E0,0E0,0E0,0E0,0E0,0E0,0E0,0E0,0E0,0E0],"parents":[2147483647,0,0,1,1,2,2,3,3,4,4,5,5,6,6,7,7,8,8,9,9,10,10,11,11,12,12,13,13,14,14,15,15,16,16,17,17,18,18,19,19,20,20,21,21,22,22,23,23,24,24,26,26,27,27,28,28,29,29,30,30,31,31,32,32,33,33,34,34,35,35,36,36,37,37,38,38,39,39,40,40,41,41,42,42,43,43,45,45,47,47,48,48,49,49,50,50,51,51,52,52,53,53,54,54,55,55,57,57,58,58,60,60],"right_children":[2,4,6,8,10,12,14,16,18,20,22,24,26,28,30,32,34,36,38,40,42,44,46,48,50,-1,52,54,56,58,60,62,64,66,68,70,72,74,76,78,80,82,84,86,-1,88,-1,90,92,94,96,98,100,102,104,106,-1,108,110,-1,112,-1,-1,-1,-1,-1,-1,-1,-1,-1,-1,-1,-1,-1,-1,-1,-1,-1,-1,-1,-1,-1,-1,-1,-1,-1,-1,-1,-1,-1,-1,-1,-1,-1,-1,-1,-1,-1,-1,-1,-1,-1,-1,-1,-1,-1,-1,-1,-1,-1,-1,-1,-1],"split_conditions":[1.1235913E0,4.0723807E-1,-1.8289355E0,-1.1273056E0,2.501785E0,1.2916975E0,1.542104E0,9.396273E-2,7.577026E-1,-1.1655327E0,-6.420521E-1,-3.7906199E0,1.1598866E0,2.7941062E0,4.309765E0,-1.1578921E0,2.7953884E-1,1.9732001E0,-3.7721452E-1,4.3805596E-1,-3.0481472E0,-8.655466E-1,2.18875E0,2.9642937E0,-8.826039E-1,1.302986E-4,1.3981467E0,4.309765E0,4.309765E0,1.5471506E-1,2.7130303E-1,9.359776E-1,-3.1079683E-1,3.4922582E-1,1.3928042E-1,4.309765E0,-8.642554E-1,-7.4667597E-1,4.309765E0,4.7176847E-1,3.861067E-1,-2.1531653E0,2.7420387E0,1.4737787E0,6.7819343E-3,5.7529798E0,1.3365791E-3,5.7529798E0,-3.6333344E0,4.309765E0,-7.8247535E-1,1.2283628E0,-2.497055E0,4.309765E0,-8.324229E-1,-1.3651445E0,1.6376093E-3,1.3421413E-1,2.7130413E-1,5.9007467E-3,-5.804313E-1,-2.2401653E-5,4.630425E-4,5.805685E-4,1.1890326E-3,1.0783644E-4,-6.0050963E-5,2.0649424E-4,5.181855E-4,-6.5657034E-5,-1.676081E-4,-2.6135327E-5,-1.5611365E-4,-1.8357325E-5,3.7536057E-4,-8.907211E-5,1.0975858E-4,3.9635654E-4,2.5246742E-3,-2.748404E-5,6.501163E-4,1.6316617E-3,2.247952E-5,7.158424E-5,6.18622E-4,3.854037E-3,6.014212E-4,2.655669E-5,5.6876004E-4,1.9253911E-3,5.260377E-4,6.5572313E-3,3.6076034E-4,9.886908E-4,-1.549098E-4,3.1104087E-4,2.5635103E-3,-1.0913732E-4,-2.1155066E-4,-4.4895805E-5,1.4624727E-4,1.7365978E-4,-1.7579044E-4,2.2714108E-4,1.2252177E-3,6.980085E-4,2.5266604E-4,1.8697159E-4,3.4746774E-3,5.264802E-5,5.9449946E-4,1.2785491E-3,1.4928186E-4],"split_indices":[5,5,15,11,15,6,15,16,15,6,6,1,5,5,39,11,4,44,6,4,3,6,6,46,10,0,16,29,30,1,10,2,4,10,0,31,11,6,30,1,2,2,3,1,0,27,0,27,2,25,17,4,2,25,0,13,0,1,6,0,7,0,0,0,0,0,0,0,0,0,0,0,0,0,0,0,0,0,0,0,0,0,0,0,0,0,0,0,0,0,0,0,0,0,0,0,0,0,0,0,0,0,0,0,0,0,0,0,0,0,0,0,0],"split_type":[0,0,0,0,0,0,0,0,0,0,0,0,0,0,0,0,0,0,0,0,0,0,0,0,0,0,0,0,0,0,0,0,0,0,0,0,0,0,0,0,0,0,0,0,0,0,0,0,0,0,0,0,0,0,0,0,0,0,0,0,0,0,0,0,0,0,0,0,0,0,0,0,0,0,0,0,0,0,0,0,0,0,0,0,0,0,0,0,0,0,0,0,0,0,0,0,0,0,0,0,0,0,0,0,0,0,0,0,0,0,0,0,0],"sum_hessian":[1.1871E4,1.0571E4,1.3E3,9.373E3,1.198E3,2.71E2,1.029E3,6.9E1,9.304E3,1.153E3,4.5E1,2.2E2,5.1E1,8.5E2,1.79E2,3.3E1,3.6E1,8.136E3,1.168E3,1.1E1,1.142E3,1.2E1,3.3E1,3.6E1,1.84E2,2E0,4.9E1,6.94E2,1.56E2,9.9E1,8E1,1.1E1,2.2E1,1.1E1,2.5E1,6.075E3,2.061E3,5.68E2,6E2,5E0,6E0,5E0,1.137E3,1.1E1,1E0,2.9E1,4E0,3E1,6E0,1.54E2,3E1,4.2E1,7E0,6.83E2,1.1E1,1.49E2,7E0,9E0,9E1,1E0,7.9E1,5E0,6E0,1.1E1,1.1E1,9E0,2E0,1.3E1,1.2E1,5.52E3,5.55E2,1.35E2,1.926E3,3.89E2,1.79E2,5.05E2,9.5E1,1E0,4E0,3E0,3E0,4E0,1E0,1.109E3,2.8E1,1E0,1E1,2.1E1,8E0,2E1,1E1,4E0,2E0,1.43E2,1.1E1,8E0,2.2E1,2.5E1,1.7E1,5E0,2E0,6.35E2,4.8E1,4E0,7E0,6.1E1,8.8E1,8E0,1E0,7.9E1,1.1E1,4.6E1,3.3E1],"tree_param":{"num_deleted":"0","num_feature":"50","num_nodes":"113","size_leaf_vector":"1"}},{"base_weights":[1.01047845E-4,-9.505011E-4,8.244256E-3,-1.4117935E-3,2.2789193E-3,2.5604414E-2,6.8820724E-3,1.0110354E-2,-1.4939575E-3,1.1608557E-2,1.6783342E-3,2.1146495E-2,8.053645E-2,6.501187E-3,4.2771157E-2,4.9025705E-3,1.5011763E-2,-1.7471163E-3,6.242688E-4,8.818425E-3,4.408542E-2,1.4123295E-3,1.55879585E-2,2.5746416E-2,5.3400905E-3,6.5812767E-3,9.313247E-3,3.4235835E-3,1.0662291E-2,7.948988E-2,9.885719E-3,1.6758778E-3,6.2326165E-3,1.9303301E-2,3.2108943E-3,-2.4377825E-3,-1.2127648E-3,5.7358034E-3,1.1813224E-5,1.22486185E-2,2.0146605E-3,5.2329756E-2,7.1593495E-5,1.3937643E-2,1.168442E-3,6.728677E-3,7.240694E-2,1.9647004E-2,4.3965314E-2,3.1614233E-2,-4.723654E-4,1.3085702E-4,5.3364516E-4,2.4580606E-3,1.2160263E-2,2.3642229E-2,8.8846125E-3,2.7987616E-2,6.083147E-3,2.5291727E-3,8.304987E-4,-2.2978087E-5,1.1007412E-4,3.730509E-4,1.1794907E-4,-3.0668933E-5,1.0570895E-3,3.538084E-5,6.4350985E-4,-1.3684742E-4,-5.9030386E-5,-6.378654E-5,3.625541E-4,1.5181575E-4,6.4772734E-4,-3.528452E-5,1.6478483E-4,8.816097E-4,3.4040312E-4,6.20177E-4,-8.6109016E-5,2.8715634E-3,7.9809263E-4,2.868918E-4,1.2011805E-3,4.8094178E-5,5.003589E-4,1.5138249E-3,5.610064E-5,4.8114615E-3,6.1905914E-4,8.404373E-4,3.1620269E-3,1.4538347E-3,3.6941327E-3,3.1304258E-4,1.8989205E-3,-2.1931455E-4,5.6819426E-4,7.9555226E-5,5.694346E-4,1.3946815E-3,3.7239338E-4,1.3547438E-3,-1.7407896E-4,1.5799588E-3,4.259821E-4,1.8646164E-4,1.7415334E-3,3.0575588E-4,-9.4991505E-5],"categories":[],"categories_nodes":[],"categories_segments":[],"categories_sizes":[],"default_left":[0,0,0,0,0,0,0,0,0,0,0,0,0,0,0,0,0,0,0,0,0,0,0,0,0,0,0,0,0,0,0,0,0,0,0,0,0,0,0,0,0,0,0,0,0,0,0,0,0,0,0,0,0,0,0,0,0,0,0,0,0,0,0,0,0,0,0,0,0,0,0,0,0,0,0,0,0,0,0,0,0,0,0,0,0,0,0,0,0,0,0,0,0,0,0,0,0,0,0,0,0,0,0,0,0,0,0,0,0,0,0],"id":9,"left_children":[1,3,5,7,9,11,13,15,17,19,21,23,25,27,29,31,33,35,37,39,41,43,45,47,49,-1,51,53,55,57,59,61,63,65,67,69,71,73,75,77,79,81,-1,83,85,87,89,91,93,95,97,-1,-1,99,101,103,105,107,-1,109,-1,-1,-1,-1,-1,-1,-1,-1,-1,-1,-1,-1,-1,-1,-1,-1,-1,-1,-1,-1,-1,-1,-1,-1,-1,-1,-1,-1,-1,-1,-1,-1,-1,-1,-1,-1,-1,-1,-1,-1,-1,-1,-1,-1,-1,-1,-1,-1,-1,-1,-1],"loss_changes":[1.0123084E-1,1.5600451E-2,3.17955E-2,8.688819E-3,7.3151602E-3,2.229543E-2,1.6877305E-2,1.5855595E-3,4.8798732E-3,6.7697996E-3,4.5327162E-3,6.5516643E-3,2.4245232E-2,1.5881643E-2,1.4911832E-2,1.3117929E-4,1.6092672E-3,2.9963795E-3,3.0428634E-3,1.7023524E-3,2.0349715E-3,3.6769297E-3,1.109043E-2,7.0260614E-3,3.374714E-3,0E0,8.485105E-6,6.009901E-3,1.1973113E-2,9.626992E-3,3.537289E-4,1.335808E-5,9.18422E-5,8.917656E-4,2.3269196E-4,1.3296809E-3,2.4522198E-3,1.9873055E-3,2.049862E-3,1.3151513E-3,1.0307225E-3,1.0947697E-5,0E0,1.764325E-3,2.157498E-3,2.7385487E-3,3.0984208E-3,5.7421364E-3,5.424008E-3,4.0763617E-4,9.300431E-4,0E0,0E0,4.983512E-3,5.0563244E-3,5.994212E-3,3.5939924E-3,5.3411373E-4,0E0,9.102849E-5,0E0,0E0,0E0,0E0,0E0,0E0,0E0,0E0,0E0,0E0,0E0,0E0,0E0,0E0,0E0,0E0,0E0,0E0,0E0,0E0,0E0,0E0,0E0,0E0,0E0,0E0,0E0,0E0,0E0,0E0,0E0,0E0,0E0,0E0,0E0,0E0,0E0,0E0,0E0,0E0,0E0,0E0,0E0,0E0,0E0,0E0,0E0,0E0,0E0,0E0,0E0],"parents":[2147483647,0,0,1,1,2,2,3,3,4,4,5,5,6,6,7,7,8,8,9,9,10,10,11,11,12,12,13,13,14,14,15,15,16,16,17,17,18,18,19,19,20,20,21,21,22,22,23,23,24,24,26,26,27,27,28,28,29,29,30,30,31,31,32,32,33,33,34,34,35,35,36,36,37,37,38,38,39,39,40,40,41,41,43,43,44,44,45,45,46,46,47,47,48,48,49,49,50,50,53,53,54,54,55,55,56,56,57,57,59,59],"right_children":[2,4,6,8,10,12,14,16,18,20,22,24,26,28,30,32,34,36,38,40,42,44,46,48,50,-1,52,54,56,58,60,62,64,66,68,70,72,74,76,78,80,82,-1,84,86,88,90,92,94,96,98,-1,-1,100,102,104,106,108,-1,110,-1,-1,-1,-1,-1,-1,-1,-1,-1,-1,-1,-1,-1,-1,-1,-1,-1,-1,-1,-1,-1,-1,-1,-1,-1,-1,-1,-1,-1,-1,-1,-1,-1,-1,-1,-1,-1,-1,-1,-1,-1,-1,-1,-1,-1,-1,-1,-1,-1,-1,-1],"split_conditions":[9.8455775E-1,4.0723807E-1,-3.3700893E0,-1.1273056E0,-1.495527E0,4.309765E0,1.8900757E0,8.884546E-1,2.9642937E0,1.5045325E0,2.0505009E0,-1.2230655E0,-3.6333344E0,1.6080829E0,-5.8893704E-1,9.2407864E-1,2.8611854E-1,-5.367384E-1,-7.975018E-1,5.6105036E-1,-2.015618E0,-1.1207683E0,2.6898878E0,-2.4518301E0,-1.834458E0,6.5812767E-3,-6.869628E-1,5.7529798E0,-1.1654139E0,-9.1047555E-1,9.547656E-1,-1.0196381E0,1.2884589E-1,2.4654198E-1,2.271627E0,4.0838826E-1,1.8166133E0,-8.9867055E-1,9.611436E-1,1.5041096E0,-1.4254574E0,-1.7441413E0,7.1593495E-5,4.6211386E-1,1.9578893E0,-9.5568115E-1,1.53638E0,4.309765E0,3.0634592E0,-3.7906199E0,-1.1512223E0,1.3085702E-4,5.3364516E-4,2.7420387E0,3.577924E-1,1.1493894E0,-3.1197517E0,3.093353E0,6.083147E-3,-9.495863E-2,8.304987E-4,-2.2978087E-5,1.1007412E-4,3.730509E-4,1.1794907E-4,-3.0668933E-5,1.0570895E-3,3.538084E-5,6.4350985E-4,-1.3684742E-4,-5.9030386E-5,-6.378654E-5,3.625541E-4,1.5181575E-4,6.4772734E-4,-3.528452E-5,1.6478483E-4,8.816097E-4,3.4040312E-4,6.20177E-4,-8.6109016E-5,2.8715634E-3,7.9809263E-4,2.868918E-4,1.2011805E-3,4.8094178E-5,5.003589E-4,1.5138249E-3,5.610064E-5,4.8114615E-3,6.1905914E-4,8.404373E-4,3.1620269E-3,1.4538347E-3,3.6941327E-3,3.1304258E-4,1.8989205E-3,-2.1931455E-4,5.6819426E-4,7.9555226E-5,5.694346E-4,1.3946815E-3,3.7239338E-4,1.3547438E-3,-1.7407896E-4,1.5799588E-3,4.259821E-4,1.8646164E-4,1.7415334E-3,3.0575588E-4,-9.4991505E-5],"split_indices":[8,5,15,11,9,28,9,9,46,5,3,9,2,5,11,21,8,5,11,8,2,7,1,1,10,0,7,27,9,7,5,1,14,13,15,11,2,11,10,49,13,3,0,1,11,7,2,33,5,1,10,0,0,3,7,11,2,2,0,1,0,0,0,0,0,0,0,0,0,0,0,0,0,0,0,0,0,0,0,0,0,0,0,0,0,0,0,0,0,0,0,0,0,0,0,0,0,0,0,0,0,0,0,0,0,0,0,0,0,0,0],"split_type":[0,0,0,0,0,0,0,0,0,0,0,0,0,0,0,0,0,0,0,0,0,0,0,0,0,0,0,0,0,0,0,0,0,0,0,0,0,0,0,0,0,0,0,0,0,0,0,0,0,0,0,0,0,0,0,0,0,0,0,0,0,0,0,0,0,0,0,0,0,0,0,0,0,0,0,0,0,0,0,0,0,0,0,0,0,0,0,0,0,0,0,0,0,0,0,0,0,0,0,0,0,0,0,0,0,0,0,0,0,0,0],"sum_hessian":[1.182E4,1.0469E4,1.351E3,9.161E3,1.308E3,9.7E1,1.254E3,6.4E1,9.097E3,7.8E1,1.23E3,9.1E1,6E0,1.242E3,1.2E1,3.2E1,3.2E1,8.126E3,9.71E2,7.3E1,5E0,1.208E3,2.2E1,7E1,2.1E1,3E0,3E0,7.15E2,5.27E2,5E0,7E0,1E1,2.2E1,2.3E1,9E0,3.543E3,4.583E3,1.03E2,8.68E2,4.8E1,2.5E1,4E0,1E0,2.2E1,1.186E3,2E1,2E0,5.4E1,1.6E1,3E0,1.8E1,1E0,2E0,6.45E2,7E1,6.2E1,4.65E2,3E0,2E0,4E0,3E0,2E0,8E0,1.6E1,6E0,2E0,2.1E1,8E0,1E0,2.861E3,6.82E2,4.55E3,3.3E1,7.6E1,2.7E1,7.13E2,1.55E2,2.3E1,2.5E1,6E0,1.9E1,3E0,1E0,1.3E1,9E0,1.16E3,2.6E1,3E0,1.7E1,1E0,1E0,5.2E1,2E0,1.2E1,4E0,1E0,2E0,1.4E1,4E0,5.89E2,5.6E1,1.5E1,5.5E1,5.5E1,7E0,6E0,4.59E2,1E0,2E0,2E0,2E0],"tree_param":{"num_deleted":"0","num_feature":"50","num_nodes":"111","size_leaf_vector":"1"}},{"base_weights":[3.2534386E-5,-8.3778077E-4,1.005546E-2,-1.4044141E-3,2.917901E-3,2.6012579E-2,6.924176E-3,9.189233E-3,-1.4995997E-3,1.3515532E-3,6.926562E-3,2.3357607E-2,8.7608956E-2,4.4931145E-3,1.12226335E-2,7.963846E-3,2.695757E-2,-1.1203242E-3,-2.7459727E-3,5.872867E-3,1.4829733E-4,1.5226377E-2,1.971984E-3,2.7526712E-2,-1.9607153E-3,6.3344794E-3,3.1492382E-4,5.7800473E-3,-4.056241E-4,6.637435E-3,1.7344533E-2,2.0469467E-3,9.648642E-3,3.7832437E-3,2.057302E-3,-3.3539676E-4,-1.7878723E-3,-7.5807207E-4,-2.9433758E-3,4.914427E-3,1.5029099E-3,-3.079224E-4,4.8947493E-3,7.1083484E-3,7.784235E-2,3.9330794E-4,1.5054583E-2,3.0985067E-2,3.12305E-3,-3.2001873E-3,6.01705E-4,4.949762E-3,2.130798E-2,-2.3049458E-3,1.042212E-2,2.71854E-3,2.7333166E-2,3.9923802E-2,1.3772714E-2,1.4878467E-4,-1.08988854E-4,6.014064E-4,6.9552014E-5,-6.404214E-5,3.4778542E-4,-3.5443572E-5,4.101412E-4,-1.3466265E-4,-6.115791E-5,1.0477946E-3,-4.8733516E-5,-1.5117005E-4,-2.0950165E-5,2.0638904E-4,1.2032305E-3,5.715973E-4,-2.2602064E-5,1.1612809E-3,1.577072E-4,9.15332E-5,6.1399693E-4,2.0298015E-3,9.437194E-3,-1.747762E-5,3.8131553E-4,1.0863285E-3,3.0990446E-4,1.2325802E-3,2.2107179E-3,-5.847167E-5,8.68299E-4,-7.127152E-5,-1.7669643E-4,1.469323E-4,4.0307207E-4,-1.8594052E-4,1.2971613E-3,-1.6019691E-4,1.6677327E-4,1.8058374E-4,1.0585458E-3,2.456941E-4,-7.070021E-5,1.9010674E-3,8.480204E-4,-1.6138925E-4,2.5065076E-3,5.8475754E-4,1.8880487E-3],"categories":[],"categories_nodes":[],"categories_segments":[],"categories_sizes":[],"default_left":[0,0,0,0,0,0,0,0,0,0,0,0,0,0,0,0,0,0,0,0,0,0,0,0,0,0,0,0,0,0,0,0,0,0,0,0,0,0,0,0,0,0,0,0,0,0,0,0,0,0,0,0,0,0,0,0,0,0,0,0,0,0,0,0,0,0,0,0,0,0,0,0,0,0,0,0,0,0,0,0,0,0,0,0,0,0,0,0,0,0,0,0,0,0,0,0,0,0,0,0,0,0,0,0,0,0,0,0,0],"id":10,"left_children":[1,3,5,7,9,11,13,15,17,19,21,23,25,27,29,31,33,35,37,39,41,43,45,47,49,-1,-1,51,53,55,57,59,61,63,-1,65,67,69,71,73,-1,75,77,79,81,83,85,87,89,91,-1,93,95,97,99,101,103,105,107,-1,-1,-1,-1,-1,-1,-1,-1,-1,-1,-1,-1,-1,-1,-1,-1,-1,-1,-1,-1,-1,-1,-1,-1,-1,-1,-1,-1,-1,-1,-1,-1,-1,-1,-1,-1,-1,-1,-1,-1,-1,-1,-1,-1,-1,-1,-1,-1,-1,-1],"loss_changes":[1.0274042E-1,2.3066256E-2,4.6838142E-2,9.509524E-3,8.913036E-3,2.3138314E-2,8.184031E-3,1.6142521E-3,4.4092797E-3,5.5645527E-3,1.6377686E-2,1.5781634E-2,1.8268038E-2,3.1860396E-3,7.856794E-3,7.7775074E-4,1.4883755E-3,3.7500272E-3,8.520633E-4,4.836021E-3,1.7533362E-3,7.5186096E-2,5.1780287E-3,1.0705978E-2,4.201274E-4,0E0,0E0,5.0515775E-3,2.2039518E-3,1.3226813E-2,9.2086755E-3,8.107193E-5,1.2014974E-3,5.7106077E-5,0E0,1.0500184E-2,1.9743405E-3,9.5165987E-4,3.9871782E-4,3.034065E-3,0E0,1.2555087E-3,2.1921264E-3,3.6076237E-3,6.2559195E-2,1.2116156E-3,1.4607781E-3,8.294217E-3,1.0596465E-3,7.4011186E-6,0E0,2.3605889E-3,2.4165837E-3,4.7211917E-4,1.094803E-3,1.2680044E-3,2.237659E-3,7.2085336E-3,4.8411153E-3,0E0,0E0,0E0,0E0,0E0,0E0,0E0,0E0,0E0,0E0,0E0,0E0,0E0,0E0,0E0,0E0,0E0,0E0,0E0,0E0,0E0,0E0,0E0,0E0,0E0,0E0,0E0,0E0,0E0,0E0,0E0,0E0,0E0,0E0,0E0,0E0,0E0,0E0,0E0,0E0,0E0,0E0,0E0,0E0,0E0,0E0,0E0,0E0,0E0,0E0],"parents":[2147483647,0,0,1,1,2,2,3,3,4,4,5,5,6,6,7,7,8,8,9,9,10,10,11,11,12,12,13,13,14,14,15,15,16,16,17,17,18,18,19,19,20,20,21,21,22,22,23,23,24,24,27,27,28,28,29,29,30,30,31,31,32,32,33,33,35,35,36,36,37,37,38,38,39,39,41,41,42,42,43,43,44,44,45,45,46,46,47,47,48,48,49,49,51,51,52,52,53,53,54,54,55,55,56,56,57,57,58,58],"right_children":[2,4,6,8,10,12,14,16,18,20,22,24,26,28,30,32,34,36,38,40,42,44,46,48,50,-1,-1,52,54,56,58,60,62,64,-1,66,68,70,72,74,-1,76,78,80,82,84,86,88,90,92,-1,94,96,98,100,102,104,106,108,-1,-1,-1,-1,-1,-1,-1,-1,-1,-1,-1,-1,-1,-1,-1,-1,-1,-1,-1,-1,-1,-1,-1,-1,-1,-1,-1,-1,-1,-1,-1,-1,-1,-1,-1,-1,-1,-1,-1,-1,-1,-1,-1,-1,-1,-1,-1,-1,-1,-1],"split_conditions":[1.4369962E0,4.7218668E-1,-1.2230655E0,-1.1207683E0,9.429441E-1,4.309765E0,2.7941062E0,3.266013E-1,1.9732001E0,-1.2087659E0,-5.9362733E-1,1.3447855E0,-3.6333344E0,5.1338875E-1,1.5041096E0,-1.92207E-2,5.611705E-1,-1.4935878E-1,-8.700588E-1,2.3504663E0,5.7529798E0,4.309765E0,1.9041332E0,-1.4021411E0,1.6888661E0,6.3344794E-3,3.1492382E-4,3.9947206E-1,1.7228261E0,-4.603872E-1,-1.7251768E0,3.4922582E-1,1.7232746E0,-2.2385101E0,2.057302E-3,4.309765E0,2.2489433E-1,-1.0974157E0,4.2108417E-1,3.217142E0,1.5029099E-3,-1.1655327E0,1.1486181E-1,1.5041096E0,9.826406E-1,5.7529798E0,9.547656E-1,-3.8429892E-1,1.2845654E0,-3.2000685E-1,6.01705E-4,1.0923694E0,5.7529798E0,5.7529798E0,-1.5788823E-1,-7.8524065E-1,-3.394883E-1,8.3503777E-1,1.0198069E0,1.4878467E-4,-1.08988854E-4,6.014064E-4,6.9552014E-5,-6.404214E-5,3.4778542E-4,-3.5443572E-5,4.101412E-4,-1.3466265E-4,-6.115791E-5,1.0477946E-3,-4.8733516E-5,-1.5117005E-4,-2.0950165E-5,2.0638904E-4,1.2032305E-3,5.715973E-4,-2.2602064E-5,1.1612809E-3,1.577072E-4,9.15332E-5,6.1399693E-4,2.0298015E-3,9.437194E-3,-1.747762E-5,3.8131553E-4,1.0863285E-3,3.0990446E-4,1.2325802E-3,2.2107179E-3,-5.847167E-5,8.68299E-4,-7.127152E-5,-1.7669643E-4,1.469323E-4,4.0307207E-4,-1.8594052E-4,1.2971613E-3,-1.6019691E-4,1.6677327E-4,1.8058374E-4,1.0585458E-3,2.456941E-4,-7.070021E-5,1.9010674E-3,8.480204E-4,-1.6138925E-4,2.5065076E-3,5.8475754E-4,1.8880487E-3],"split_indices":[5,5,9,7,20,28,5,5,44,9,6,6,2,7,49,2,0,6,6,48,27,39,6,20,7,0,0,7,7,7,2,10,20,0,0,24,6,2,7,8,0,6,7,49,0,27,5,7,8,16,0,22,27,27,2,7,9,4,9,0,0,0,0,0,0,0,0,0,0,0,0,0,0,0,0,0,0,0,0,0,0,0,0,0,0,0,0,0,0,0,0,0,0,0,0,0,0,0,0,0,0,0,0,0,0,0,0,0,0],"split_type":[0,0,0,0,0,0,0,0,0,0,0,0,0,0,0,0,0,0,0,0,0,0,0,0,0,0,0,0,0,0,0,0,0,0,0,0,0,0,0,0,0,0,0,0,0,0,0,0,0,0,0,0,0,0,0,0,0,0,0,0,0,0,0,0,0,0,0,0,0,0,0,0,0,0,0,0,0,0,0,0,0,0,0,0,0,0,0,0,0,0,0,0,0,0,0,0,0,0,0,0,0,0,0,0,0,0,0,0,0],"sum_hessian":[1.1776E4,1.0836E4,9.4E2,9.416E3,1.42E3,1.53E2,7.87E2,8.3E1,9.333E3,1.022E3,3.98E2,1.48E2,5E0,5.04E2,2.83E2,7.9E1,4E0,7.157E3,2.176E3,2.14E2,8.08E2,1.48E2,2.5E2,1.27E2,2.1E1,3E0,2E0,3.99E2,1.05E2,1.63E2,1.2E2,1.8E1,6.1E1,2E0,2E0,3.29E3,3.867E3,1.97E2,1.979E3,2.07E2,7E0,7.38E2,7E1,1.32E2,1.6E1,2.24E2,2.6E1,1.11E2,1.6E1,2E1,1E0,3.8E2,1.9E1,9E1,1.5E1,1.38E2,2.5E1,1.5E1,1.05E2,1.5E1,3E0,4.7E1,1.4E1,1E0,1E0,3.153E3,1.37E2,1.484E3,2.383E3,1E0,1.96E2,1.918E3,6.1E1,2E2,7E0,8E0,7.3E2,5E0,6.5E1,6.6E1,6.6E1,1.3E1,3E0,2.04E2,2E1,1.4E1,1.2E1,7.7E1,3.4E1,1.3E1,3E0,4E0,1.6E1,2.32E2,1.48E2,3E0,1.6E1,7.8E1,1.2E1,1E1,5E0,9E1,4.8E1,1.1E1,1.4E1,3E0,1.2E1,9.8E1,7E0],"tree_param":{"num_deleted":"0","num_feature":"50","num_nodes":"109","size_leaf_vector":"1"}},{"base_weights":[5.5801007E-5,-9.4853836E-4,6.5152207E-3,9.909298E-3,-1.0581738E-3,2.0612113E-2,5.3776535E-3,3.2283382E-3,1.6526958E-2,-1.7492084E-3,2.1485721E-4,9.2934E-3,2.9389078E-2,4.2994814E-3,1.3068686E-2,1.7980537E-3,9.055727E-3,1.8533729E-3,1.4470939E-2,-1.9409433E-3,1.0843738E-4,-1.10066576E-4,2.9927273E-3,6.393769E-3,2.7744665E-3,8.889325E-2,1.9648964E-2,8.36975E-3,2.3503387E-3,3.487117E-2,8.650521E-3,3.089324E-3,-1.0973864E-3,1.0155344E-2,-2.1020673E-5,2.370279E-2,1.1417747E-2,-2.1539757E-3,-8.005684E-4,-2.6734048E-4,9.75958E-3,8.6628547E-4,-9.6762367E-4,2.5167018E-3,1.5944762E-2,2.0156575E-3,3.4339505E-3,1.0007697E-1,-1.4413835E-5,1.0315957E-2,3.9815873E-2,7.3825913E-3,3.264901E-2,6.390642E-3,1.0689922E-3,1.2713208E-2,8.5160494E-2,4.7922605E-3,1.5694242E-2,-5.0134066E-5,1.878714E-4,3.8608337E-5,-1.5386245E-4,1.5639949E-4,6.573845E-4,4.90667E-4,1.3842332E-3,5.0221535E-4,1.5558755E-3,-1.250789E-4,-8.857338E-5,-5.628243E-5,2.0671383E-4,3.9876072E-4,-2.6267604E-5,2.8184263E-4,1.3966663E-3,-5.952766E-6,1.9060301E-4,1.3437248E-5,-8.555506E-5,9.764738E-5,6.888197E-4,1.771923E-3,1.6716457E-4,5.9935755E-5,8.1773987E-4,1.3809147E-3,5.3241374E-3,1.2944828E-3,1.08033906E-4,4.116597E-4,2.9582735E-3,3.3668542E-4,2.151809E-3,1.7020552E-3,2.9419136E-4,2.40861E-4,2.27587E-3,1.3897999E-3,4.7312904E-5,1.7424591E-3,2.9904224E-6,-1.2986345E-5,6.395695E-3,9.812762E-5,5.468027E-4,2.9018156E-3,5.9964956E-4],"categories":[],"categories_nodes":[],"categories_segments":[],"categories_sizes":[],"default_left":[0,0,0,0,0,0,0,0,0,0,0,0,0,0,0,0,0,0,0,0,0,0,0,0,0,0,0,0,0,0,0,0,0,0,0,0,0,0,0,0,0,0,0,0,0,0,0,0,0,0,0,0,0,0,0,0,0,0,0,0,0,0,0,0,0,0,0,0,0,0,0,0,0,0,0,0,0,0,0,0,0,0,0,0,0,0,0,0,0,0,0,0,0,0,0,0,0,0,0,0,0,0,0,0,0,0,0,0,0],"id":11,"left_children":[1,3,5,7,9,11,13,15,17,19,21,23,25,27,29,31,33,-1,35,37,39,41,43,45,-1,47,49,51,53,55,57,59,61,63,-1,65,67,69,71,73,75,77,79,81,83,-1,85,87,-1,89,91,93,95,97,99,101,103,105,107,-1,-1,-1,-1,-1,-1,-1,-1,-1,-1,-1,-1,-1,-1,-1,-1,-1,-1,-1,-1,-1,-1,-1,-1,-1,-1,-1,-1,-1,-1,-1,-1,-1,-1,-1,-1,-1,-1,-1,-1,-1,-1,-1,-1,-1,-1,-1,-1,-1,-1],"loss_changes":[7.641537E-2,1.2145465E-2,2.530647E-2,4.456301E-3,8.879274E-3,1.1449464E-2,1.2116846E-2,4.1712815E-4,1.6174149E-3,2.3303106E-3,3.2063508E-3,6.7446246E-3,3.6505446E-2,1.0206658E-2,1.7037204E-2,1.641584E-4,1.08470675E-4,0E0,1.0823244E-3,1.4388878E-3,2.2257678E-3,2.6642182E-3,2.2534376E-3,4.9817218E-3,0E0,9.005286E-3,1.0505898E-2,9.75341E-3,4.5127138E-3,3.2346606E-2,4.0284405E-3,8.5784035E-5,5.419658E-5,1.4812872E-4,0E0,3.36688E-4,7.155915E-4,6.598402E-4,1.5045999E-3,1.2610544E-3,1.5658282E-3,4.319511E-3,1.5576056E-3,2.258267E-3,3.0749587E-3,0E0,1.3666898E-3,7.7236444E-4,0E0,5.151383E-3,1.0512898E-2,9.010483E-3,3.9585866E-4,1.27089415E-2,2.1518278E-3,6.1600124E-3,3.2901257E-2,1.6996665E-3,7.6100584E-3,0E0,0E0,0E0,0E0,0E0,0E0,0E0,0E0,0E0,0E0,0E0,0E0,0E0,0E0,0E0,0E0,0E0,0E0,0E0,0E0,0E0,0E0,0E0,0E0,0E0,0E0,0E0,0E0,0E0,0E0,0E0,0E0,0E0,0E0,0E0,0E0,0E0,0E0,0E0,0E0,0E0,0E0,0E0,0E0,0E0,0E0,0E0,0E0,0E0,0E0],"parents":[2147483647,0,0,1,1,2,2,3,3,4,4,5,5,6,6,7,7,8,8,9,9,10,10,11,11,12,12,13,13,14,14,15,15,16,16,18,18,19,19,20,20,21,21,22,22,23,23,25,25,26,26,27,27,28,28,29,29,30,30,31,31,32,32,33,33,35,35,36,36,37,37,38,38,39,39,40,40,41,41,42,42,43,43,44,44,46,46,47,47,49,49,50,50,51,51,52,52,53,53,54,54,55,55,56,56,57,57,58,58],"right_children":[2,4,6,8,10,12,14,16,18,20,22,24,26,28,30,32,34,-1,36,38,40,42,44,46,-1,48,50,52,54,56,58,60,62,64,-1,66,68,70,72,74,76,78,80,82,84,-1,86,88,-1,90,92,94,96,98,100,102,104,106,108,-1,-1,-1,-1,-1,-1,-1,-1,-1,-1,-1,-1,-1,-1,-1,-1,-1,-1,-1,-1,-1,-1,-1,-1,-1,-1,-1,-1,-1,-1,-1,-1,-1,-1,-1,-1,-1,-1,-1,-1,-1,-1,-1,-1,-1,-1,-1,-1,-1,-1],"split_conditions":[8.907397E-1,-1.1273056E0,-2.7690086E0,7.3700345E-1,-1.4977627E-1,-1.6504346E0,1.7883569E0,1.5125703E0,-1.3382373E0,2.9642937E0,1.1140103E0,4.309765E0,-1.5776871E0,-1.2623129E0,1.1937588E0,3.3085024E-1,7.305597E-1,1.8533729E-3,6.659334E-1,4.5652217E-1,8.471885E-1,-3.696659E-1,8.3503777E-1,-2.8712016E-1,2.7744665E-3,-2.2189636E0,-1.0357295E0,2.3504663E0,1.2642781E-1,4.309765E0,7.2430646E-1,-5.246215E-1,-1.180657E0,6.2234735E-1,-2.1020673E-5,3.9055675E-1,2.1600902E0,-5.234492E-1,4.309765E0,-1.0571082E0,1.6517812E0,-7.3252094E-1,1.0923694E0,1.75148E0,-6.867196E-1,2.0156575E-3,9.3777424E-1,9.2628753E-1,-1.4413835E-5,-3.030761E0,2.4033139E0,4.309765E0,1.1878848E0,1.1706374E-1,-1.2464875E0,4.6251932E-1,-5.687739E-1,3.526957E0,8.884546E-1,-5.0134066E-5,1.878714E-4,3.8608337E-5,-1.5386245E-4,1.5639949E-4,6.573845E-4,4.90667E-4,1.3842332E-3,5.0221535E-4,1.5558755E-3,-1.250789E-4,-8.857338E-5,-5.628243E-5,2.0671383E-4,3.9876072E-4,-2.6267604E-5,2.8184263E-4,1.3966663E-3,-5.952766E-6,1.9060301E-4,1.3437248E-5,-8.555506E-5,9.764738E-5,6.888197E-4,1.771923E-3,1.6716457E-4,5.9935755E-5,8.1773987E-4,1.3809147E-3,5.3241374E-3,1.2944828E-3,1.08033906E-4,4.116597E-4,2.9582735E-3,3.3668542E-4,2.151809E-3,1.7020552E-3,2.9419136E-4,2.40861E-4,2.27587E-3,1.3897999E-3,4.7312904E-5,1.7424591E-3,2.9904224E-6,-1.2986345E-5,6.395695E-3,9.812762E-5,5.468027E-4,2.9018156E-3,5.9964956E-4],"split_indices":[4,11,19,9,8,10,3,13,16,46,8,33,10,3,8,17,9,0,15,15,15,12,4,14,0,3,10,48,16,39,17,3,11,10,0,3,0,4,24,15,14,11,22,11,16,0,0,4,0,1,4,38,12,16,17,10,0,8,9,0,0,0,0,0,0,0,0,0,0,0,0,0,0,0,0,0,0,0,0,0,0,0,0,0,0,0,0,0,0,0,0,0,0,0,0,0,0,0,0,0,0,0,0,0,0,0,0,0,0],"split_type":[0,0,0,0,0,0,0,0,0,0,0,0,0,0,0,0,0,0,0,0,0,0,0,0,0,0,0,0,0,0,0,0,0,0,0,0,0,0,0,0,0,0,0,0,0,0,0,0,0,0,0,0,0,0,0,0,0,0,0,0,0,0,0,0,0,0,0,0,0,0,0,0,0,0,0,0,0,0,0,0,0,0,0,0,0,0,0,0,0,0,0,0,0,0,0,0,0,0,0,0,0,0,0,0,0,0,0,0,0],"sum_hessian":[1.1777E4,1.0193E4,1.584E3,1.01E2,1.0092E4,1.17E2,1.467E3,5.1E1,5E1,6.541E3,3.551E3,5.2E1,6.5E1,1.288E3,1.79E2,4.2E1,9E0,3E0,4.7E1,5.929E3,6.12E2,3.18E3,3.71E2,5E1,2E0,8E0,5.7E1,4.16E2,8.72E2,2.9E1,1.5E2,2.9E1,1.3E1,8E0,1E0,1E1,3.7E1,4.995E3,9.34E2,5.9E2,2.2E1,1.487E3,1.693E3,3.59E2,1.2E1,3E0,4.7E1,7E0,1E0,4E1,1.7E1,4.01E2,1.5E1,2.09E2,6.63E2,2.1E1,8E0,9.8E1,5.2E1,4E0,2.5E1,7E0,6E0,3E0,5E0,3E0,7E0,3.6E1,1E0,2.614E3,2.381E3,8.77E2,5.7E1,1.7E1,5.73E2,1.9E1,3E0,1.115E3,3.72E2,6.36E2,1.057E3,3.43E2,1.6E1,4E0,8E0,4.1E1,6E0,1E0,6E0,1.3E1,2.7E1,7E0,1E1,3.95E2,6E0,1.4E1,1E0,2.02E2,7E0,2E0,6.61E2,7E0,1.4E1,3E0,5E0,6.8E1,3E1,3E0,4.9E1],"tree_param":{"num_deleted":"0","num_feature":"50","num_nodes":"109","size_leaf_vector":"1"}},{"base_weights":[3.4798235E-5,-6.204745E-4,9.1027785E-3,-1.2530043E-3,2.4017158E-3,2.4341354E-2,6.2405183E-3,7.541023E-3,-1.3167947E-3,1.8782202E-3,1.0499708E-2,2.1975324E-2,9.1011465E-2,3.7270682E-3,9.829372E-3,3.6458287E-3,1.2093729E-2,-1.4730261E-3,1.5288729E-3,1.4122145E-3,7.611712E-3,4.2323233E-3,3.004605E-2,3.6838636E-2,1.4635945E-2,5.8446135E-3,3.342262E-4,5.2525867E-3,-1.5519576E-3,5.924453E-3,1.5198058E-2,2.1865705E-3,6.1716456E-3,2.0410974E-2,6.2042205E-3,-1.1445853E-3,-2.4749737E-3,1.0255231E-3,1.9260827E-2,3.2317862E-3,1.3391218E-4,2.5876299E-2,5.2846E-3,3.0080069E-2,2.001401E-3,9.550789E-2,3.6774394E-3,4.980831E-2,1.821968E-2,1.1325241E-2,2.7893775E-3,4.6063876E-3,1.6798217E-2,-3.1463876E-3,1.0184986E-2,2.2259315E-3,2.3545023E-2,2.197052E-2,3.6165186E-3,1.2079381E-4,-8.29191E-5,-2.6889718E-5,3.7202172E-4,1.1193611E-3,-3.319357E-5,4.403096E-4,2.4283461E-5,-7.43305E-5,1.8135075E-5,-9.882262E-6,-1.3122817E-4,2.3887912E-4,-7.4954437E-6,1.0797129E-3,2.1423267E-4,8.9212524E-5,2.2471966E-3,-6.20393E-6,8.962856E-4,-1.9486435E-5,1.3890141E-3,1.1424832E-4,6.607191E-4,1.8206495E-4,1.996366E-3,4.2179218E-4,4.505984E-5,1.3542151E-3,7.85802E-3,3.619186E-5,8.0246443E-4,1.2620774E-3,3.3382082E-3,8.398357E-5,1.9342367E-3,8.983056E-4,-3.720284E-5,5.164906E-4,1.5003678E-4,3.5723086E-5,1.3188513E-3,-7.625715E-5,-1.949372E-4,3.6284877E-5,1.0695496E-3,2.8782184E-4,-2.5408448E-5,1.4892505E-3,3.5311372E-4,2.772625E-3,8.498273E-4,-1.0974437E-4,4.5090073E-4],"categories":[],"categories_nodes":[],"categories_segments":[],"categories_sizes":[],"default_left":[0,0,0,0,0,0,0,0,0,0,0,0,0,0,0,0,0,0,0,0,0,0,0,0,0,0,0,0,0,0,0,0,0,0,0,0,0,0,0,0,0,0,0,0,0,0,0,0,0,0,0,0,0,0,0,0,0,0,0,0,0,0,0,0,0,0,0,0,0,0,0,0,0,0,0,0,0,0,0,0,0,0,0,0,0,0,0,0,0,0,0,0,0,0,0,0,0,0,0,0,0,0,0,0,0,0,0,0,0,0,0,0,0],"id":12,"left_children":[1,3,5,7,9,11,13,15,17,19,21,23,25,27,29,31,33,35,37,39,41,43,45,47,49,-1,-1,51,53,55,57,59,61,63,65,67,69,71,73,75,77,79,81,83,85,87,89,91,93,95,-1,97,99,101,103,105,107,109,111,-1,-1,-1,-1,-1,-1,-1,-1,-1,-1,-1,-1,-1,-1,-1,-1,-1,-1,-1,-1,-1,-1,-1,-1,-1,-1,-1,-1,-1,-1,-1,-1,-1,-1,-1,-1,-1,-1,-1,-1,-1,-1,-1,-1,-1,-1,-1,-1,-1,-1,-1,-1,-1,-1],"loss_changes":[7.044806E-2,2.1139853E-2,3.4697898E-2,5.1394794E-3,8.09423E-3,1.7875679E-2,6.0431156E-3,1.126331E-3,4.038619E-3,4.795891E-3,1.4083349E-2,1.2878589E-2,7.948428E-3,3.213347E-3,5.717067E-3,1.2288056E-4,1.3429001E-3,2.829561E-3,4.201951E-3,3.8722947E-3,5.601259E-3,5.0719217E-3,4.7980636E-2,8.751776E-3,1.0812413E-2,0E0,0E0,2.228002E-3,1.7162821E-3,1.050514E-2,9.0190675E-3,2.6048168E-5,1.1466857E-4,5.146512E-4,2.7843378E-4,3.34323E-3,7.230537E-4,2.03386E-3,3.617718E-4,4.140074E-2,4.4959513E-3,7.6097716E-4,2.8479653E-3,1.6770558E-3,5.7997135E-4,2.9491305E-2,7.557548E-4,7.895429E-3,6.0278806E-3,6.3452674E-3,0E0,2.6708115E-3,2.4461653E-3,9.1634225E-5,1.1504858E-3,1.3060473E-3,2.6695086E-3,1.1214808E-2,1.4009661E-3,0E0,0E0,0E0,0E0,0E0,0E0,0E0,0E0,0E0,0E0,0E0,0E0,0E0,0E0,0E0,0E0,0E0,0E0,0E0,0E0,0E0,0E0,0E0,0E0,0E0,0E0,0E0,0E0,0E0,0E0,0E0,0E0,0E0,0E0,0E0,0E0,0E0,0E0,0E0,0E0,0E0,0E0,0E0,0E0,0E0,0E0,0E0,0E0,0E0,0E0,0E0,0E0,0E0,0E0],"parents":[2147483647,0,0,1,1,2,2,3,3,4,4,5,5,6,6,7,7,8,8,9,9,10,10,11,11,12,12,13,13,14,14,15,15,16,16,17,17,18,18,19,19,20,20,21,21,22,22,23,23,24,24,27,27,28,28,29,29,30,30,31,31,32,32,33,33,34,34,35,35,36,36,37,37,38,38,39,39,40,40,41,41,42,42,43,43,44,44,45,45,46,46,47,47,48,48,49,49,51,51,52,52,53,53,54,54,55,55,56,56,57,57,58,58],"right_children":[2,4,6,8,10,12,14,16,18,20,22,24,26,28,30,32,34,36,38,40,42,44,46,48,50,-1,-1,52,54,56,58,60,62,64,66,68,70,72,74,76,78,80,82,84,86,88,90,92,94,96,-1,98,100,102,104,106,108,110,112,-1,-1,-1,-1,-1,-1,-1,-1,-1,-1,-1,-1,-1,-1,-1,-1,-1,-1,-1,-1,-1,-1,-1,-1,-1,-1,-1,-1,-1,-1,-1,-1,-1,-1,-1,-1,-1,-1,-1,-1,-1,-1,-1,-1,-1,-1,-1,-1,-1,-1,-1,-1,-1,-1],"split_conditions":[1.6080829E0,3.266013E-1,-1.2230655E0,-1.1273056E0,1.4073371E0,4.309765E0,2.7941062E0,8.884546E-1,4.309765E0,5.7529798E0,4.309765E0,-8.317465E-1,-3.7906199E0,5.1338875E-1,1.5041096E0,6.8499565E-2,7.5196207E-1,1.9732001E0,1.8887478E0,-5.804313E-1,7.371314E-1,-1.1655327E0,-5.9362733E-1,8.1230307E-1,2.3504663E0,5.8446135E-3,3.342262E-4,3.8089266E-1,1.7228261E0,-5.2417874E-1,-2.661482E-1,9.8618156E-1,-1.2978324E0,1.0566827E0,4.2340833E-1,1.0080196E0,-8.672631E-1,-8.010668E-1,-3.067684E-1,4.309765E0,4.309765E0,-1.0804122E-1,1.5081784E0,1.4737787E0,1.1206516E0,-6.820858E-1,1.9499809E0,1.8082513E0,3.3729079E0,1.0950764E-1,2.7893775E-3,-5.481932E-1,-5.7208955E-1,9.5766234E-1,1.4253718E-1,-7.3252094E-1,7.633912E-2,-8.4082407E-1,1.4247224E0,1.2079381E-4,-8.29191E-5,-2.6889718E-5,3.7202172E-4,1.1193611E-3,-3.319357E-5,4.403096E-4,2.4283461E-5,-7.43305E-5,1.8135075E-5,-9.882262E-6,-1.3122817E-4,2.3887912E-4,-7.4954437E-6,1.0797129E-3,2.1423267E-4,8.9212524E-5,2.2471966E-3,-6.20393E-6,8.962856E-4,-1.9486435E-5,1.3890141E-3,1.1424832E-4,6.607191E-4,1.8206495E-4,1.996366E-3,4.2179218E-4,4.505984E-5,1.3542151E-3,7.85802E-3,3.619186E-5,8.0246443E-4,1.2620774E-3,3.3382082E-3,8.398357E-5,1.9342367E-3,8.983056E-4,-3.720284E-5,5.164906E-4,1.5003678E-4,3.5723086E-5,1.3188513E-3,-7.625715E-5,-1.949372E-4,3.6284877E-5,1.0695496E-3,2.8782184E-4,-2.5408448E-5,1.4892505E-3,3.5311372E-4,2.772625E-3,8.498273E-4,-1.0974437E-4,4.5090073E-4],"split_indices":[5,5,9,11,9,28,5,9,43,27,39,11,1,7,49,5,1,44,10,7,6,6,6,16,48,0,0,7,7,7,11,3,0,3,4,9,11,11,5,39,31,4,11,1,1,6,6,5,5,7,0,10,10,6,9,11,9,9,4,0,0,0,0,0,0,0,0,0,0,0,0,0,0,0,0,0,0,0,0,0,0,0,0,0,0,0,0,0,0,0,0,0,0,0,0,0,0,0,0,0,0,0,0,0,0,0,0,0,0,0,0,0,0],"split_type":[0,0,0,0,0,0,0,0,0,0,0,0,0,0,0,0,0,0,0,0,0,0,0,0,0,0,0,0,0,0,0,0,0,0,0,0,0,0,0,0,0,0,0,0,0,0,0,0,0,0,0,0,0,0,0,0,0,0,0,0,0,0,0,0,0,0,0,0,0,0,0,0,0,0,0,0,0,0,0,0,0,0,0,0,0,0,0,0,0,0,0,0,0,0,0,0,0,0,0,0,0,0,0,0,0,0,0,0,0,0,0,0,0],"sum_hessian":[1.1854E4,1.1056E4,7.98E2,9.143E3,1.913E3,1.25E2,6.73E2,6.5E1,9.078E3,1.798E3,1.15E2,1.22E2,3E0,3.97E2,2.76E2,3.6E1,2.9E1,8.606E3,4.72E2,1.664E3,1.34E2,8.8E1,2.7E1,3.9E1,8.3E1,2E0,1E0,3.08E2,8.9E1,1.61E2,1.15E2,2.4E1,1.2E1,1.1E1,1.8E1,6.483E3,2.123E3,4.6E2,1.2E1,6.86E2,9.78E2,1.4E1,1.2E2,6E0,8.2E1,7E0,2E1,2.2E1,1.7E1,7.8E1,5E0,2.93E2,1.5E1,7.9E1,1E1,1.34E2,2.7E1,7.2E1,4.3E1,2.3E1,1E0,2E0,1E1,1E1,1E0,1.2E1,6E0,5.284E3,1.199E3,1.31E2,1.992E3,1.09E2,3.51E2,1E1,2E0,6.64E2,2.2E1,9.65E2,1.3E1,1E0,1.3E1,8.8E1,3.2E1,2E0,4E0,1.1E1,7.1E1,4E0,3E0,1.7E1,3E0,1E1,1.2E1,1E1,7E0,5E1,2.8E1,6.3E1,2.3E2,6E0,9E0,2.6E1,5.3E1,6E0,4E0,5.8E1,7.6E1,1.9E1,8E0,8E0,6.4E1,2.1E1,2.2E1],"tree_param":{"num_deleted":"0","num_feature":"50","num_nodes":"113","size_leaf_vector":"1"}},{"base_weights":[3.4723234E-5,-6.112614E-4,9.159829E-3,-1.1638912E-3,2.5397977E-3,2.4205312E-2,6.277996E-3,8.264933E-3,-1.2371861E-3,1.7755486E-3,8.194762E-3,1.8592147E-2,5.3025484E-2,9.826835E-3,4.191406E-3,3.941496E-3,1.2598978E-2,-1.4684228E-3,6.688306E-4,2.3013115E-2,1.5393269E-3,1.6999075E-2,3.20814E-3,2.2385573E-2,-2.8074991E-3,7.195079E-2,-3.1253584E-3,2.695198E-3,9.239818E-3,2.9071728E-3,1.2112384E-2,7.440554E-4,2.9203754E-3,2.0039061E-2,6.3303933E-3,8.8817615E-4,-1.5988126E-3,4.5749103E-3,1.7441603E-4,-8.5716543E-4,3.1041304E-2,1.7710833E-2,1.2423539E-3,6.426221E-3,8.085086E-2,4.8865814E-4,1.4858888E-2,2.4118762E-2,-1.8582345E-3,5.2407828E-5,-3.1139874E-3,8.239749E-3,8.1118666E-2,-3.573893E-4,1.6398325E-4,1.0629028E-2,-2.2160758E-3,2.5928137E-3,1.8434357E-2,2.8971478E-3,8.559026E-3,9.230477E-5,2.7644474E-4,6.047031E-5,1.1321313E-3,1.8563871E-4,1.4670695E-3,-2.4302773E-5,3.4385195E-4,-9.46678E-5,-3.9661663E-5,-1.04245555E-4,3.332858E-4,-1.299509E-4,4.0637417E-5,1.07181495E-5,-1.2858199E-4,1.7382115E-3,-2.477724E-4,4.286903E-4,1.859871E-3,3.101521E-4,4.1069692E-5,-8.511024E-5,7.5766415E-4,9.164908E-4,5.2513527E-3,6.477726E-4,-6.978405E-6,1.7336398E-4,9.672797E-4,1.5906297E-3,7.742151E-4,7.0807943E-4,-3.444235E-4,-4.887418E-5,-1.7659178E-4,-2.5174097E-4,8.697221E-4,2.7010378E-3,5.1864716E-3,3.6555916E-4,9.77062E-4,-1.6186685E-4,2.2327546E-4,-1.467085E-5,1.8629098E-4,8.6536164E-7,1.075049E-3,5.705196E-5,5.923786E-4],"categories":[],"categories_nodes":[],"categories_segments":[],"categories_sizes":[],"default_left":[0,0,0,0,0,0,0,0,0,0,0,0,0,0,0,0,0,0,0,0,0,0,0,0,0,0,0,0,0,0,0,0,0,0,0,0,0,0,0,0,0,0,0,0,0,0,0,0,0,0,0,0,0,0,0,0,0,0,0,0,0,0,0,0,0,0,0,0,0,0,0,0,0,0,0,0,0,0,0,0,0,0,0,0,0,0,0,0,0,0,0,0,0,0,0,0,0,0,0,0,0,0,0,0,0,0,0,0,0,0,0],"id":13,"left_children":[1,3,5,7,9,11,13,15,17,19,21,23,25,27,29,31,33,35,37,39,41,43,45,47,49,51,53,-1,55,57,59,-1,61,63,65,67,69,71,73,75,77,79,81,83,85,87,89,91,93,-1,95,97,99,-1,-1,101,103,105,107,-1,109,-1,-1,-1,-1,-1,-1,-1,-1,-1,-1,-1,-1,-1,-1,-1,-1,-1,-1,-1,-1,-1,-1,-1,-1,-1,-1,-1,-1,-1,-1,-1,-1,-1,-1,-1,-1,-1,-1,-1,-1,-1,-1,-1,-1,-1,-1,-1,-1,-1,-1],"loss_changes":[7.008152E-2,1.9337377E-2,3.3927865E-2,6.538907E-3,7.1466733E-3,1.9397475E-2,4.8535E-3,1.3182131E-3,4.1329274E-3,7.294083E-3,8.594507E-3,8.748893E-3,2.1478307E-2,5.8152024E-3,4.2168433E-3,3.810266E-4,1.5521417E-3,2.5705602E-3,1.959393E-3,3.0927695E-3,6.922411E-3,4.7412217E-2,4.0166066E-3,3.8685538E-3,2.3353074E-5,8.093029E-3,1.7802481E-4,0E0,3.874896E-3,1.7142845E-3,8.949506E-3,0E0,9.0675254E-5,7.570032E-4,1.1559767E-3,3.6163498E-3,1.8784516E-3,1.6012783E-3,1.5989884E-3,9.736804E-6,1.7804326E-3,4.310363E-3,2.9623106E-3,4.4239047E-3,1.3190083E-2,8.1633276E-4,1.1595828E-3,5.154129E-3,6.6163606E-4,0E0,1.0831442E-5,4.521517E-4,2.361618E-3,0E0,0E0,6.244106E-3,1.986947E-4,1.1619846E-3,3.9497507E-4,0E0,1.3281726E-3,0E0,0E0,0E0,0E0,0E0,0E0,0E0,0E0,0E0,0E0,0E0,0E0,0E0,0E0,0E0,0E0,0E0,0E0,0E0,0E0,0E0,0E0,0E0,0E0,0E0,0E0,0E0,0E0,0E0,0E0,0E0,0E0,0E0,0E0,0E0,0E0,0E0,0E0,0E0,0E0,0E0,0E0,0E0,0E0,0E0,0E0,0E0,0E0,0E0,0E0],"parents":[2147483647,0,0,1,1,2,2,3,3,4,4,5,5,6,6,7,7,8,8,9,9,10,10,11,11,12,12,13,13,14,14,15,15,16,16,17,17,18,18,19,19,20,20,21,21,22,22,23,23,24,24,25,25,26,26,28,28,29,29,30,30,32,32,33,33,34,34,35,35,36,36,37,37,38,38,39,39,40,40,41,41,42,42,43,43,44,44,45,45,46,46,47,47,48,48,50,50,51,51,52,52,55,55,56,56,57,57,58,58,60,60],"right_children":[2,4,6,8,10,12,14,16,18,20,22,24,26,28,30,32,34,36,38,40,42,44,46,48,50,52,54,-1,56,58,60,-1,62,64,66,68,70,72,74,76,78,80,82,84,86,88,90,92,94,-1,96,98,100,-1,-1,102,104,106,108,-1,110,-1,-1,-1,-1,-1,-1,-1,-1,-1,-1,-1,-1,-1,-1,-1,-1,-1,-1,-1,-1,-1,-1,-1,-1,-1,-1,-1,-1,-1,-1,-1,-1,-1,-1,-1,-1,-1,-1,-1,-1,-1,-1,-1,-1,-1,-1,-1,-1,-1,-1],"split_conditions":[1.6080829E0,4.3020558E-1,-1.2230655E0,-1.1273056E0,1.7883569E0,3.3729079E0,-6.0365784E-1,9.280677E-1,2.9642937E0,-3.0481472E0,-5.8893704E-1,1.1107851E0,3.967215E0,-1.1822888E0,2.501785E0,-8.3837676E-1,9.851543E-1,-9.6757764E-1,-8.010668E-1,-9.289296E-1,-1.1461271E0,4.309765E0,1.75148E0,-7.5980866E-1,-4.061316E0,1.0923694E0,4.0240545E0,2.695198E-3,9.9674326E-1,4.309765E0,8.37268E-2,7.440554E-4,6.3003147E-1,-3.2023394E-1,3.093353E0,4.309765E0,1.5041096E0,-4.5939407E-1,-7.3164463E-1,1.5045325E0,1.5604773E0,8.6840034E-1,-1.5628232E0,1.5041096E0,1.0372938E0,-7.1466905E-1,-7.342527E-1,8.442545E-1,-2.7690086E0,5.2407828E-5,8.931675E-1,-6.209061E-1,6.464111E-1,-3.573893E-4,1.6398325E-4,-3.7649345E-1,2.8144598E0,8.0308807E-1,2.040747E0,2.8971478E-3,4.309765E0,9.230477E-5,2.7644474E-4,6.047031E-5,1.1321313E-3,1.8563871E-4,1.4670695E-3,-2.4302773E-5,3.4385195E-4,-9.46678E-5,-3.9661663E-5,-1.04245555E-4,3.332858E-4,-1.299509E-4,4.0637417E-5,1.07181495E-5,-1.2858199E-4,1.7382115E-3,-2.477724E-4,4.286903E-4,1.859871E-3,3.101521E-4,4.1069692E-5,-8.511024E-5,7.5766415E-4,9.164908E-4,5.2513527E-3,6.477726E-4,-6.978405E-6,1.7336398E-4,9.672797E-4,1.5906297E-3,7.742151E-4,7.0807943E-4,-3.444235E-4,-4.887418E-5,-1.7659178E-4,-2.5174097E-4,8.697221E-4,2.7010378E-3,5.1864716E-3,3.6555916E-4,9.77062E-4,-1.6186685E-4,2.2327546E-4,-1.467085E-5,1.8629098E-4,8.6536164E-7,1.075049E-3,5.705196E-5,5.923786E-4],"split_indices":[5,5,9,11,3,5,15,9,46,3,11,12,5,12,15,17,15,7,11,7,7,39,11,13,15,22,0,0,12,24,3,0,15,0,2,41,49,8,12,5,5,9,9,49,5,7,14,16,2,0,7,0,14,0,0,11,0,8,5,0,39,0,0,0,0,0,0,0,0,0,0,0,0,0,0,0,0,0,0,0,0,0,0,0,0,0,0,0,0,0,0,0,0,0,0,0,0,0,0,0,0,0,0,0,0,0,0,0,0,0,0],"split_type":[0,0,0,0,0,0,0,0,0,0,0,0,0,0,0,0,0,0,0,0,0,0,0,0,0,0,0,0,0,0,0,0,0,0,0,0,0,0,0,0,0,0,0,0,0,0,0,0,0,0,0,0,0,0,0,0,0,0,0,0,0,0,0,0,0,0,0,0,0,0,0,0,0,0,0,0,0,0,0,0,0,0,0,0,0,0,0,0,0,0,0,0,0,0,0,0,0,0,0,0,0,0,0,0,0,0,0,0,0,0,0],"sum_hessian":[1.1887E4,1.1102E4,7.85E2,9.446E3,1.656E3,1.25E2,6.6E2,7.2E1,9.374E3,1.46E3,1.96E2,1.06E2,1.9E1,2.43E2,4.17E2,3.7E1,3.5E1,8.36E3,1.014E3,1.5E1,1.445E3,7E1,1.26E2,9E1,1.6E1,1.4E1,5E0,2E0,2.41E2,3.6E2,5.7E1,2E0,3.5E1,1.5E1,2E1,4.38E2,7.922E3,1.13E2,9.01E2,4E0,1.1E1,2.5E1,1.42E3,6.1E1,9E0,1.03E2,2.3E1,8.4E1,6E0,1E0,1.5E1,2E0,1.2E1,3E0,2E0,2.15E2,2.6E1,3.54E2,6E0,3E0,5.4E1,2.6E1,9E0,2E0,1.3E1,1.9E1,1E0,3.57E2,8.1E1,5.8E3,2.122E3,2.7E1,8.6E1,1.68E2,7.33E2,3E0,1E0,1E1,1E0,1.8E1,7E0,1.1E2,1.31E3,3.2E1,2.9E1,3E0,6E0,4E0,9.9E1,7E0,1.6E1,4.3E1,4.1E1,1E0,5E0,3E0,1.2E1,1E0,1E0,7E0,5E0,1.58E2,5.7E1,2.3E1,3E0,1E2,2.54E2,1E0,5E0,1.7E1,3.7E1],"tree_param":{"num_deleted":"0","num_feature":"50","num_nodes":"111","size_leaf_vector":"1"}},{"base_weights":[4.49842E-5,-6.3047773E-4,7.980525E-3,-1.0966545E-3,2.1837985E-3,2.0716341E-2,5.3868503E-3,7.18755E-3,-1.1606517E-3,1.4059052E-3,1.00869285E-2,1.7983796E-2,6.9362015E-2,3.4795185E-3,8.796469E-3,1.1427118E-2,3.3072194E-3,-1.3975879E-3,7.542326E-4,1.4806224E-2,1.1542403E-3,2.6162859E-2,3.5556867E-3,5.867098E-2,1.6176162E-2,5.229551E-3,7.985268E-3,2.4961084E-3,8.296609E-3,1.2758818E-2,4.8278933E-3,1.363323E-2,9.7022793E-4,2.327438E-3,9.504246E-3,-2.0421993E-3,-9.158746E-4,-4.531795E-5,3.0358273E-3,6.8383915E-3,2.909675E-2,1.7228932E-3,-2.8560108E-3,-4.3859286E-4,5.558755E-2,3.3555512E-4,1.4957264E-2,3.2256318E-3,7.365672E-4,1.9209493E-2,-1.6560782E-3,4.7281742E-4,8.930066E-5,4.4827443E-3,-8.9996087E-4,3.5619347E-3,2.1477876E-2,2.1664027E-2,8.070736E-3,2.7264352E-3,1.2128943E-2,7.724193E-4,-5.5990276E-5,-1.3031038E-4,3.3037722E-4,1.5625636E-4,-6.54882E-5,7.063437E-4,8.567679E-5,-1.1373329E-4,-5.8719535E-5,5.0077513E-5,-5.498022E-5,2.642229E-4,-2.343059E-5,4.367523E-4,8.704422E-5,1.17945885E-4,4.7372593E-4,2.1738529E-3,4.448548E-4,2.7699597E-4,5.3213385E-5,4.6949164E-4,-1.6007072E-4,-8.822418E-5,4.066782E-5,4.1935504E-3,-2.4399797E-4,-7.4570555E-5,4.1150194E-4,6.233205E-5,1.0010417E-3,1.11182E-3,1.1788794E-4,-1.4186389E-4,5.7872775E-4,6.846413E-5,4.7564297E-4,-1.1038033E-4,3.137552E-4,-7.7083874E-5,5.690546E-4,2.1432685E-4,1.3141001E-3,2.6053581E-3,9.576531E-4,2.2121747E-4,1.3246947E-3,1.834338E-5,5.1677716E-4,1.0311058E-3,1.7139837E-5],"categories":[],"categories_nodes":[],"categories_segments":[],"categories_sizes":[],"default_left":[0,0,0,0,0,0,0,0,0,0,0,0,0,0,0,0,0,0,0,0,0,0,0,0,0,0,0,0,0,0,0,0,0,0,0,0,0,0,0,0,0,0,0,0,0,0,0,0,0,0,0,0,0,0,0,0,0,0,0,0,0,0,0,0,0,0,0,0,0,0,0,0,0,0,0,0,0,0,0,0,0,0,0,0,0,0,0,0,0,0,0,0,0,0,0,0,0,0,0,0,0,0,0,0,0,0,0,0,0,0,0,0,0],"id":14,"left_children":[1,3,5,7,9,11,13,15,17,19,21,23,25,27,29,31,33,35,37,39,41,43,45,47,49,-1,51,53,55,57,59,61,63,65,67,69,71,73,75,77,79,81,83,85,87,89,91,-1,-1,93,95,-1,-1,97,99,101,103,105,107,109,111,-1,-1,-1,-1,-1,-1,-1,-1,-1,-1,-1,-1,-1,-1,-1,-1,-1,-1,-1,-1,-1,-1,-1,-1,-1,-1,-1,-1,-1,-1,-1,-1,-1,-1,-1,-1,-1,-1,-1,-1,-1,-1,-1,-1,-1,-1,-1,-1,-1,-1,-1,-1],"loss_changes":[6.3549675E-2,1.4336759E-2,3.0608673E-2,4.9781185E-3,9.533339E-3,1.9622073E-2,5.002929E-3,1.1466746E-3,4.221877E-3,4.754841E-3,1.4501386E-2,1.0083061E-2,1.6462743E-2,2.3384034E-3,4.2941943E-3,7.711211E-4,2.1467698E-4,2.5689062E-3,1.8699942E-3,2.7615032E-3,3.1747334E-3,3.1333957E-2,3.6664386E-3,5.8972277E-4,7.875022E-3,0E0,1.9589264E-5,2.8039368E-3,5.1658535E-3,5.5864286E-3,2.1149304E-3,7.671132E-4,1.5835112E-4,1.0564062E-4,1.5586085E-4,7.114755E-4,1.6709478E-3,1.7170829E-3,1.9479166E-3,1.9020273E-4,2.227475E-3,3.056145E-3,7.6180894E-4,3.7954003E-5,3.290367E-2,1.1516878E-3,1.5023844E-3,0E0,0E0,6.272644E-3,3.766566E-4,0E0,0E0,4.0901746E-3,1.4587493E-3,2.5316207E-3,1.7043073E-3,2.5947466E-3,6.0631526E-3,1.9711708E-3,3.096085E-3,0E0,0E0,0E0,0E0,0E0,0E0,0E0,0E0,0E0,0E0,0E0,0E0,0E0,0E0,0E0,0E0,0E0,0E0,0E0,0E0,0E0,0E0,0E0,0E0,0E0,0E0,0E0,0E0,0E0,0E0,0E0,0E0,0E0,0E0,0E0,0E0,0E0,0E0,0E0,0E0,0E0,0E0,0E0,0E0,0E0,0E0,0E0,0E0,0E0,0E0,0E0,0E0],"parents":[2147483647,0,0,1,1,2,2,3,3,4,4,5,5,6,6,7,7,8,8,9,9,10,10,11,11,12,12,13,13,14,14,15,15,16,16,17,17,18,18,19,19,20,20,21,21,22,22,23,23,24,24,26,26,27,27,28,28,29,29,30,30,31,31,32,32,33,33,34,34,35,35,36,36,37,37,38,38,39,39,40,40,41,41,42,42,43,43,44,44,45,45,46,46,49,49,50,50,53,53,54,54,55,55,56,56,57,57,58,58,59,59,60,60],"right_children":[2,4,6,8,10,12,14,16,18,20,22,24,26,28,30,32,34,36,38,40,42,44,46,48,50,-1,52,54,56,58,60,62,64,66,68,70,72,74,76,78,80,82,84,86,88,90,92,-1,-1,94,96,-1,-1,98,100,102,104,106,108,110,112,-1,-1,-1,-1,-1,-1,-1,-1,-1,-1,-1,-1,-1,-1,-1,-1,-1,-1,-1,-1,-1,-1,-1,-1,-1,-1,-1,-1,-1,-1,-1,-1,-1,-1,-1,-1,-1,-1,-1,-1,-1,-1,-1,-1,-1,-1,-1,-1,-1,-1,-1,-1],"split_conditions":[1.4369962E0,4.0723807E-1,-1.2230655E0,-1.1273056E0,2.0505009E0,4.309765E0,2.7941062E0,1.0710401E-1,2.9642937E0,-1.1461271E0,-5.8893704E-1,-1.1719204E0,-3.6333344E0,5.7529798E0,-2.820293E-1,1.0921268E0,8.632117E-1,-5.276782E-1,8.5035485E-1,5.0767463E-1,1.9732001E0,-1.0182241E0,1.8008077E0,3.002146E-1,1.1878848E0,5.229551E-3,-3.0491977E0,-2.1076071E-1,1.0923694E0,2.951079E0,4.309765E0,5.161567E-1,1.6671443E0,5.546384E-1,4.2340833E-1,4.0838826E-1,-9.610403E-1,-1.188157E0,-5.412257E-1,3.423038E-2,2.4849825E-1,-1.2517806E0,-3.1197517E0,5.769339E-1,2.9642937E0,5.7529798E0,-7.342527E-1,3.2256318E-3,7.365672E-4,-1.4021411E0,1.968056E0,4.7281742E-4,8.930066E-5,-8.7805724E-1,1.6950754E0,4.2426637E-1,-8.3714455E-1,-1.1719204E0,4.309765E0,-2.5378805E-1,-8.6348224E-1,7.724193E-4,-5.5990276E-5,-1.3031038E-4,3.3037722E-4,1.5625636E-4,-6.54882E-5,7.063437E-4,8.567679E-5,-1.1373329E-4,-5.8719535E-5,5.0077513E-5,